{"learner":{"attributes":{"scikit_learn":"{\"_estimator_type\": \"classifier\"}"},"feature_names":["SMA_1","SMA_2","RSI","Volatility","Daily_Return"],"feature_types":["float","float","float","float","float"],"gradient_booster":{"model":{"gbtree_model_param":{"num_parallel_tree":"1","num_trees":"300"},"iteration_indptr":[0,3,6,9,12,15,18,21,24,27,30,33,36,39,42,45,48,51,54,57,60,63,66,69,72,75,78,81,84,87,90,93,96,99,102,105,108,111,114,117,120,123,126,129,132,135,138,141,144,147,150,153,156,159,162,165,168,171,174,177,180,183,186,189,192,195,198,201,204,207,210,213,216,219,222,225,228,231,234,237,240,243,246,249,252,255,258,261,264,267,270,273,276,279,282,285,288,291,294,297,300],"tree_info":[0,1,2,0,1,2,0,1,2,0,1,2,0,1,2,0,1,2,0,1,2,0,1,2,0,1,2,0,1,2,0,1,2,0,1,2,0,1,2,0,1,2,0,1,2,0,1,2,0,1,2,0,1,2,0,1,2,0,1,2,0,1,2,0,1,2,0,1,2,0,1,2,0,1,2,0,1,2,0,1,2,0,1,2,0,1,2,0,1,2,0,1,2,0,1,2,0,1,2,0,1,2,0,1,2,0,1,2,0,1,2,0,1,2,0,1,2,0,1,2,0,1,2,0,1,2,0,1,2,0,1,2,0,1,2,0,1,2,0,1,2,0,1,2,0,1,2,0,1,2,0,1,2,0,1,2,0,1,2,0,1,2,0,1,2,0,1,2,0,1,2,0,1,2,0,1,2,0,1,2,0,1,2,0,1,2,0,1,2,0,1,2,0,1,2,0,1,2,0,1,2,0,1,2,0,1,2,0,1,2,0,1,2,0,1,2,0,1,2,0,1,2,0,1,2,0,1,2,0,1,2,0,1,2,0,1,2,0,1,2,0,1,2,0,1,2,0,1,2,0,1,2,0,1,2,0,1,2,0,1,2,0,1,2,0,1,2,0,1,2,0,1,2,0,1,2,0,1,2,0,1,2,0,1,2,0,1,2,0,1,2,0,1,2,0,1,2,0,1,2],"trees":[{"base_weights":[-4.8568615E-1,-5.677012E-1,-2.7424988E-1,-4.4919792E-1,-6.3178134E-1,-3.044713E-1,3.2727274E-1,-3.5102537E-1,-6.0736203E-1,-7.04971E-1,-4.8314613E-1,3.4883717E-1,-3.6772698E-1,-4.3582517E-1,1.3953485E-1,-6.415095E-1,1.2857142E-1,-4.1584164E-1,-2.161977E-1,2.926829E-1,-5.188557E-1,-5.0769234E-1,1.0684931E0,-3.8893285E-1,5.454545E-1,-4.800004E-2,-5.109613E-1,2.4545455E-1,-8.5714325E-2,-2.0736344E-1,-2.3076928E-1,-1.918033E-1,-6.1224528E-2,-1.2857145E-1,2.1724138E-1,-2.5423732E-1,-5.8901834E-1,-1.8679248E-1,-7.663455E-9,-7.663455E-9,3.8360658E-1,-4.478874E-1,-7.177038E-2,-7.663455E-9,2.5714284E-1,-1.956522E-1,1.7999999E-1,8.780487E-2,-1.6844922E-1,-1.3584907E-1,7.3770486E-2,2.5714284E-1,-1.8679248E-1,2.5714284E-1,-1.7027028E-1,-2.0571432E-1,1E-1,-1.1612905E-1,-2.061069E-1,1.855669E-2,-1.4831118E-1,1.0285714E-1,-1.3539825E-1],"categories":[],"categories_nodes":[],"categories_segments":[],"categories_sizes":[],"default_left":[0,0,0,0,0,0,0,0,0,0,0,0,0,0,0,0,0,0,0,0,0,0,0,0,0,0,0,0,0,0,0,0,0,0,0,0,0,0,0,0,0,0,0,0,0,0,0,0,0,0,0,0,0,0,0,0,0,0,0,0,0,0,0],"id":0,"left_children":[1,3,5,7,9,11,-1,13,15,17,19,21,23,25,27,29,-1,31,-1,33,35,37,39,41,43,45,47,-1,49,-1,51,-1,53,-1,-1,55,57,-1,-1,-1,-1,59,61,-1,-1,-1,-1,-1,-1,-1,-1,-1,-1,-1,-1,-1,-1,-1,-1,-1,-1,-1,-1],"loss_changes":[9.603424E0,2.7882996E0,6.90119E0,2.0451756E0,2.4890213E0,6.598009E0,0E0,3.89258E0,2.196947E0,4.8099518E-1,2.6175613E0,9.377626E0,2.9856186E0,2.2710314E0,2.26119E0,9.2246056E-1,0E0,8.503058E-1,0E0,1.7279828E0,1.4366398E0,4.2148054E-1,1.8216925E0,2.5959835E0,6.233767E-1,5.8288693E0,2.84029E0,0E0,1.531669E0,0E0,3.6126895E0,0E0,3.0182018E0,0E0,0E0,5.214528E0,1.0555363E0,0E0,0E0,0E0,0E0,2.8344269E0,3.8093333E0,0E0,0E0,0E0,0E0,0E0,0E0,0E0,0E0,0E0,0E0,0E0,0E0,0E0,0E0,0E0,0E0,0E0,0E0,0E0,0E0],"parents":[2147483647,0,0,1,1,2,2,3,3,4,4,5,5,7,7,8,8,9,9,10,10,11,11,12,12,13,13,14,14,15,15,17,17,19,19,20,20,21,21,22,22,23,23,24,24,25,25,26,26,28,28,30,30,32,32,35,35,36,36,41,41,42,42],"right_children":[2,4,6,8,10,12,-1,14,16,18,20,22,24,26,28,30,-1,32,-1,34,36,38,40,42,44,46,48,-1,50,-1,52,-1,54,-1,-1,56,58,-1,-1,-1,-1,60,62,-1,-1,-1,-1,-1,-1,-1,-1,-1,-1,-1,-1,-1,-1,-1,-1,-1,-1,-1,-1],"split_conditions":[2.7891114E0,5.190856E1,7.551655E1,1.6725016E0,1.7033759E0,2.52657E1,3.2727274E-1,1.5113112E0,5.1685616E1,4.6262464E-1,-7.791887E-2,2.310475E1,8.182938E1,1.3260104E1,1.5447596E0,4.46483E1,1.2857142E-1,1.4823684E1,-2.161977E-1,2.84775E1,2.08429E1,3.7805244E1,2.1117125E1,5.4165206E0,-1.28369145E-2,1.4696517E1,4.8607364E-1,2.4545455E-1,1.5955418E0,-2.0736344E-1,3.79775E1,-1.918033E-1,1.7148563E1,-1.2857145E-1,2.1724138E-1,1.984715E1,6.0756836E1,-1.8679248E-1,-7.663455E-9,-7.663455E-9,3.8360658E-1,2.8930562E0,6.66099E1,-7.663455E-9,2.5714284E-1,-1.956522E-1,1.7999999E-1,8.780487E-2,-1.6844922E-1,-1.3584907E-1,7.3770486E-2,2.5714284E-1,-1.8679248E-1,2.5714284E-1,-1.7027028E-1,-2.0571432E-1,1E-1,-1.1612905E-1,-2.061069E-1,1.855669E-2,-1.4831118E-1,1.0285714E-1,-1.3539825E-1],"split_indices":[3,2,1,3,3,1,0,3,2,3,4,0,0,0,3,1,0,1,0,1,1,2,1,3,4,1,3,0,3,0,0,0,0,0,0,1,2,0,0,0,0,3,1,0,0,0,0,0,0,0,0,0,0,0,0,0,0,0,0,0,0,0,0],"split_type":[0,0,0,0,0,0,0,0,0,0,0,0,0,0,0,0,0,0,0,0,0,0,0,0,0,0,0,0,0,0,0,0,0,0,0,0,0,0,0,0,0,0,0,0,0,0,0,0,0,0,0,0,0,0,0,0,0,0,0,0,0,0,0],"sum_hessian":[5.617778E2,4.0355554E2,1.5822221E2,1.4444444E2,2.5911108E2,1.5555554E2,2.6666665E0,9.111111E1,5.333333E1,1.711111E2,8.799999E1,1.3333332E1,1.4222221E2,7.777777E1,1.3333332E1,5.1999996E1,1.3333333E0,1.0222221E1,1.6088889E2,3.5555553E0,8.444444E1,6.222222E0,7.1111107E0,1.3955554E2,2.6666665E0,1.2888888E1,6.4888885E1,2.6666665E0,1.0666666E1,4.5777775E1,6.222222E0,5.7777777E0,4.444444E0,1.3333333E0,2.222222E0,1.8666666E1,6.577777E1,4.8888884E0,1.3333333E0,1.3333333E0,5.7777777E0,1.1733333E2,2.2222221E1,1.3333333E0,1.3333333E0,6.666666E0,6.222222E0,3.5555553E0,6.133333E1,4.8888884E0,5.7777777E0,1.3333333E0,4.8888884E0,1.3333333E0,3.111111E0,1.0666666E1,7.9999995E0,2.311111E1,4.2666664E1,9.777777E0,1.0755555E2,1.0666666E1,1.1555555E1],"tree_param":{"num_deleted":"0","num_feature":"5","num_nodes":"63","size_leaf_vector":"1"}},{"base_weights":[9.3405724E-1,7.819905E-1,1.1817706E0,1.1679748E0,6.823019E-1,1.4084125E0,1.0313294E0,4.752475E-1,1.2770642E0,7.670005E-1,4.252696E-1,1.2857142E-1,1.4193103E0,6.9230765E-1,1.3438016E0,-4.9180366E-2,3.122449E-1,5.753424E-1,1.3596673E0,6.284585E-1,1.0296412E0,4.7039998E-1,-1.6363637E-1,1.2857142E-1,4.2917252E-1,1.01694874E-1,9.2805755E-1,-7.663455E-9,1.3709949E0,-3.658537E-1,1.2413793E-1,-1.2857145E-1,2.5081968E-1,7.402597E-1,4.336562E-1,6.98299E-1,9.554136E-2,3.230769E-1,1.0923077E0,3.5010058E-1,8.7591237E-1,3.8461536E-1,-3.913044E-1,1.111821E0,3.451327E-1,4.1514632E-1,1.2857142E-1,-1.5517244E-1,-7.663455E-9,3.3157894E-1,-6.206898E-2,1.9774647E-1,3.8360658E-1,-8.761064E-2,2.7169812E-1,-9.729732E-2,2.6756757E-1,3.3455497E-1,-7.663455E-9,3.730569E-2,1.4376996E-1,3.230769E-1,-6.206898E-2,1.6981121E-2,1.7260273E-1,-9.753488E-9,-1.8E-1,3.9130437E-1,2.5714287E-1,-9.473686E-2,2.6307693E-1],"categories":[],"categories_nodes":[],"categories_segments":[],"categories_sizes":[],"default_left":[0,0,0,0,0,0,0,0,0,0,0,0,0,0,0,0,0,0,0,0,0,0,0,0,0,0,0,0,0,0,0,0,0,0,0,0,0,0,0,0,0,0,0,0,0,0,0,0,0,0,0,0,0,0,0,0,0,0,0,0,0,0,0,0,0,0,0,0,0,0,0],"id":1,"left_children":[1,3,5,7,9,11,13,15,17,19,21,-1,23,25,27,29,-1,31,33,35,37,39,-1,-1,-1,41,43,-1,45,47,-1,-1,-1,49,-1,51,53,55,57,59,61,63,65,67,69,-1,-1,-1,-1,-1,-1,-1,-1,-1,-1,-1,-1,-1,-1,-1,-1,-1,-1,-1,-1,-1,-1,-1,-1,-1,-1],"loss_changes":[2.0275116E1,1.2734634E1,5.779663E0,4.7416916E0,5.810623E0,2.6615906E-1,1.2970673E1,3.3796995E0,2.7277908E0,7.022438E0,3.4157057E0,0E0,2.8593445E-1,8.956018E0,2.456459E0,1.1450869E0,0E0,2.481345E0,1.7720108E0,5.16465E0,2.8006744E0,3.0810442E0,0E0,0E0,0E0,2.8936E0,4.5795174E0,0E0,2.033844E-1,2.5231284E-1,0E0,0E0,0E0,3.186461E0,0E0,1.9768028E0,5.7417493E0,2.9488566E0,1.6241684E0,1.5502157E0,3.5360212E0,7.807225E-1,6.2608695E-1,5.8722305E-1,4.68985E0,0E0,0E0,0E0,0E0,0E0,0E0,0E0,0E0,0E0,0E0,0E0,0E0,0E0,0E0,0E0,0E0,0E0,0E0,0E0,0E0,0E0,0E0,0E0,0E0,0E0,0E0],"parents":[2147483647,0,0,1,1,2,2,3,3,4,4,5,5,6,6,7,7,8,8,9,9,10,10,12,12,13,13,14,14,15,15,17,17,18,18,19,19,20,20,21,21,25,25,26,26,28,28,29,29,33,33,35,35,36,36,37,37,38,38,39,39,40,40,41,41,42,42,43,43,44,44],"right_children":[2,4,6,8,10,12,14,16,18,20,22,-1,24,26,28,30,-1,32,34,36,38,40,-1,-1,-1,42,44,-1,46,48,-1,-1,-1,50,-1,52,54,56,58,60,62,64,66,68,70,-1,-1,-1,-1,-1,-1,-1,-1,-1,-1,-1,-1,-1,-1,-1,-1,-1,-1,-1,-1,-1,-1,-1,-1,-1,-1],"split_conditions":[6.0756836E1,9.167177E-1,1.8862425E1,1.2772875E1,3.908821E0,3.7865978E-1,3.42445E1,-3.9363895E-3,4.8607364E-1,3.79775E1,7.551655E1,1.2857142E-1,-3.9704822E-2,2.2123912E-2,-6.1127383E-2,5.087838E1,3.122449E-1,-5.382042E-2,4.3701794E1,3.28931E1,1.5840725E0,6.907562E1,-1.6363637E-1,1.2857142E-1,4.2917252E-1,-1.6853247E-3,2.779825E1,-7.663455E-9,6.809474E0,1.2659187E1,1.2413793E-1,-1.2857145E-1,2.5081968E-1,4.210155E1,4.336562E-1,3.11981E1,6.365992E-2,4.36025E1,6.010287E1,3.5601658E1,8.182938E1,1.9554026E1,2.4704E1,1.7033759E0,2.50428E1,4.1514632E-1,1.2857142E-1,-1.5517244E-1,-7.663455E-9,3.3157894E-1,-6.206898E-2,1.9774647E-1,3.8360658E-1,-8.761064E-2,2.7169812E-1,-9.729732E-2,2.6756757E-1,3.3455497E-1,-7.663455E-9,3.730569E-2,1.4376996E-1,3.230769E-1,-6.206898E-2,1.6981121E-2,1.7260273E-1,-9.753488E-9,-1.8E-1,3.9130437E-1,2.5714287E-1,-9.473686E-2,2.6307693E-1],"split_indices":[2,3,1,0,3,3,0,4,3,0,1,0,4,4,4,2,0,4,2,1,3,0,0,0,0,4,0,0,3,0,0,0,0,2,0,1,4,0,2,2,0,1,0,3,1,0,0,0,0,0,0,0,0,0,0,0,0,0,0,0,0,0,0,0,0,0,0,0,0,0,0],"split_type":[0,0,0,0,0,0,0,0,0,0,0,0,0,0,0,0,0,0,0,0,0,0,0,0,0,0,0,0,0,0,0,0,0,0,0,0,0,0,0,0,0,0,0,0,0,0,0,0,0,0,0,0,0,0,0,0,0,0,0,0,0,0,0,0,0,0,0,0,0,0,0],"sum_hessian":[5.617778E2,3.5066666E2,2.111111E2,6.977777E1,2.808889E2,8.0888885E1,1.3022221E2,1.0222221E1,5.9555553E1,2.0977777E2,7.111111E1,1.3333333E0,7.955555E1,6.3999996E1,6.622222E1,5.7777777E0,4.444444E0,7.1111107E0,5.2444443E1,1.3955554E2,7.022222E1,6.844444E1,2.6666665E0,1.3333333E0,7.822221E1,1.8666666E1,4.5333332E1,1.3333333E0,6.4888885E1,3.5555553E0,2.222222E0,1.3333333E0,5.7777777E0,7.5555553E0,4.4888885E1,1.2311111E2,1.6444443E1,6.222222E0,6.3999996E1,5.4222218E1,1.4222221E1,1.1999999E1,6.666666E0,3.3777775E1,1.1555555E1,6.3555553E1,1.3333333E0,2.222222E0,1.3333333E0,5.333333E0,2.222222E0,1.1733333E2,5.7777777E0,1.1555555E1,4.8888884E0,3.111111E0,3.111111E0,6.2666664E1,1.3333333E0,2.0444443E1,3.3777775E1,1.1999999E1,2.222222E0,4.8888884E0,7.1111107E0,2.6666665E0,3.9999998E0,1.6888887E1,1.6888887E1,5.333333E0,6.222222E0],"tree_param":{"num_deleted":"0","num_feature":"5","num_nodes":"71","size_leaf_vector":"1"}},{"base_weights":[-4.4837123E-1,-6.5278876E-1,-3.7884772E-1,3.1034475E-2,-6.656026E-1,-2.6669875E-1,-5.118566E-1,-3.692308E-1,-6.766918E-1,-9.6000046E-2,-4.632125E-1,-5.296188E-1,1.6363636E-1,1.2857142E-1,-1.8679248E-1,-4.5132747E-1,-6.944191E-1,-1.4928235E-1,5.3932583E-1,-1.8927449E-1,-5.890412E-1,-3.576279E-8,-5.410426E-1,-5.876289E-1,7.2E-2,-7.0812935E-1,-4.444445E-1,5.555555E-1,-2.0657764E-1,3.6734694E-1,-2.44898E-1,-4.285715E-1,-1.5544085E-2,4.0540537E-1,-6.3910973E-1,1.7999999E-1,-1.5517244E-1,-4.8872188E-1,-6.6112274E-1,-1.9870132E-1,-6.206898E-2,-1.6647401E-1,-2.1948661E-1,1.2857142E-1,-1.956522E-1,3.6734685E-2,2.8536585E-1,-1.6647401E-1,-3.8936976E-2,-1.6363637E-1,7.2E-2,1.2857142E-1,-1.6363639E-1,4.5859862E-2,-1.8E-1,2.5714284E-1,-3.600001E-2,-7.663455E-9,-1.9546193E-1,-1.04908E-1,-1.7322178E-1,-2.030369E-1,-6.206898E-2],"categories":[],"categories_nodes":[],"categories_segments":[],"categories_sizes":[],"default_left":[0,0,0,0,0,0,0,0,0,0,0,0,0,0,0,0,0,0,0,0,0,0,0,0,0,0,0,0,0,0,0,0,0,0,0,0,0,0,0,0,0,0,0,0,0,0,0,0,0,0,0,0,0,0,0,0,0,0,0,0,0,0,0],"id":2,"left_children":[1,3,5,-1,7,9,11,13,15,17,19,21,-1,-1,-1,23,25,27,29,31,33,35,37,39,-1,41,43,45,47,-1,49,51,53,55,57,-1,-1,59,61,-1,-1,-1,-1,-1,-1,-1,-1,-1,-1,-1,-1,-1,-1,-1,-1,-1,-1,-1,-1,-1,-1,-1,-1],"loss_changes":[7.750786E0,1.4394951E0,6.163353E0,0E0,2.0770645E-1,7.7117977E0,3.8967667E0,1.7269752E0,2.1793747E-1,4.3119645E0,3.5843792E0,1.1461868E0,0E0,0E0,0E0,1.3241274E0,1.0149002E-1,4.8037844E0,5.613391E0,1.4576374E0,3.8938084E0,1.862069E0,8.4198E-1,1.6952825E-1,0E0,2.3498535E-3,1.9116634E0,1.425806E0,2.8197236E0,0E0,9.243785E-1,1.7142854E0,2.202462E0,1.07861E0,5.552082E-1,0E0,0E0,1.4379215E0,2.4030304E-1,0E0,0E0,0E0,0E0,0E0,0E0,0E0,0E0,0E0,0E0,0E0,0E0,0E0,0E0,0E0,0E0,0E0,0E0,0E0,0E0,0E0,0E0,0E0,0E0],"parents":[2147483647,0,0,1,1,2,2,4,4,5,5,6,6,7,7,8,8,9,9,10,10,11,11,15,15,16,16,17,17,18,18,19,19,20,20,21,21,22,22,23,23,25,25,26,26,27,27,28,28,30,30,31,31,32,32,33,33,34,34,37,37,38,38],"right_children":[2,4,6,-1,8,10,12,14,16,18,20,22,-1,-1,-1,24,26,28,30,32,34,36,38,40,-1,42,44,46,48,-1,50,52,54,56,58,-1,-1,60,62,-1,-1,-1,-1,-1,-1,-1,-1,-1,-1,-1,-1,-1,-1,-1,-1,-1,-1,-1,-1,-1,-1,-1,-1],"split_conditions":[9.650046E-1,3.7865978E-1,2.2123912E-2,3.1034475E-2,1.050475E1,3.79775E1,2.8381172E-1,-1.2384469E-2,4.35527E1,3.5978825E1,3.9344257E1,3.4444736E1,1.6363636E-1,1.2857142E-1,-1.8679248E-1,4.2281765E1,2.1179811E1,1.4388312E1,3.972905E1,3.341176E1,1.2549149E0,4.138675E1,1.095294E-1,-4.3863896E-2,7.2E-2,1.2772875E1,2.25945E1,1.3608937E1,1.7006437E1,3.6734694E-1,3.674245E0,2.431914E1,5.4165206E0,4.36025E1,-1.7247222E-1,1.7999999E-1,-1.5517244E-1,6.010287E1,7.836672E1,-1.9870132E-1,-6.206898E-2,-1.6647401E-1,-2.1948661E-1,1.2857142E-1,-1.956522E-1,3.6734685E-2,2.8536585E-1,-1.6647401E-1,-3.8936976E-2,-1.6363637E-1,7.2E-2,1.2857142E-1,-1.6363639E-1,4.5859862E-2,-1.8E-1,2.5714284E-1,-3.600001E-2,-7.663455E-9,-1.9546193E-1,-1.04908E-1,-1.7322178E-1,-2.030369E-1,-6.206898E-2],"split_indices":[3,3,4,0,0,0,4,4,2,1,2,2,0,0,0,2,0,0,1,2,3,0,4,4,0,0,0,0,0,0,3,2,3,0,4,0,0,2,2,0,0,0,0,0,0,0,0,0,0,0,0,0,0,0,0,0,0,0,0,0,0,0,0],"split_type":[0,0,0,0,0,0,0,0,0,0,0,0,0,0,0,0,0,0,0,0,0,0,0,0,0,0,0,0,0,0,0,0,0,0,0,0,0,0,0,0,0,0,0,0,0,0,0,0,0,0,0,0,0,0,0,0,0,0,0,0,0,0,0],"sum_hessian":[5.617778E2,1.4044444E2,4.213333E2,2.222222E0,1.3822221E2,2.3022221E2,1.911111E2,6.222222E0,1.3199998E2,1.2399999E2,1.0622221E2,1.8844443E2,2.6666665E0,1.3333333E0,4.8888884E0,1.1555555E1,1.20444435E2,1.1511111E2,8.888888E0,3.422222E1,7.199999E1,3.9999998E0,1.8444443E2,9.777777E0,1.7777777E0,1.12444435E2,7.9999995E0,7.9999995E0,1.0711111E2,4.444444E0,4.444444E0,1.3777777E1,2.0444443E1,3.111111E0,6.8888885E1,1.7777777E0,2.222222E0,1.3199998E2,5.2444443E1,7.5555553E0,2.222222E0,1.8222221E1,9.422221E1,1.3333333E0,6.666666E0,4.444444E0,3.5555553E0,1.8222221E1,8.8888885E1,2.6666665E0,1.7777777E0,1.3333333E0,1.2444444E1,1.6444443E1,3.9999998E0,1.3333333E0,1.7777777E0,1.3333333E0,6.755555E1,5.333333E1,7.8666664E1,5.0222218E1,2.222222E0],"tree_param":{"num_deleted":"0","num_feature":"5","num_nodes":"63","size_leaf_vector":"1"}},{"base_weights":[-4.108807E-1,-4.9035558E-1,-2.157814E-1,-3.7949738E-1,-5.5262226E-1,-2.4279417E-1,2.5134578E-1,-2.8787798E-1,-5.3346574E-1,-6.231882E-1,-3.997402E-1,6.159565E-2,-3.4716937E-1,-3.6956376E-1,1.5284221E-1,-5.686242E-1,1.1704314E-1,-3.418911E-1,-1.9161311E-1,3.5591316E-1,-4.4013903E-1,2.2889295E-1,-5.174432E-1,-5.5156475E-1,-1.9985007E-1,-4.026759E-2,-4.3797612E-1,-1.4622983E-1,3.0530664E-1,-1.8581732E-1,-1.7384852E-1,-1.7045334E-1,-1.3207613E-2,-2.4016658E-2,1.9745599E-1,-4.461817E-2,-5.2950567E-1,-4.6470925E-1,4.1323876E-1,-1.8481955E-1,1.3443557E-2,1.1660924E-1,-6.090764E-1,1.6732116E-1,-4.1756353E-1,-1.7737025E-1,1.4058688E-1,7.05767E-2,-1.4584756E-1,1.4444612E-1,-7.400846E-2,2.1889117E-1,-1.6673224E-1,2.3455246E-1,-1.5337475E-1,3.885769E-2,-1.5393418E-1,2.5708577E-2,-1.6310485E-1,-1.749047E-1,8.476226E-3,-5.1690217E-2,2.019874E-1,-1.22645766E-1,1.387731E-1,-9.070939E-2,-1.8817633E-1,-1.8479209E-1,1.09704964E-1,1.9886133E-1,-1.4419079E-1],"categories":[],"categories_nodes":[],"categories_segments":[],"categories_sizes":[],"default_left":[0,0,0,0,0,0,0,0,0,0,0,0,0,0,0,0,0,0,0,0,0,0,0,0,0,0,0,0,0,0,0,0,0,0,0,0,0,0,0,0,0,0,0,0,0,0,0,0,0,0,0,0,0,0,0,0,0,0,0,0,0,0,0,0,0,0,0,0,0,0,0],"id":3,"left_children":[1,3,5,7,9,11,-1,13,15,17,19,21,23,25,27,29,-1,31,-1,33,35,37,39,41,43,45,47,-1,49,-1,51,-1,53,-1,-1,55,57,59,61,-1,-1,63,65,67,69,-1,-1,-1,-1,-1,-1,-1,-1,-1,-1,-1,-1,-1,-1,-1,-1,-1,-1,-1,-1,-1,-1,-1,-1,-1,-1],"loss_changes":[7.8118668E0,2.289421E0,4.4608088E0,1.7283382E0,2.2283096E0,4.6797543E0,0E0,3.14571E0,1.799922E0,4.5985413E-1,2.4556952E0,3.827541E0,3.1820192E0,1.6198149E0,1.5277011E0,8.387184E-1,0E0,7.5670207E-1,0E0,6.292151E-1,2.519043E0,4.078983E0,5.2053285E-1,1.809042E0,5.2744412E0,4.0914655E0,2.0632744E0,0E0,1.2880762E0,0E0,2.7418892E0,0E0,2.4640162E0,0E0,0E0,1.2372198E0,5.575638E-1,4.1618836E-1,3.853598E0,0E0,0E0,9.932578E-1,4.341793E-2,4.1017427E0,3.1233668E0,0E0,0E0,0E0,0E0,0E0,0E0,0E0,0E0,0E0,0E0,0E0,0E0,0E0,0E0,0E0,0E0,0E0,0E0,0E0,0E0,0E0,0E0,0E0,0E0,0E0,0E0],"parents":[2147483647,0,0,1,1,2,2,3,3,4,4,5,5,7,7,8,8,9,9,10,10,11,11,12,12,13,13,14,14,15,15,17,17,19,19,20,20,21,21,22,22,23,23,24,24,25,25,26,26,28,28,30,30,32,32,35,35,36,36,37,37,38,38,41,41,42,42,43,43,44,44],"right_children":[2,4,6,8,10,12,-1,14,16,18,20,22,24,26,28,30,-1,32,-1,34,36,38,40,42,44,46,48,-1,50,-1,52,-1,54,-1,-1,56,58,60,62,-1,-1,64,66,68,70,-1,-1,-1,-1,-1,-1,-1,-1,-1,-1,-1,-1,-1,-1,-1,-1,-1,-1,-1,-1,-1,-1,-1,-1,-1,-1],"split_conditions":[2.7891114E0,5.190856E1,7.551655E1,1.6725016E0,1.823001E0,3.24825E1,2.5134578E-1,1.5113112E0,5.1685616E1,4.6262464E-1,1.842535E0,3.57377E1,5.42258E1,1.3260104E1,1.638725E1,4.46483E1,1.1704314E-1,1.4823684E1,-1.9161311E-1,1.9596195E-2,-3.177164E-2,2.106415E1,1.4418836E-1,2.8701434E0,6.2696E1,1.4696517E1,4.8607364E-1,-1.4622983E-1,5.030666E1,-1.8581732E-1,3.79775E1,-1.7045334E-1,1.7148563E1,-2.4016658E-2,1.9745599E-1,6.304705E1,1.8688089E0,9.4428316E-2,3.0235052E0,-1.8481955E-1,1.3443557E-2,4.4321644E1,2.67827E1,-1.5612006E-1,2.920828E0,-1.7737025E-1,1.4058688E-1,7.05767E-2,-1.4584756E-1,1.4444612E-1,-7.400846E-2,2.1889117E-1,-1.6673224E-1,2.3455246E-1,-1.5337475E-1,3.885769E-2,-1.5393418E-1,2.5708577E-2,-1.6310485E-1,-1.749047E-1,8.476226E-3,-5.1690217E-2,2.019874E-1,-1.22645766E-1,1.387731E-1,-9.070939E-2,-1.8817633E-1,-1.8479209E-1,1.09704964E-1,1.9886133E-1,-1.4419079E-1],"split_indices":[3,2,1,3,3,0,0,3,2,3,3,1,1,0,0,1,0,1,0,4,4,1,4,3,0,1,3,0,2,0,0,0,0,0,0,2,3,4,3,0,0,2,1,4,3,0,0,0,0,0,0,0,0,0,0,0,0,0,0,0,0,0,0,0,0,0,0,0,0,0,0],"split_type":[0,0,0,0,0,0,0,0,0,0,0,0,0,0,0,0,0,0,0,0,0,0,0,0,0,0,0,0,0,0,0,0,0,0,0,0,0,0,0,0,0,0,0,0,0,0,0,0,0,0,0,0,0,0,0,0,0,0,0,0,0,0,0,0,0,0,0,0,0,0,0],"sum_hessian":[5.0963678E2,3.6104822E2,1.4858856E2,1.3240752E2,2.286407E2,1.4562453E2,2.96404E0,8.4810455E1,4.759705E1,1.5433011E2,7.4310585E1,3.728883E1,1.083357E2,7.168532E1,1.3125142E1,4.6221897E1,1.3751541E0,9.274811E0,1.450553E2,3.3748364E0,7.093575E1,2.939939E1,7.889441E0,4.4228165E1,6.410754E1,1.260431E1,5.9081005E1,2.1017613E0,1.102338E1,4.0451054E1,5.7708426E0,5.061503E0,4.213308E0,1.6828374E0,1.6919992E0,1.3350056E1,5.7585693E1,5.853753E0,2.3545637E1,6.630686E0,1.2587552E0,3.4237092E0,4.0804455E1,2.3949108E1,4.015843E1,5.974268E0,6.630042E0,3.6866353E0,5.539437E1,8.453158E0,2.5702221E0,1.4441452E0,4.3266973E0,1.4033062E0,2.8100014E0,1.0259895E1,3.0901606E0,1.183522E0,5.6402172E1,4.5734854E0,1.2802675E0,7.3449774E0,1.6200659E1,1.2871774E0,2.1365318E0,3.269686E0,3.7534767E1,4.4139485E0,1.9535158E1,1.6904923E0,3.8467934E1],"tree_param":{"num_deleted":"0","num_feature":"5","num_nodes":"71","size_leaf_vector":"1"}},{"base_weights":[6.5625036E-1,5.53816E-1,8.19546E-1,8.1231254E-1,4.8550707E-1,-1.5002932E-1,8.339519E-1,3.4020922E-1,8.8289243E-1,5.4316646E-1,3.0539623E-1,1.0348822E-1,-1.5510064E-1,2.8932655E-1,7.4289805E-1,-7.089827E-2,7.5433695E-1,4.2625678E-1,9.3388945E-1,4.465932E-1,7.220358E-1,3.3761787E-1,-1.4542073E-1,4.9436557E-1,2.8411996E-1,-3.4218135E-1,9.184942E-2,2.585107E-1,7.745401E-2,-1.24091394E-1,6.3247836E-1,5.301163E-1,2.9635572E-1,4.937318E-1,3.8691953E-2,2.3949315E-1,7.6189715E-1,2.4610202E-1,6.395631E-1,-2.5749676E-2,6.471736E-1,-1.4926882E-1,5.451534E-3,2.2459657E-1,8.414964E-2,2.413465E-1,-6.577836E-2,2.1952534E-1,1.2949574E-1,-9.435139E-2,1.9732213E-1,-9.06682E-2,2.0320405E-1,2.3350625E-1,-1.2641448E-2,1.169313E-1,1.4146713E-2,2.789029E-1,3.7861623E-2,2.186472E-1,-7.3119186E-2,2.3571527E-1,7.558359E-2],"categories":[],"categories_nodes":[],"categories_segments":[],"categories_sizes":[],"default_left":[0,0,0,0,0,0,0,0,0,0,0,0,0,0,0,0,0,0,0,0,0,0,0,0,0,0,0,0,0,0,0,0,0,0,0,0,0,0,0,0,0,0,0,0,0,0,0,0,0,0,0,0,0,0,0,0,0,0,0,0,0,0,0],"id":4,"left_children":[1,3,5,7,9,11,13,15,17,19,21,-1,-1,-1,23,25,27,29,31,33,35,37,-1,39,-1,41,-1,-1,-1,-1,43,45,-1,47,49,51,53,55,57,59,61,-1,-1,-1,-1,-1,-1,-1,-1,-1,-1,-1,-1,-1,-1,-1,-1,-1,-1,-1,-1,-1,-1],"loss_changes":[9.816345E0,6.3223877E0,3.401886E0,2.299446E0,2.9845963E0,9.56185E-1,2.031479E0,2.0580862E0,1.1679611E0,3.624916E0,2.0947661E0,0E0,0E0,0E0,6.6657104E0,8.026774E-1,9.456611E-2,1.7504072E0,7.7610016E-1,2.8846264E0,1.3274307E0,1.8727322E0,0E0,5.2223206E0,0E0,2.5765955E-1,0E0,0E0,0E0,0E0,8.8371515E-2,2.066081E0,0E0,1.6831551E0,3.8646262E0,1.9713752E0,9.861679E-1,1.6395588E0,2.3344784E0,2.7822437E0,2.5761833E0,0E0,0E0,0E0,0E0,0E0,0E0,0E0,0E0,0E0,0E0,0E0,0E0,0E0,0E0,0E0,0E0,0E0,0E0,0E0,0E0,0E0,0E0],"parents":[2147483647,0,0,1,1,2,2,3,3,4,4,5,5,6,6,7,7,8,8,9,9,10,10,14,14,15,15,16,16,17,17,18,18,19,19,20,20,21,21,23,23,25,25,30,30,31,31,33,33,34,34,35,35,36,36,37,37,38,38,39,39,40,40],"right_children":[2,4,6,8,10,12,14,16,18,20,22,-1,-1,-1,24,26,28,30,32,34,36,38,-1,40,-1,42,-1,-1,-1,-1,44,46,-1,48,50,52,54,56,58,60,62,-1,-1,-1,-1,-1,-1,-1,-1,-1,-1,-1,-1,-1,-1,-1,-1,-1,-1,-1,-1,-1,-1],"split_conditions":[6.0756836E1,9.167177E-1,-6.881552E-2,1.2772875E1,3.908821E0,2.524875E1,1.8862425E1,-3.9363895E-3,4.8607364E-1,3.79775E1,7.551655E1,1.0348822E-1,-1.5510064E-1,2.8932655E-1,3.24825E1,5.087838E1,1.1849563E1,-5.382042E-2,4.3701794E1,3.3174576E1,1.5840725E0,6.907562E1,-1.4542073E-1,2.2123912E-2,2.8411996E-1,1.49914255E1,9.184942E-2,2.585107E-1,7.745401E-2,-1.24091394E-1,5.59596E1,4.210155E1,2.9635572E-1,1.54494E1,6.365992E-2,4.36025E1,6.010287E1,4.8969063E1,7.4818E1,1.3698004E0,2.760875E1,-1.4926882E-1,5.451534E-3,2.2459657E-1,8.414964E-2,2.413465E-1,-6.577836E-2,2.1952534E-1,1.2949574E-1,-9.435139E-2,1.9732213E-1,-9.06682E-2,2.0320405E-1,2.3350625E-1,-1.2641448E-2,1.169313E-1,1.4146713E-2,2.789029E-1,3.7861623E-2,2.186472E-1,-7.3119186E-2,2.3571527E-1,7.558359E-2],"split_indices":[2,3,4,0,3,0,1,4,3,0,1,0,0,0,0,2,0,4,2,1,3,0,0,4,0,1,0,0,0,0,2,2,0,1,4,0,2,0,0,3,0,0,0,0,0,0,0,0,0,0,0,0,0,0,0,0,0,0,0,0,0,0,0],"split_type":[0,0,0,0,0,0,0,0,0,0,0,0,0,0,0,0,0,0,0,0,0,0,0,0,0,0,0,0,0,0,0,0,0,0,0,0,0,0,0,0,0,0,0,0,0,0,0,0,0,0,0,0,0,0,0,0,0,0,0,0,0,0,0],"sum_hessian":[6.129864E2,3.7938925E2,2.3359715E2,7.702339E1,3.0236584E2,3.282129E0,2.3031502E2,1.0774408E1,6.6248985E1,2.2751512E2,7.485074E1,1.4228735E0,1.8592554E0,9.0724846E1,1.3959018E2,5.8228374E0,4.9515705E0,7.5955653E0,5.8653416E1,1.5001656E2,7.749856E1,7.2468185E1,2.382551E0,6.449831E1,7.509187E1,3.4402277E0,2.3826098E0,3.4650097E0,1.4865612E0,1.299046E0,6.2965193E0,8.190724E0,5.0462692E1,1.3428738E2,1.57291765E1,6.448165E0,7.105039E1,5.700556E1,1.54626255E1,1.4835146E1,4.9663162E1,2.137703E0,1.3025247E0,3.8866725E0,2.4098468E0,5.9417214E0,2.2490034E0,2.5547607E1,1.0873978E2,1.0328329E1,5.4008474E0,3.020679E0,3.4274857E0,6.965661E1,1.3937885E0,3.2544437E1,2.4461126E1,9.361309E0,6.1013165E0,2.799777E0,1.2035369E1,3.6041203E1,1.3621957E1],"tree_param":{"num_deleted":"0","num_feature":"5","num_nodes":"63","size_leaf_vector":"1"}},{"base_weights":[-3.7517992E-1,-5.438387E-1,-3.0060744E-1,-9.3424916E-2,-5.894679E-1,-1.650428E-1,-4.219119E-1,7.027469E-1,-5.464142E-1,2.725532E-2,-6.01056E-1,-3.5737086E-2,-3.7115955E-1,6.372744E-1,-4.5117736E-1,-1.0982983E-1,3.090794E-1,-1.869787E-1,-4.46043E-3,-4.2900574E-1,-6.320286E-1,3.572935E-1,-1.2873709E-1,-2.5791234E-1,-1.992348E-1,2.9700056E-1,-2.6774572E-2,-1.7999107E-1,-5.4087687E-1,-1.8499947E-1,-2.634923E-1,-5.0232404E-1,-1.978827E-1,9.799384E-1,-3.3749584E-2,-2.0160317E-1,5.711683E-1,-3.379847E-1,2.5203738E-1,-8.826151E-3,-4.2066735E-1,-5.5330926E-1,1.2487161E-1,1.6773898E-2,-1.3323474E-1,-1.8605039E-1,2.8786102E-1,1.7691078E-3,3.5108358E-1,8.965282E-2,-1.076516E-1,-8.51248E-2,1.4709532E-1,2.459115E-1,-1.2904182E-1,-1.19761504E-1,8.803633E-2,-9.644949E-2,1.16385445E-1,9.489028E-2,-1.6495447E-1,-1.239864E-1,-1.8012907E-1],"categories":[],"categories_nodes":[],"categories_segments":[],"categories_sizes":[],"default_left":[0,0,0,0,0,0,0,0,0,0,0,0,0,0,0,0,0,0,0,0,0,0,0,0,0,0,0,0,0,0,0,0,0,0,0,0,0,0,0,0,0,0,0,0,0,0,0,0,0,0,0,0,0,0,0,0,0,0,0,0,0,0,0],"id":5,"left_children":[1,3,5,7,9,11,13,15,17,-1,19,21,23,25,27,-1,-1,-1,-1,29,31,33,35,37,-1,-1,-1,39,41,-1,43,45,-1,47,49,51,53,55,-1,57,59,61,-1,-1,-1,-1,-1,-1,-1,-1,-1,-1,-1,-1,-1,-1,-1,-1,-1,-1,-1,-1,-1],"loss_changes":[6.3104935E0,3.1629028E0,5.836567E0,6.0071054E0,1.1739655E0,4.5509534E0,6.143139E0,2.5095618E0,4.1963768E-1,0E0,4.735031E-1,3.9329429E0,2.01542E0,1.4961879E0,4.3885155E0,0E0,0E0,0E0,0E0,5.963516E-1,8.4732056E-2,5.051879E0,4.5382175E0,4.6071386E0,0E0,0E0,0E0,1.9462688E0,1.8733253E0,0E0,8.7450325E-1,4.830991E0,0E0,1.473496E0,1.5807039E0,4.6458197E0,2.4526372E0,1.9163032E0,0E0,3.6832476E0,2.044776E0,6.540184E-1,0E0,0E0,0E0,0E0,0E0,0E0,0E0,0E0,0E0,0E0,0E0,0E0,0E0,0E0,0E0,0E0,0E0,0E0,0E0,0E0,0E0],"parents":[2147483647,0,0,1,1,2,2,3,3,4,4,5,5,6,6,7,7,8,8,10,10,11,11,12,12,13,13,14,14,19,19,20,20,21,21,22,22,23,23,27,27,28,28,30,30,31,31,33,33,34,34,35,35,36,36,37,37,39,39,40,40,41,41],"right_children":[2,4,6,8,10,12,14,16,18,-1,20,22,24,26,28,-1,-1,-1,-1,30,32,34,36,38,-1,-1,-1,40,42,-1,44,46,-1,48,50,52,54,56,-1,58,60,62,-1,-1,-1,-1,-1,-1,-1,-1,-1,-1,-1,-1,-1,-1,-1,-1,-1,-1,-1,-1,-1],"split_conditions":[1.87223E1,3.7469246E1,3.368319E1,1.5249125E1,3.7865978E-1,4.918026E-2,1.2875822E0,9.650046E-1,2.5335332E-2,2.725532E-2,-3.353624E-2,2.0415726E1,2.6327882E0,4.36025E1,4.096469E1,-1.0982983E-1,3.090794E-1,-1.869787E-1,-4.46043E-3,6.4513886E-1,1.2772875E1,5.9639633E1,3.62032E1,2.865375E1,-1.992348E-1,2.9700056E-1,-2.6774572E-2,4.994536E0,2.4866241E-1,-1.8499947E-1,7.7653575E-1,1.2659187E1,-1.978827E-1,1.4737312E1,-2.1210035E-2,3.30315E1,4.2064066E0,1.9580089E-1,2.5203738E-1,3.5961525E0,5.320865E1,5.030666E1,1.2487161E-1,1.6773898E-2,-1.3323474E-1,-1.8605039E-1,2.8786102E-1,1.7691078E-3,3.5108358E-1,8.965282E-2,-1.076516E-1,-8.51248E-2,1.4709532E-1,2.459115E-1,-1.2904182E-1,-1.19761504E-1,8.803633E-2,-9.644949E-2,1.16385445E-1,9.489028E-2,-1.6495447E-1,-1.239864E-1,-1.8012907E-1],"split_indices":[1,2,0,0,3,4,3,3,4,0,4,1,3,0,2,0,0,0,0,3,0,2,1,0,0,0,0,3,4,0,3,0,0,0,4,0,3,4,0,3,1,2,0,0,0,0,0,0,0,0,0,0,0,0,0,0,0,0,0,0,0,0,0],"split_type":[0,0,0,0,0,0,0,0,0,0,0,0,0,0,0,0,0,0,0,0,0,0,0,0,0,0,0,0,0,0,0,0,0,0,0,0,0,0,0,0,0,0,0,0,0,0,0,0,0,0,0,0,0,0,0,0,0,0,0,0,0,0,0],"sum_hessian":[5.1373444E2,1.5557697E2,3.5815744E2,1.4591297E1,1.4098567E2,1.7025186E2,1.8790558E2,5.0913715E0,9.499926E0,2.2466807E0,1.38739E2,1.0534063E2,6.491123E1,4.4936643E0,1.8341191E2,1.1665529E0,3.9248185E0,8.14921E0,1.3507159E0,2.3431278E1,1.1530772E2,1.9612726E1,8.57279E1,4.8170494E1,1.6740734E1,2.7808852E0,1.7127792E0,4.6335003E1,1.3707692E2,9.703586E0,1.3727693E1,2.3588636E1,9.171908E1,6.984916E0,1.262781E1,7.8289276E1,7.4386225E0,4.5541645E1,2.628851E0,2.768358E1,1.8651423E1,1.3573567E2,1.3412368E0,5.2082095E0,8.519484E0,2.2361773E1,1.2268643E0,1.3103496E0,5.6745663E0,6.2817793E0,6.3460307E0,7.0508316E1,7.7809653E0,6.104722E0,1.3339002E0,4.1851753E1,3.6898906E0,1.5588848E1,1.2094731E1,2.5657094E0,1.6085714E1,3.6637383E1,9.90983E1],"tree_param":{"num_deleted":"0","num_feature":"5","num_nodes":"63","size_leaf_vector":"1"}},{"base_weights":[-3.522368E-1,-4.3167067E-1,-1.7907503E-1,-3.92365E-1,-1.8602611E-1,2.9279485E-1,-2.283051E-1,-5.8189136E-1,-3.4570175E-1,-4.3374708E-1,8.0127174E-1,-2.723848E-1,3.3559787E-1,-1.1685272E-1,-1.79923E-1,3.954684E-1,-3.7202844E-1,-1.653876E-1,6.82501E-3,1.4691784E-2,2.7602163E-1,-2.1677244E-1,-5.737663E-1,-1.4393729E-1,6.241898E-1,-1.0013581E-1,4.7347244E-2,-1.4666532E-1,6.722725E-1,6.5742984E-2,-3.90927E-1,-2.7453548E-1,1.0582114E-1,-1.6955035E-2,-1.8598309E-1,4.2822774E-2,-1.270741E-1,2.2121245E-1,1.981251E-2,2.381196E-1,9.827566E-2,1.1312584E-1,-1.4460856E-1,-1.528425E-1,-9.246866E-2,-1.72329E-2,-1.14692315E-1,-1.6208042E-1,7.945107E-2],"categories":[],"categories_nodes":[],"categories_segments":[],"categories_sizes":[],"default_left":[0,0,0,0,0,0,0,0,0,0,0,0,0,0,0,0,0,0,0,0,0,0,0,0,0,0,0,0,0,0,0,0,0,0,0,0,0,0,0,0,0,0,0,0,0,0,0,0,0],"id":6,"left_children":[1,3,5,7,-1,9,11,13,15,17,19,21,23,25,-1,27,29,-1,-1,-1,-1,31,33,35,37,-1,-1,-1,39,41,43,45,47,-1,-1,-1,-1,-1,-1,-1,-1,-1,-1,-1,-1,-1,-1,-1,-1],"loss_changes":[6.2198753E0,2.0757294E0,3.4509664E0,2.1142693E0,0E0,5.5937414E0,3.384344E0,3.471775E-1,4.2944965E0,3.6108232E-1,7.3296356E-1,1.9442778E0,1.4810499E0,2.374036E-1,0E0,2.2320685E0,1.7281151E0,0E0,0E0,0E0,0E0,2.000608E0,4.0969896E-1,4.2839664E-1,3.5961223E-1,0E0,0E0,0E0,5.538702E-3,1.7800492E0,1.7782307E0,2.0840673E0,1.8680401E0,0E0,0E0,0E0,0E0,0E0,0E0,0E0,0E0,0E0,0E0,0E0,0E0,0E0,0E0,0E0,0E0],"parents":[2147483647,0,0,1,1,2,2,3,3,5,5,6,6,7,7,8,8,9,9,10,10,11,11,12,12,13,13,15,15,16,16,21,21,22,22,23,23,24,24,28,28,29,29,30,30,31,31,32,32],"right_children":[2,4,6,8,-1,10,12,14,16,18,20,22,24,26,-1,28,30,-1,-1,-1,-1,32,34,36,38,-1,-1,-1,40,42,44,46,48,-1,-1,-1,-1,-1,-1,-1,-1,-1,-1,-1,-1,-1,-1,-1,-1],"split_conditions":[2.7363591E0,6.88012E1,2.52657E1,1.4696517E1,-1.8602611E-1,2.310475E1,7.404385E1,3.148859E1,1.3260104E1,9.4428316E-2,2.1117125E1,7.0425385E1,-1.1997108E-1,3.053607E1,-1.79923E-1,-1.2178734E-1,4.8607364E-1,-1.653876E-1,6.82501E-3,1.4691784E-2,2.7602163E-1,5.4165206E0,2.9456E1,7.932075E1,4.863401E-2,-1.0013581E-1,4.7347244E-2,-1.4666532E-1,1.2772875E1,1.7148563E1,1.4915432E0,3.377952E0,-1.7560321E-1,-1.6955035E-2,-1.8598309E-1,4.2822774E-2,-1.270741E-1,2.2121245E-1,1.981251E-2,2.381196E-1,9.827566E-2,1.1312584E-1,-1.4460856E-1,-1.528425E-1,-9.246866E-2,-1.72329E-2,-1.14692315E-1,-1.6208042E-1,7.945107E-2],"split_indices":[3,2,1,1,0,0,1,2,0,4,1,2,4,2,0,4,3,0,0,0,0,3,0,0,4,0,0,0,0,0,3,3,4,0,0,0,0,0,0,0,0,0,0,0,0,0,0,0,0],"split_type":[0,0,0,0,0,0,0,0,0,0,0,0,0,0,0,0,0,0,0,0,0,0,0,0,0,0,0,0,0,0,0,0,0,0,0,0,0,0,0,0,0,0,0,0,0,0,0,0,0],"sum_hessian":[4.568133E2,3.1213565E2,1.4467766E2,2.6081027E2,5.132537E1,1.3200782E1,1.3147687E2,4.926139E1,2.1154887E2,5.4954805E0,7.7053013E0,1.2242408E2,9.052792E0,2.100097E0,4.7161297E1,6.775586E0,2.0477328E2,4.2050514E0,1.2904291E0,1.2434459E0,6.4618554E0,1.04804344E2,1.7619734E1,3.5895324E0,5.463259E0,1.0531492E0,1.0469476E0,1.4325621E0,5.343024E0,8.371628E0,1.9640166E2,8.9014534E1,1.578981E1,1.6263447E0,1.5993388E1,2.014201E0,1.5753316E0,4.275197E0,1.1880624E0,2.9875278E0,2.355496E0,5.536426E0,2.835202E0,7.8586716E1,1.1781494E2,3.0038689E1,5.8975845E1,2.6450913E0,1.3144719E1],"tree_param":{"num_deleted":"0","num_feature":"5","num_nodes":"49","size_leaf_vector":"1"}},{"base_weights":[5.032903E-1,4.2114222E-1,6.381557E-1,6.4300936E-1,3.6508536E-1,-1.3535742E-1,6.4976305E-1,2.6070833E-1,7.014388E-1,3.239696E-1,5.4932225E-1,9.9337496E-2,-1.4749894E-1,7.616543E-1,5.707751E-1,-8.108323E-2,6.033264E-1,3.4019202E-1,7.435937E-1,3.3631483E-1,-2.5317025E-1,6.542455E-1,-3.872252E-2,2.6064368E-2,7.755005E-1,3.5936666E-1,7.434956E-1,1.5360358E-1,-1.4418197E-1,2.1247543E-1,5.1384237E-2,-1.1864254E-1,5.178529E-1,3.9444223E-1,2.3815034E-1,3.4457517E-1,-1.3058262E-1,7.593693E-2,-1.8147115E-1,1.1866406E-1,7.226137E-1,1.2172811E-1,-2.1345358E-1,7.3277146E-2,2.3453605E-1,-1.11907244E-1,4.88818E-1,7.512552E-1,6.553885E-2,-1.14599325E-1,1.2765066E-1,8.2613E-2,2.1355961E-1,1.9158335E-1,-7.200066E-2,1.8000698E-1,9.58898E-2,8.616031E-2,-4.9487572E-2,-1.10491395E-1,1.5333322E-1,2.3943101E-1,7.95345E-2,7.37359E-4,-1.6323316E-1,1.4931874E-1,-8.3717704E-2,2.1916683E-1,9.8308295E-2,7.2866395E-2,2.2754712E-1],"categories":[],"categories_nodes":[],"categories_segments":[],"categories_sizes":[],"default_left":[0,0,0,0,0,0,0,0,0,0,0,0,0,0,0,0,0,0,0,0,0,0,0,0,0,0,0,0,0,0,0,0,0,0,0,0,0,0,0,0,0,0,0,0,0,0,0,0,0,0,0,0,0,0,0,0,0,0,0,0,0,0,0,0,0,0,0,0,0,0,0],"id":7,"left_children":[1,3,5,7,9,11,13,15,17,19,21,-1,-1,23,25,27,29,31,33,35,37,39,41,-1,43,45,47,49,-1,-1,-1,-1,51,53,-1,55,-1,57,-1,59,61,-1,63,-1,-1,65,67,69,-1,-1,-1,-1,-1,-1,-1,-1,-1,-1,-1,-1,-1,-1,-1,-1,-1,-1,-1,-1,-1,-1,-1],"loss_changes":[6.5074615E0,4.529251E0,2.1492844E0,1.5135822E0,2.155899E0,8.6451495E-1,1.5658722E0,1.4143518E0,7.4123E-1,1.8971806E0,3.4049454E0,0E0,0E0,7.7986145E-1,4.7236977E0,7.037751E-1,1.480298E-1,1.3373863E0,6.9763374E-1,1.7397346E0,7.28521E-1,1.6183052E0,8.040585E-1,0E0,1.0537338E-1,3.9221525E0,1.3853836E-1,8.892591E-1,0E0,0E0,0E0,0E0,1.5270078E-1,1.5840074E0,0E0,1.3841648E0,0E0,2.4762738E-1,0E0,1.4236923E0,1.2069244E0,0E0,5.2152455E-1,0E0,0E0,1.6138724E0,1.7049332E0,8.352661E-2,0E0,0E0,0E0,0E0,0E0,0E0,0E0,0E0,0E0,0E0,0E0,0E0,0E0,0E0,0E0,0E0,0E0,0E0,0E0,0E0,0E0,0E0,0E0],"parents":[2147483647,0,0,1,1,2,2,3,3,4,4,5,5,6,6,7,7,8,8,9,9,10,10,13,13,14,14,15,15,16,16,17,17,18,18,19,19,20,20,21,21,22,22,24,24,25,25,26,26,27,27,32,32,33,33,35,35,37,37,39,39,40,40,42,42,45,45,46,46,47,47],"right_children":[2,4,6,8,10,12,14,16,18,20,22,-1,-1,24,26,28,30,32,34,36,38,40,42,-1,44,46,48,50,-1,-1,-1,-1,52,54,-1,56,-1,58,-1,60,62,-1,64,-1,-1,66,68,70,-1,-1,-1,-1,-1,-1,-1,-1,-1,-1,-1,-1,-1,-1,-1,-1,-1,-1,-1,-1,-1,-1,-1],"split_conditions":[6.0756836E1,9.167177E-1,-6.881552E-2,1.2772875E1,7.9915375E-2,-8.134889E-2,1.8927275E1,-3.9363895E-3,4.8607364E-1,7.183908E-2,2.1354653E-1,9.9337496E-2,-1.4749894E-1,-3.9704822E-2,3.24825E1,-2.3187036E-2,3.288832E-2,-5.382042E-2,4.3701794E1,7.551655E1,4.0711056E1,1.1160868E0,4.0301273E1,2.6064368E-2,3.7865978E-1,2.2123912E-2,6.809474E0,3.972369E1,-1.4418197E-1,2.1247543E-1,5.1384237E-2,-1.1864254E-1,1.7148563E1,4.210155E1,2.3815034E-1,1.54494E1,-1.3058262E-1,2.407425E1,-1.8147115E-1,1.527825E1,6.545715E1,1.2172811E-1,3.9799776E0,7.3277146E-2,2.3453605E-1,1.3698004E0,1.7033759E0,-6.1127383E-2,6.553885E-2,-1.14599325E-1,1.2765066E-1,8.2613E-2,2.1355961E-1,1.9158335E-1,-7.200066E-2,1.8000698E-1,9.58898E-2,8.616031E-2,-4.9487572E-2,-1.10491395E-1,1.5333322E-1,2.3943101E-1,7.95345E-2,7.37359E-4,-1.6323316E-1,1.4931874E-1,-8.3717704E-2,2.1916683E-1,9.8308295E-2,7.2866395E-2,2.2754712E-1],"split_indices":[2,3,4,0,4,4,1,4,3,4,4,0,0,4,0,4,4,4,2,1,2,3,2,0,3,4,3,2,0,0,0,0,0,2,0,1,0,0,0,0,1,0,3,0,0,3,3,4,0,0,0,0,0,0,0,0,0,0,0,0,0,0,0,0,0,0,0,0,0,0,0],"split_type":[0,0,0,0,0,0,0,0,0,0,0,0,0,0,0,0,0,0,0,0,0,0,0,0,0,0,0,0,0,0,0,0,0,0,0,0,0,0,0,0,0,0,0,0,0,0,0,0,0,0,0,0,0,0,0,0,0,0,0,0,0,0,0,0,0,0,0,0,0,0,0],"sum_hessian":[6.106305E2,3.8204507E2,2.2858543E2,7.4946E1,3.0709906E2,3.2218378E0,2.2536359E2,1.0660002E1,6.4285995E1,2.5332378E2,5.3775288E1,1.4258105E0,1.7960273E0,8.968154E1,1.3568205E2,5.7185693E0,4.941432E0,7.665607E0,5.6620388E1,2.4842711E2,4.8966656E0,4.5537563E1,8.237723E0,1.9495072E0,8.773203E1,6.2393513E1,7.3288536E1,3.990194E0,1.7283752E0,3.4614894E0,1.4799428E0,1.2526324E0,6.4129744E0,8.235845E0,4.8384544E1,2.4634328E2,2.0838351E0,2.9347808E0,1.9618847E0,5.4646163E0,4.007295E1,1.9514369E0,6.286287E0,1.4921203E0,8.6239914E1,1.3474491E1,4.891902E1,7.1796555E1,1.4919823E0,1.2072188E0,2.7829752E0,3.9258423E0,2.487132E0,5.9423404E0,2.2935045E0,1.9862793E1,2.2648048E2,1.4611433E0,1.4736375E0,2.4660842E0,2.998532E0,3.375818E1,6.3147683E0,4.4034815E0,1.8828056E0,2.4739146E0,1.1000576E1,1.8151587E1,3.0767435E1,1.4925892E0,7.030396E1],"tree_param":{"num_deleted":"0","num_feature":"5","num_nodes":"71","size_leaf_vector":"1"}},{"base_weights":[-3.1512693E-1,-5.1248646E-1,-2.5614497E-1,3.192183E-2,-5.267176E-1,-1.6508467E-1,-3.7120625E-1,-2.0387016E-1,-5.4055077E-1,1.6061823E-1,-2.5164446E-1,-3.8978046E-1,1.5123096E-1,1.401738E-1,-1.4774406E-1,-3.3327335E-1,-5.592824E-1,-9.45256E-2,4.486976E-1,3.0006617E-1,-2.865196E-1,-3.304074E-1,-5.3180856E-1,1.4510483E-1,-1.731684E-1,-5.750778E-1,-3.0736297E-1,3.3932742E-1,-4.2183837E-1,5.63145E-1,-2.2479787E-1,-1.493352E-1,7.04383E-1,-1.7564338E-1,-3.689221E-1,-2.3812899E-1,-4.4820195E-1,-1.694782E-1,-5.868828E-1,-1.0945455E-1,1.4659405E-1,-1.2499177E-1,-1.8061914E-1,1.2879805E-1,-1.6060078E-1,2.4010016E-1,-3.750298E-2,3.4448016E-2,-1.6166572E-1,8.7627985E-2,2.507166E-1,3.4202844E-2,-1.2565629E-1,7.926466E-2,2.6225254E-1,-1.18397385E-1,-3.4898147E-3,-3.6637504E-2,-1.5688774E-1,-9.182964E-2,1.1657588E-1,-1.6354631E-1,-4.391462E-2,-1.532116E-1,8.771645E-2,-1.8266644E-1,-1.2138279E-2],"categories":[],"categories_nodes":[],"categories_segments":[],"categories_sizes":[],"default_left":[0,0,0,0,0,0,0,0,0,0,0,0,0,0,0,0,0,0,0,0,0,0,0,0,0,0,0,0,0,0,0,0,0,0,0,0,0,0,0,0,0,0,0,0,0,0,0,0,0,0,0,0,0,0,0,0,0,0,0,0,0,0,0,0,0,0,0],"id":8,"left_children":[1,3,5,-1,7,9,11,13,15,17,19,21,-1,-1,-1,23,25,27,29,31,33,35,37,39,-1,41,43,45,47,49,51,-1,53,55,57,59,61,63,65,-1,-1,-1,-1,-1,-1,-1,-1,-1,-1,-1,-1,-1,-1,-1,-1,-1,-1,-1,-1,-1,-1,-1,-1,-1,-1,-1,-1],"loss_changes":[5.2829247E0,9.8981476E-1,3.7115917E0,0E0,3.533821E-1,5.758244E0,2.7698402E0,1.3671708E0,1.9773102E-1,3.217193E0,3.1764307E0,1.1360302E0,0E0,0E0,0E0,1.3294654E0,1.7841911E-1,3.513225E0,1.7037435E0,3.5887105E0,1.3201132E0,1.1143751E0,7.828951E-1,9.498436E-1,0E0,1.0337067E-1,1.4750568E0,2.4032202E0,9.3957686E-1,1.0691218E0,2.901433E-1,0E0,2.978692E-1,2.3853462E0,3.207282E0,2.8931272E0,1.3310165E0,1.2903978E0,4.3200493E-1,0E0,0E0,0E0,0E0,0E0,0E0,0E0,0E0,0E0,0E0,0E0,0E0,0E0,0E0,0E0,0E0,0E0,0E0,0E0,0E0,0E0,0E0,0E0,0E0,0E0,0E0,0E0,0E0],"parents":[2147483647,0,0,1,1,2,2,4,4,5,5,6,6,7,7,8,8,9,9,10,10,11,11,15,15,16,16,17,17,18,18,19,19,20,20,21,21,22,22,23,23,25,25,26,26,27,27,28,28,29,29,30,30,32,32,33,33,34,34,35,35,36,36,37,37,38,38],"right_children":[2,4,6,-1,8,10,12,14,16,18,20,22,-1,-1,-1,24,26,28,30,32,34,36,38,40,-1,42,44,46,48,50,52,-1,54,56,58,60,62,64,66,-1,-1,-1,-1,-1,-1,-1,-1,-1,-1,-1,-1,-1,-1,-1,-1,-1,-1,-1,-1,-1,-1,-1,-1,-1,-1,-1,-1],"split_conditions":[9.650046E-1,3.7865978E-1,2.0316534E-2,3.192183E-2,1.050475E1,1.5113112E0,2.8381172E-1,-1.2384469E-2,4.35527E1,1.9339575E1,2.031825E1,1.095294E-1,1.5123096E-1,1.401738E-1,-1.4774406E-1,6.706509E-1,2.1179811E1,-4.3863896E-2,4.36025E1,1.6104824E1,4.2985073E1,3.684325E1,1.9755E1,6.2270683E-1,-1.731684E-1,1.2772875E1,2.25945E1,1.5249125E1,1.0558184E0,2.558105E1,-3.3004932E-2,-1.493352E-1,1.4529312E1,3.6324506E0,3.368319E1,3.62032E1,6.609345E1,1.9580089E-1,7.836672E1,-1.0945455E-1,1.4659405E-1,-1.2499177E-1,-1.8061914E-1,1.2879805E-1,-1.6060078E-1,2.4010016E-1,-3.750298E-2,3.4448016E-2,-1.6166572E-1,8.7627985E-2,2.507166E-1,3.4202844E-2,-1.2565629E-1,7.926466E-2,2.6225254E-1,-1.18397385E-1,-3.4898147E-3,-3.6637504E-2,-1.5688774E-1,-9.182964E-2,1.1657588E-1,-1.6354631E-1,-4.391462E-2,-1.532116E-1,8.771645E-2,-1.8266644E-1,-1.2138279E-2],"split_indices":[3,3,4,0,0,3,4,4,2,1,0,4,0,0,0,3,0,4,0,1,2,0,0,3,0,0,0,0,3,1,4,0,0,3,0,1,1,4,2,0,0,0,0,0,0,0,0,0,0,0,0,0,0,0,0,0,0,0,0,0,0,0,0,0,0,0,0],"split_type":[0,0,0,0,0,0,0,0,0,0,0,0,0,0,0,0,0,0,0,0,0,0,0,0,0,0,0,0,0,0,0,0,0,0,0,0,0,0,0,0,0,0,0,0,0,0,0,0,0,0,0,0,0,0,0,0,0,0,0,0,0,0,0,0,0,0,0],"sum_hessian":[4.6411096E2,1.0501878E2,3.590922E2,2.2149951E0,1.0280379E2,2.0181175E2,1.5728043E2,4.8704967E0,9.79333E1,4.2193295E1,1.5961845E2,1.5455544E2,2.724995E0,1.2785296E0,3.591967E0,9.674202E0,8.8259094E1,2.273204E1,1.9461256E1,9.037935E0,1.5058052E2,1.11338234E2,4.32172E1,3.4041321E0,6.2700696E0,8.1844635E1,6.414453E0,9.7593355E0,1.2972705E1,1.677459E1,2.6866665E0,2.96192E0,6.076015E0,6.553365E1,8.5046875E1,6.412515E1,4.721308E1,6.2402534E0,3.6976948E1,1.3452398E0,2.0588925E0,1.4303827E1,6.754081E1,1.307159E0,5.107294E0,4.5341287E0,5.225207E0,2.326162E0,1.0646543E1,9.449532E0,7.3250575E0,1.1286409E0,1.5580256E0,2.4028916E0,3.6731234E0,2.7459211E1,3.807444E1,3.337173E1,5.167514E1,5.831251E1,5.8126435E0,3.512409E1,1.2088993E1,3.528013E0,2.7122405E0,3.5435585E1,1.5413616E0],"tree_param":{"num_deleted":"0","num_feature":"5","num_nodes":"67","size_leaf_vector":"1"}},{"base_weights":[-3.0029514E-1,-3.773211E-1,-1.3343096E-1,-3.3780405E-1,-1.7549004E-1,2.8299263E-1,-1.803352E-1,-5.384034E-1,-2.9356268E-1,-3.90294E-1,7.1290845E-1,-2.0487526E-1,1.8147124E-1,-1.9137736E-2,-1.6780175E-1,3.3080515E-1,-3.1733373E-1,-1.5219659E-1,6.8084965E-3,3.707635E-2,2.5370842E-1,-1.5222688E-1,-5.2785105E-1,-1.3350736E-1,1.7008808E-1,1.8401388E-2,-3.3993438E-1,-3.686814E-1,-7.278638E-2,-1.2138793E-2,-1.7384598E-1,2.7497178E-1,-6.0361605E-2,-1.439813E-1,-7.747123E-2,2.8168252E-2,-1.3367203E-1,-4.4903196E-2,7.544302E-2],"categories":[],"categories_nodes":[],"categories_segments":[],"categories_sizes":[],"default_left":[0,0,0,0,0,0,0,0,0,0,0,0,0,0,0,0,0,0,0,0,0,0,0,0,0,0,0,0,0,0,0,0,0,0,0,0,0,0,0],"id":9,"left_children":[1,3,5,7,-1,9,11,13,15,17,19,21,-1,-1,-1,23,25,-1,-1,-1,-1,27,29,-1,-1,31,33,35,37,-1,-1,-1,-1,-1,-1,-1,-1,-1,-1],"loss_changes":[5.221031E0,2.1004105E0,2.6112146E0,1.9510117E0,0E0,4.231782E0,2.4058173E0,3.790865E-1,3.0274067E0,2.9999834E-1,5.7547474E-1,1.8849182E0,0E0,0E0,0E0,1.6651354E0,1.4494095E0,0E0,0E0,0E0,0E0,1.7061336E0,3.740368E-1,0E0,0E0,2.7376204E0,1.9148426E0,9.95476E-1,1.906869E0,0E0,0E0,0E0,0E0,0E0,0E0,0E0,0E0,0E0,0E0],"parents":[2147483647,0,0,1,1,2,2,3,3,5,5,6,6,7,7,8,8,9,9,10,10,11,11,15,15,16,16,21,21,22,22,25,25,26,26,27,27,28,28],"right_children":[2,4,6,8,-1,10,12,14,16,18,20,22,-1,-1,-1,24,26,-1,-1,-1,-1,28,30,-1,-1,32,34,36,38,-1,-1,-1,-1,-1,-1,-1,-1,-1,-1],"split_conditions":[2.7891114E0,6.88012E1,2.52657E1,1.4696517E1,-1.7549004E-1,2.310475E1,7.551655E1,3.148859E1,1.3260104E1,3.7805244E1,3.23597E0,7.0425385E1,1.8147124E-1,-1.9137736E-2,-1.6780175E-1,-1.2178734E-1,5.4812783E-1,-1.5219659E-1,6.8084965E-3,3.707635E-2,2.5370842E-1,-9.2108026E-2,2.9456E1,-1.3350736E-1,1.7008808E-1,1.5240659E1,1.4915432E0,3.14218E0,5.1619506E0,-1.2138793E-2,-1.7384598E-1,2.7497178E-1,-6.0361605E-2,-1.439813E-1,-7.747123E-2,2.8168252E-2,-1.3367203E-1,-4.4903196E-2,7.544302E-2],"split_indices":[3,2,1,1,0,0,1,2,0,2,3,2,0,0,0,4,3,0,0,0,0,4,0,0,0,1,3,3,3,0,0,0,0,0,0,0,0,0,0],"split_type":[0,0,0,0,0,0,0,0,0,0,0,0,0,0,0,0,0,0,0,0,0,0,0,0,0,0,0,0,0,0,0,0,0,0,0,0,0,0,0],"sum_hessian":[4.0913242E2,2.7905637E2,1.3007605E2,2.3664694E2,4.240942E1,1.2658486E1,1.17417564E2,4.0742496E1,1.9590443E2,4.9689026E0,7.6895843E0,1.1457596E2,2.841604E0,1.8922632E0,3.8850235E1,6.711242E0,1.8919319E2,3.6937852E0,1.2751172E0,1.7690531E0,5.9205313E0,9.9781815E1,1.4794144E1,1.3597289E0,5.3515134E0,1.194435E1,1.7724884E2,2.5811438E1,7.397038E1,1.5880592E0,1.3206084E1,1.7231454E0,1.0221205E1,6.352022E1,1.1372862E2,3.6474676E0,2.2163969E1,6.0227367E1,1.3743015E1],"tree_param":{"num_deleted":"0","num_feature":"5","num_nodes":"39","size_leaf_vector":"1"}},{"base_weights":[3.9905655E-1,3.2534006E-1,5.273909E-1,5.3625476E-1,2.7648416E-1,6.477725E-1,4.4918332E-1,1.9849032E-1,5.9108263E-1,2.4241489E-1,4.3319312E-1,1.684282E-2,6.6171765E-1,2.7212423E-1,6.1654836E-1,-9.033932E-2,4.9537718E-1,2.5221226E-1,6.2547475E-1,3.8899937E-1,1.9051486E-1,5.207692E-1,-4.5811098E-2,4.2418438E-1,2.0655686E-1,-2.459439E-2,3.798876E-1,-3.650192E-2,6.341526E-1,1.17961325E-1,-1.3420197E-1,3.084809E-2,1.8122752E-1,-5.3515833E-2,1.8122998E-1,3.0777398E-1,6.744432E-1,4.762957E-1,1.9528796E-1,-2.159303E-1,2.038822E-1,-7.523349E-2,5.5258495E-1,-3.2007423E-1,2.1911547E-1,2.4734423E-2,1.9728635E-1,1.7815377E-1,-3.621531E-1,6.0054505E-1,2.0688707E-1,4.6435382E-2,6.455443E-1,-1.0259003E-1,1.0112794E-1,1.0652172E-1,-1.443706E-1,1.6105913E-1,-7.4121885E-2,6.189163E-2,2.122426E-1,1.8961619E-1,6.812154E-2,-9.1935776E-2,1.2160822E-1,-1.0516567E-1,6.572236E-2,1.8815368E-1,7.997976E-2,-1.616041E-1,-2.080487E-2,1.8187964E-1,-2.7293827E-2,1.5525801E-1,-2.1236481E-1,-7.195945E-2,1.1574928E-1,-1.0880274E-2,-1.6422619E-1,2.3153786E-2,1.9054335E-1,1.34534E-1,6.796757E-3,1.9611654E-1,5.4065E-2],"categories":[],"categories_nodes":[],"categories_segments":[],"categories_sizes":[],"default_left":[0,0,0,0,0,0,0,0,0,0,0,0,0,0,0,0,0,0,0,0,0,0,0,0,0,0,0,0,0,0,0,0,0,0,0,0,0,0,0,0,0,0,0,0,0,0,0,0,0,0,0,0,0,0,0,0,0,0,0,0,0,0,0,0,0,0,0,0,0,0,0,0,0,0,0,0,0,0,0,0,0,0,0,0,0],"id":10,"left_children":[1,3,5,7,9,11,13,15,17,19,21,-1,23,25,27,29,31,33,35,37,39,41,43,45,-1,47,49,-1,51,53,-1,-1,-1,55,-1,57,59,61,63,-1,65,-1,67,69,71,73,-1,75,77,79,81,-1,83,-1,-1,-1,-1,-1,-1,-1,-1,-1,-1,-1,-1,-1,-1,-1,-1,-1,-1,-1,-1,-1,-1,-1,-1,-1,-1,-1,-1,-1,-1,-1,-1],"loss_changes":[5.3745956E0,3.7156334E0,1.707592E0,1.168972E0,1.5314693E0,6.3391495E-1,3.7421417E0,1.0056531E0,5.328045E-1,1.8586302E0,2.2667694E0,0E0,2.1330261E-1,2.1166663E0,9.4837E-1,5.3804815E-1,1.8028653E-1,7.9994535E-1,6.187897E-1,1.0140915E0,2.453568E0,1.2501707E0,7.3740613E-1,9.771193E-1,0E0,1.3304893E0,1.7236304E0,0E0,2.585144E-1,6.1038095E-1,0E0,0E0,0E0,9.98652E-1,0E0,1.2681375E0,5.5275345E-1,1.5814257E0,2.446578E0,0E0,1.6571107E0,0E0,7.672224E-1,2.3223329E-1,6.8722665E-1,2.1601195E0,0E0,1.1539886E0,4.1913515E-1,3.2668352E-1,1.2652493E0,0E0,1.2495422E-1,0E0,0E0,0E0,0E0,0E0,0E0,0E0,0E0,0E0,0E0,0E0,0E0,0E0,0E0,0E0,0E0,0E0,0E0,0E0,0E0,0E0,0E0,0E0,0E0,0E0,0E0,0E0,0E0,0E0,0E0,0E0,0E0],"parents":[2147483647,0,0,1,1,2,2,3,3,4,4,5,5,6,6,7,7,8,8,9,9,10,10,12,12,13,13,14,14,15,15,16,16,17,17,18,18,19,19,20,20,21,21,22,22,23,23,25,25,26,26,28,28,29,29,33,33,35,35,36,36,37,37,38,38,40,40,42,42,43,43,44,44,45,45,47,47,48,48,49,49,50,50,52,52],"right_children":[2,4,6,8,10,12,14,16,18,20,22,-1,24,26,28,30,32,34,36,38,40,42,44,46,-1,48,50,-1,52,54,-1,-1,-1,56,-1,58,60,62,64,-1,66,-1,68,70,72,74,-1,76,78,80,82,-1,84,-1,-1,-1,-1,-1,-1,-1,-1,-1,-1,-1,-1,-1,-1,-1,-1,-1,-1,-1,-1,-1,-1,-1,-1,-1,-1,-1,-1,-1,-1,-1,-1],"split_conditions":[6.0756836E1,9.167177E-1,1.8927275E1,1.2772875E1,7.9915375E-2,-3.9704822E-2,3.42445E1,-3.9363895E-3,4.6262464E-1,-1.0009212E-1,2.1354653E-1,1.684282E-2,5.164819E-1,2.2123912E-2,-6.1127383E-2,-2.3187036E-2,5.213769E1,1.7148563E1,4.3701794E1,4.33494E0,-9.859001E-2,1.0297638E0,2.8542352E0,6.80096E1,2.0655686E-1,-1.6853247E-3,6.693427E1,-3.650192E-2,2.9819124E1,3.972369E1,-1.3420197E-1,3.084809E-2,1.8122752E-1,4.9519745E1,1.8122998E-1,4.210155E1,-7.35889E-2,3.010515E1,5.320865E1,-2.159303E-1,9.5138854E-1,-7.523349E-2,3.908821E0,2.3754793E-1,4.0301273E1,6.3402065E1,1.9728635E-1,1.9554026E1,2.4704E1,9.167177E-1,2.087355E1,4.6435382E-2,6.809474E0,-1.0259003E-1,1.0112794E-1,1.0652172E-1,-1.443706E-1,1.6105913E-1,-7.4121885E-2,6.189163E-2,2.122426E-1,1.8961619E-1,6.812154E-2,-9.1935776E-2,1.2160822E-1,-1.0516567E-1,6.572236E-2,1.8815368E-1,7.997976E-2,-1.616041E-1,-2.080487E-2,1.8187964E-1,-2.7293827E-2,1.5525801E-1,-2.1236481E-1,-7.195945E-2,1.1574928E-1,-1.0880274E-2,-1.6422619E-1,2.3153786E-2,1.9054335E-1,1.34534E-1,6.796757E-3,1.9611654E-1,5.4065E-2],"split_indices":[2,3,1,0,4,4,0,4,3,4,4,0,3,4,4,4,2,0,2,3,4,3,3,2,0,4,2,0,1,2,0,0,0,2,0,2,4,1,1,0,3,0,3,4,2,2,0,1,0,3,1,0,3,0,0,0,0,0,0,0,0,0,0,0,0,0,0,0,0,0,0,0,0,0,0,0,0,0,0,0,0,0,0,0,0],"split_type":[0,0,0,0,0,0,0,0,0,0,0,0,0,0,0,0,0,0,0,0,0,0,0,0,0,0,0,0,0,0,0,0,0,0,0,0,0,0,0,0,0,0,0,0,0,0,0,0,0,0,0,0,0,0,0,0,0,0,0,0,0,0,0,0,0,0,0,0,0,0,0,0,0,0,0,0,0,0,0,0,0,0,0,0,0],"sum_hessian":[5.8525464E2,3.739749E2,2.112797E2,6.845843E1,3.055165E2,8.033726E1,1.3094244E2,1.0205879E1,5.8252544E1,2.530493E2,5.246721E1,1.9657459E0,7.8371506E1,6.49045E1,6.603793E1,5.525777E0,4.680102E0,6.1351786E0,5.2117367E1,6.446934E1,1.8857996E2,4.4283657E1,8.18355E0,9.653347E0,6.871816E1,1.7497683E1,4.7406822E1,1.4004276E0,6.463751E1,3.9125068E0,1.6132703E0,1.4370384E0,3.2430634E0,3.7366283E0,2.3985503E0,7.933169E0,4.4184196E1,4.3436035E1,2.1033298E1,1.9643952E0,1.8661557E2,1.4812162E0,4.280244E1,3.918643E0,4.2649064E0,3.9685094E0,5.6848373E0,1.12267685E1,6.2709136E0,1.9747757E1,2.7659067E1,1.8389963E0,6.279851E1,1.0816715E0,2.8308353E0,1.9979199E0,1.7387083E0,5.6377993E0,2.2953699E0,3.3897407E0,4.0794456E1,2.5785011E1,1.7651024E1,6.0720186E0,1.496128E1,4.3884234E0,1.8222714E2,3.3001568E1,9.800875E0,1.4798622E0,2.4387808E0,1.4720153E0,2.7928913E0,2.5481186E0,1.420391E0,3.6748781E0,7.5518904E0,2.7062964E0,3.5646172E0,1.4248912E0,1.8322866E1,1.1346999E1,1.6312067E1,6.131611E1,1.482404E0],"tree_param":{"num_deleted":"0","num_feature":"5","num_nodes":"85","size_leaf_vector":"1"}},{"base_weights":[-2.632315E-1,-4.334176E-1,-1.9764528E-1,-9.328444E-3,-4.8626685E-1,2.0640236E-1,-2.3304835E-1,6.3783884E-1,-4.5799467E-1,3.1281512E-2,-5.00258E-1,-1.1322747E-1,8.187236E-1,3.4851184E-1,-2.5967777E-1,2.5128692E-1,-7.375855E-3,-1.6434228E-1,1.4158507E-2,-3.2235363E-1,-5.3717893E-1,1.8881059E-1,-3.6887395E-1,3.4881303E-1,2.8764555E-1,7.46244E-1,-2.2811493E-1,-2.0463052E-1,-4.136751E-1,-1.5926996E-1,-1.6795865E-1,-4.154506E-1,-1.7672601E-1,-2.5546136E-1,4.0816507E-1,-4.4876334E-1,2.8258495E-2,2.0902057E-1,-1.1767257E-1,8.626765E-1,1.8580869E-2,3.9674416E-2,-1.3913152E-1,-1.213878E-1,-3.2978487E-1,-4.3346387E-1,9.4776094E-2,5.38165E-2,-1.1139501E-1,3.8666893E-2,-1.4925742E-1,-1.3163394E-1,1.3333867E-2,2.3208986E-1,-1.3804336E-2,2.398255E-2,-1.6240498E-1,9.665969E-2,2.8560746E-1,8.486308E-2,-4.8705336E-2,-3.2576658E-2,-1.242327E-1,-6.9269136E-2,-1.4864217E-1],"categories":[],"categories_nodes":[],"categories_segments":[],"categories_sizes":[],"default_left":[0,0,0,0,0,0,0,0,0,0,0,0,0,0,0,0,0,0,0,0,0,0,0,0,0,0,0,0,0,0,0,0,0,0,0,0,0,0,0,0,0,0,0,0,0,0,0,0,0,0,0,0,0,0,0,0,0,0,0,0,0,0,0,0,0],"id":11,"left_children":[1,3,5,7,9,11,13,15,17,-1,19,21,23,25,27,-1,-1,-1,-1,29,31,33,35,-1,37,39,41,43,45,-1,47,49,-1,51,53,55,-1,-1,-1,57,-1,-1,-1,59,61,63,-1,-1,-1,-1,-1,-1,-1,-1,-1,-1,-1,-1,-1,-1,-1,-1,-1,-1,-1],"loss_changes":[4.6121025E0,2.6007156E0,4.4200974E0,4.328157E0,9.059887E-1,5.015567E0,4.449732E0,8.29072E-1,4.247229E-1,0E0,4.9103546E-1,1.4135642E0,1.2637067E0,3.094736E0,2.2019062E0,0E0,0E0,0E0,0E0,5.509224E-1,2.749138E-1,9.462604E-1,4.035176E-1,0E0,1.5993309E0,5.6649065E-1,5.684104E-1,2.050724E0,1.1482944E0,0E0,9.7679293E-1,1.3140855E0,0E0,2.1032703E-1,1.0595881E0,4.5943975E-1,0E0,0E0,0E0,1.0620117E-2,0E0,0E0,0E0,2.067974E0,1.439352E0,7.4755573E-1,0E0,0E0,0E0,0E0,0E0,0E0,0E0,0E0,0E0,0E0,0E0,0E0,0E0,0E0,0E0,0E0,0E0,0E0,0E0],"parents":[2147483647,0,0,1,1,2,2,3,3,4,4,5,5,6,6,7,7,8,8,10,10,11,11,12,12,13,13,14,14,19,19,20,20,21,21,22,22,24,24,25,25,26,26,27,27,28,28,30,30,31,31,33,33,34,34,35,35,39,39,43,43,44,44,45,45],"right_children":[2,4,6,8,10,12,14,16,18,-1,20,22,24,26,28,-1,-1,-1,-1,30,32,34,36,-1,38,40,42,44,46,-1,48,50,-1,52,54,56,-1,-1,-1,58,-1,-1,-1,60,62,64,-1,-1,-1,-1,-1,-1,-1,-1,-1,-1,-1,-1,-1,-1,-1,-1,-1,-1,-1],"split_conditions":[1.87223E1,3.7469246E1,1.9894312E1,1.5249125E1,3.7865978E-1,1.9981976E1,1.962425E1,1.4696517E1,2.5335332E-2,3.1281512E-2,-3.353624E-2,1.1888329E-2,6.1450973E-2,6.270224E1,5.6298546E-2,2.5128692E-1,-7.375855E-3,-1.6434228E-1,1.4158507E-2,6.4513886E-1,1.3616725E1,6.157122E1,7.263567E1,3.4881303E-1,1.9436196E0,1.5035055E0,-2.885108E-2,5.338529E1,2.8381172E-1,-1.5926996E-1,7.7653575E-1,5.213769E1,-1.7672601E-1,-1.7187515E-2,6.369611E1,6.1768677E1,2.8258495E-2,2.0902057E-1,-1.1767257E-1,-6.1127383E-2,1.8580869E-2,3.9674416E-2,-1.3913152E-1,1.4915432E0,1.7956573E0,2.44986E1,9.4776094E-2,5.38165E-2,-1.1139501E-1,3.8666893E-2,-1.4925742E-1,-1.3163394E-1,1.3333867E-2,2.3208986E-1,-1.3804336E-2,2.398255E-2,-1.6240498E-1,9.665969E-2,2.8560746E-1,8.486308E-2,-4.8705336E-2,-3.2576658E-2,-1.242327E-1,-6.9269136E-2,-1.4864217E-1],"split_indices":[1,2,0,0,3,1,1,1,4,0,4,4,4,2,4,0,0,0,0,3,1,2,2,0,3,3,4,2,4,0,3,2,0,4,2,2,0,0,0,4,0,0,0,3,3,1,0,0,0,0,0,0,0,0,0,0,0,0,0,0,0,0,0,0,0],"split_type":[0,0,0,0,0,0,0,0,0,0,0,0,0,0,0,0,0,0,0,0,0,0,0,0,0,0,0,0,0,0,0,0,0,0,0,0,0,0,0,0,0,0,0,0,0,0,0,0,0,0,0,0,0,0,0,0,0,0,0,0,0,0,0,0,0],"sum_hessian":[4.198766E2,1.15239494E2,3.0463712E2,1.289999E1,1.0233951E2,2.415309E1,2.80484E2,5.1090035E0,7.7909865E0,2.2191925E0,1.00120316E2,1.6404877E1,7.7482114E0,1.1751669E1,2.6873236E2,3.7219899E0,1.3870136E0,6.543347E0,1.2476398E0,1.8879562E1,8.124075E1,7.6399555E0,8.764922E0,3.9805899E0,3.7676218E0,6.780571E0,4.971098E0,1.9968321E2,6.904913E1,6.993984E0,1.1885578E1,2.6978184E1,5.4262566E1,2.4708955E0,5.1690598E0,7.501623E0,1.2632987E0,2.33679E0,1.4308316E0,5.5718803E0,1.208691E0,2.1389923E0,2.8321056E0,1.2110422E2,7.8578995E1,6.762094E1,1.428193E0,4.4324956E0,7.453083E0,3.4600022E0,2.3518183E1,1.2461417E0,1.2247539E0,2.4745128E0,2.694547E0,1.1382651E0,6.363358E0,1.4438679E0,4.128012E0,1.0598874E1,1.1050534E2,2.2319372E1,5.6259624E1,1.6955698E1,5.0665245E1],"tree_param":{"num_deleted":"0","num_feature":"5","num_nodes":"65","size_leaf_vector":"1"}},{"base_weights":[-2.5432906E-1,-3.2976675E-1,-1.0208625E-1,-2.899103E-1,-1.6775848E-1,2.5659803E-1,-1.4322613E-1,-5.0507754E-1,-2.4641648E-1,-3.626452E-1,6.350165E-1,-1.8412508E-1,3.2065552E-1,-1.6769089E-1,-2.0898762E-1,2.946597E-1,-2.6860335E-1,-1.4577751E-1,1.2271406E-2,3.1562738E-2,2.2612047E-1,-1.3934329E-1,-1.689749E-1,-1.1243245E-1,4.8745933E-1,9.7912036E-2,-1.3711496E-1,-1.18716255E-1,4.9520385E-1,-2.2512251E-1,-4.6162984E-1,-1.9411108E-1,5.535325E-1,2.1200393E-1,2.1011424E-1,8.364857E-2,1.9291326E-1,-7.5032964E-2,2.6247588E-1,-1.463557E-1,4.156643E-2,-7.4874245E-2,6.973392E-2,1.9199325E-2,3.619398E-1,-1.2309854E-1,1.9858472E-1],"categories":[],"categories_nodes":[],"categories_segments":[],"categories_sizes":[],"default_left":[0,0,0,0,0,0,0,0,0,0,0,0,0,0,0,0,0,0,0,0,0,0,0,0,0,0,0,0,0,0,0,0,0,0,0,0,0,0,0,0,0,0,0,0,0,0,0],"id":12,"left_children":[1,3,5,7,-1,9,11,13,15,17,19,21,23,-1,25,27,29,-1,-1,-1,-1,31,-1,-1,33,-1,-1,-1,35,37,39,41,43,-1,45,-1,-1,-1,-1,-1,-1,-1,-1,-1,-1,-1,-1],"loss_changes":[4.2054005E0,2.0906258E0,1.8627323E0,1.8592625E0,0E0,3.297882E0,2.1773374E0,4.3672943E-1,2.2193747E0,2.9856855E-1,4.546311E-1,1.674329E0,1.2743893E0,0E0,1.0706784E0,1.2342598E0,1.3378325E0,0E0,0E0,0E0,0E0,3.661714E0,0E0,0E0,3.394463E-1,0E0,0E0,0E0,2.0806074E-2,4.1261826E0,5.496502E-1,2.12936E0,2.1988463E0,0E0,1.6637858E0,0E0,0E0,0E0,0E0,0E0,0E0,0E0,0E0,0E0,0E0,0E0,0E0],"parents":[2147483647,0,0,1,1,2,2,3,3,5,5,6,6,7,7,8,8,9,9,10,10,11,11,12,12,14,14,15,15,16,16,21,21,24,24,28,28,29,29,30,30,31,31,32,32,34,34],"right_children":[2,4,6,8,-1,10,12,14,16,18,20,22,24,-1,26,28,30,-1,-1,-1,-1,32,-1,-1,34,-1,-1,-1,36,38,40,42,44,-1,46,-1,-1,-1,-1,-1,-1,-1,-1,-1,-1,-1,-1],"split_conditions":[2.7891114E0,6.88012E1,2.52657E1,1.4696517E1,-1.6775848E-1,2.310475E1,7.404385E1,1.5401313E1,1.3260104E1,9.4428316E-2,-2.8705665E-1,7.079925E1,3.231774E1,-1.6769089E-1,1.54313755E1,-1.2178734E-1,4.104725E1,-1.4577751E-1,1.2271406E-2,3.1562738E-2,2.2612047E-1,7.094475E1,-1.689749E-1,-1.1243245E-1,8.122713E1,9.7912036E-2,-1.3711496E-1,-1.18716255E-1,4.553901E1,4.11558E1,2.7363591E0,6.1347647E0,-5.7113506E-3,2.1200393E-1,-3.9704822E-2,8.364857E-2,1.9291326E-1,-7.5032964E-2,2.6247588E-1,-1.463557E-1,4.156643E-2,-7.4874245E-2,6.973392E-2,1.9199325E-2,3.619398E-1,-1.2309854E-1,1.9858472E-1],"split_indices":[3,2,1,1,0,0,1,0,0,4,4,0,2,0,0,4,0,0,0,0,0,1,0,0,0,0,0,0,2,1,3,3,4,0,4,0,0,0,0,0,0,0,0,0,0,0,0],"split_type":[0,0,0,0,0,0,0,0,0,0,0,0,0,0,0,0,0,0,0,0,0,0,0,0,0,0,0,0,0,0,0,0,0,0,0,0,0,0,0,0,0,0,0,0,0,0,0],"sum_hessian":[3.6810077E2,2.4535773E2,1.2274303E2,2.1097125E2,3.438647E1,1.2090753E1,1.1065227E2,3.3690266E1,1.7728099E2,4.601898E0,7.488855E0,1.0224108E2,8.411188E0,2.7751339E1,5.938929E0,6.4993434E0,1.7078165E2,3.3686793E0,1.2332188E0,1.7161882E0,5.772667E0,9.266333E1,9.577751E0,1.3859892E0,7.025199E0,1.7805351E0,4.158394E0,1.2439082E0,5.255435E0,1.4115219E2,2.9629454E1,8.65425E1,6.1208315E0,3.0591526E0,3.966046E0,3.3047295E0,1.9507058E0,1.3877263E2,2.3795714E0,2.8568443E1,1.0610105E0,7.695069E1,9.591806E0,4.125653E0,1.9951788E0,1.7099155E0,2.2561305E0],"tree_param":{"num_deleted":"0","num_feature":"5","num_nodes":"47","size_leaf_vector":"1"}},{"base_weights":[3.205645E-1,5.056553E-1,2.725748E-1,2.208607E-1,5.4269415E-1,2.105883E-1,4.039073E-1,-1.435423E-1,3.4584767E-1,4.799893E-3,5.497941E-1,4.4765857E-1,1.9053464E-1,3.0127132E-1,5.3801525E-1,4.360739E-1,4.6792295E-2,4.1264814E-1,5.861059E-1,5.726353E-1,1.8079302E-1,1.5572841E-1,3.4565026E-1,5.418897E-1,1.3276435E-1,-3.848679E-2,5.561395E-1,1.9648E-1,6.1977707E-2,-1.24871925E-1,1.3516642E-1,5.049019E-1,-1.9572745E-1,3.2025713E-1,6.1078584E-1,6.9303507E-1,3.248718E-1,-1.6977274E-1,4.6334067E-1,4.371576E-1,1.306807E-1,-3.6693092E-2,4.2739645E-1,-2.4880402E-2,5.70541E-1,-2.8434536E-1,3.0431223E-1,3.4590945E-2,5.6787425E-1,-5.4332223E-2,7.285365E-2,1.6159793E-2,1.8162188E-1,-3.082273E-2,1.3098124E-1,4.5181468E-2,1.853435E-1,4.464367E-2,2.318688E-1,-1.0430862E-1,2.0048355E-1,-4.1269843E-2,2.47473E-1,-1.7594424E-1,1.6799058E-1,6.4772195E-3,7.306884E-2,8.455635E-2,-1.5230069E-1,1.6084291E-1,3.484597E-2,1.736325E-1,5.232162E-2,-1.2809338E-1,9.845202E-2,1.6964628E-1,-2.061851E-2,1.8081379E-1,9.9745564E-2],"categories":[],"categories_nodes":[],"categories_segments":[],"categories_sizes":[],"default_left":[0,0,0,0,0,0,0,0,0,0,0,0,0,0,0,0,0,0,0,0,0,0,0,0,0,0,0,0,0,0,0,0,0,0,0,0,0,0,0,0,0,0,0,0,0,0,0,0,0,0,0,0,0,0,0,0,0,0,0,0,0,0,0,0,0,0,0,0,0,0,0,0,0,0,0,0,0,0,0],"id":13,"left_children":[1,3,5,7,9,11,13,-1,15,-1,17,19,21,23,25,27,29,31,33,35,37,39,41,43,45,-1,47,-1,49,-1,-1,51,-1,53,55,57,59,-1,61,63,65,67,69,-1,71,73,75,-1,77,-1,-1,-1,-1,-1,-1,-1,-1,-1,-1,-1,-1,-1,-1,-1,-1,-1,-1,-1,-1,-1,-1,-1,-1,-1,-1,-1,-1,-1,-1],"loss_changes":[4.768318E0,1.0674114E0,3.5033226E0,1.4451061E0,3.610916E-1,1.3482695E0,1.7683029E0,0E0,3.303815E-1,0E0,2.4403763E-1,6.5612364E-1,1.4566164E0,3.2413707E0,7.902336E-1,7.672684E-1,9.602977E-1,2.668323E0,2.949276E-1,2.2382975E-1,2.1032069E0,1.5663838E0,1.5925436E0,6.440401E-1,3.6202395E0,0E0,2.352848E-1,0E0,2.526645E-1,0E0,0E0,9.859905E-1,0E0,4.6089166E-1,1.245842E-1,2.8685093E-1,1.8039439E0,0E0,1.6083735E0,2.64112E0,2.6166565E0,1.6145036E0,1.3472257E0,0E0,3.4284592E-3,1.442636E0,3.4952729E0,0E0,2.6193428E-1,0E0,0E0,0E0,0E0,0E0,0E0,0E0,0E0,0E0,0E0,0E0,0E0,0E0,0E0,0E0,0E0,0E0,0E0,0E0,0E0,0E0,0E0,0E0,0E0,0E0,0E0,0E0,0E0,0E0,0E0],"parents":[2147483647,0,0,1,1,2,2,3,3,4,4,5,5,6,6,8,8,10,10,11,11,12,12,13,13,14,14,15,15,16,16,17,17,18,18,19,19,20,20,21,21,22,22,23,23,24,24,26,26,28,28,31,31,33,33,34,34,35,35,36,36,38,38,39,39,40,40,41,41,42,42,44,44,45,45,46,46,48,48],"right_children":[2,4,6,8,10,12,14,-1,16,-1,18,20,22,24,26,28,30,32,34,36,38,40,42,44,46,-1,48,-1,50,-1,-1,52,-1,54,56,58,60,-1,62,64,66,68,70,-1,72,74,76,-1,78,-1,-1,-1,-1,-1,-1,-1,-1,-1,-1,-1,-1,-1,-1,-1,-1,-1,-1,-1,-1,-1,-1,-1,-1,-1,-1,-1,-1,-1,-1],"split_conditions":[9.167177E-1,-5.382042E-2,6.0756836E1,4.8607364E-1,4.0711056E1,3.053607E1,3.42445E1,-1.435423E-1,8.267906E-1,4.799893E-3,1.2772875E1,4.8954477E0,7.9915375E-2,1.6196473E0,-6.1127383E-2,1.5407812E1,1.4685187E1,1.2659187E1,4.6262464E-1,3.149375E1,5.4165206E0,1.54494E1,1.704175E1,-4.3863896E-2,2.0722148E0,-3.848679E-2,2.9819124E1,1.9648E-1,1.5910438E1,-1.24871925E-1,1.3516642E-1,-9.917818E-3,-1.9572745E-1,1.5910438E1,4.35527E1,1.5401313E1,3.921275E1,-1.6977274E-1,2.7608786E1,3.148859E1,3.79775E1,4.651648E1,3.9799776E0,-2.4880402E-2,2.6307E1,7.073093E1,2.865375E1,3.4590945E-2,4.6011524E0,-5.4332223E-2,7.285365E-2,1.6159793E-2,1.8162188E-1,-3.082273E-2,1.3098124E-1,4.5181468E-2,1.853435E-1,4.464367E-2,2.318688E-1,-1.0430862E-1,2.0048355E-1,-4.1269843E-2,2.47473E-1,-1.7594424E-1,1.6799058E-1,6.4772195E-3,7.306884E-2,8.455635E-2,-1.5230069E-1,1.6084291E-1,3.484597E-2,1.736325E-1,5.232162E-2,-1.2809338E-1,9.845202E-2,1.6964628E-1,-2.061851E-2,1.8081379E-1,9.9745564E-2],"split_indices":[3,4,2,3,2,2,0,0,3,0,0,3,4,3,4,0,0,0,3,0,3,1,0,4,3,0,1,0,0,0,0,4,0,0,2,0,0,0,2,2,0,2,3,0,1,2,0,0,3,0,0,0,0,0,0,0,0,0,0,0,0,0,0,0,0,0,0,0,0,0,0,0,0,0,0,0,0,0,0],"split_type":[0,0,0,0,0,0,0,0,0,0,0,0,0,0,0,0,0,0,0,0,0,0,0,0,0,0,0,0,0,0,0,0,0,0,0,0,0,0,0,0,0,0,0,0,0,0,0,0,0,0,0,0,0,0,0,0,0,0,0,0,0,0,0,0,0,0,0,0,0,0,0,0,0,0,0,0,0,0,0],"sum_hessian":[5.513412E2,1.11553856E2,4.397873E2,1.3639738E1,9.7914116E1,3.00541E2,1.3924632E2,1.6392891E0,1.2000449E1,1.3456217E0,9.65685E1,2.1776825E1,2.7876416E2,8.0717674E1,5.8528645E1,8.867052E0,3.1333969E0,2.2804035E1,7.376446E1,1.4050843E1,7.7259808E0,2.2931285E2,4.9451313E1,3.2332653E1,4.8385025E1,1.3889318E0,5.7139713E1,5.120608E0,3.746444E0,1.4451761E0,1.6882207E0,2.1470284E1,1.3337519E0,7.4534445E0,6.631102E1,8.246379E0,5.8044643E0,1.8456125E0,5.880368E0,1.7396587E1,2.1191626E2,8.807588E0,4.0643726E1,1.3345422E0,3.099811E1,1.3908851E1,3.4476173E1,1.7622757E0,5.5377438E1,1.5977516E0,2.1486924E0,4.192309E0,1.7277975E1,1.633069E0,5.8203754E0,1.3345759E0,6.497644E1,1.4216623E0,6.8247166E0,1.9577304E0,3.8467338E0,2.4417892E0,3.438579E0,1.459133E0,1.5937453E1,1.0837411E2,1.0354215E2,5.4935446E0,3.314043E0,2.958449E1,1.1059236E1,2.991525E1,1.0828584E0,1.1527455E1,2.3813956E0,1.997516E1,1.4501013E1,4.687873E1,8.498707E0],"tree_param":{"num_deleted":"0","num_feature":"5","num_nodes":"79","size_leaf_vector":"1"}},{"base_weights":[-2.172747E-1,-4.2548513E-1,-1.6530064E-1,3.150647E-2,-4.428298E-1,-1.3698797E-1,-4.5037475E-1,-8.433635E-2,-4.6065474E-1,-7.807007E-2,-2.843121E-1,-1.7520879E-1,-1.7141546E-1,1.3009813E-1,-1.2162328E-1,-2.6387486E-1,-4.8222777E-1,9.916362E-2,-1.3290289E-1,-3.273239E-1,4.2112407E-1,2.181423E-1,-4.0178785E-1,1.9741881E-1,-1.5728612E-1,-3.0381233E-1,-5.133604E-1,2.2563486E-1,-3.3620173E-1,-1.5765208E-1,2.8015086E-1,-1.9744311E-1,-5.2095616E-1,6.9601524E-1,-9.3265906E-2,-1.0694208E-1,1.9156589E-1,-1.6022521E-1,4.299412E-2,-2.4529407E-2,1.3842113E-1,-1.599317E-1,2.665248E-1,-1.6177376E-1,-7.216239E-2,-1.9543318E-2,1.3017532E-1,7.705904E-5,-1.5767837E-1,-5.138045E-2,1.7170644E-1,1.4311996E-1,-5.069649E-2,-8.639129E-2,3.2191582E-2,-1.6436023E-1,-1.6696865E-3,2.9806474E-1,5.9229888E-2],"categories":[],"categories_nodes":[],"categories_segments":[],"categories_sizes":[],"default_left":[0,0,0,0,0,0,0,0,0,0,0,0,0,0,0,0,0,0,0,0,0,0,0,0,0,0,0,0,0,0,0,0,0,0,0,0,0,0,0,0,0,0,0,0,0,0,0,0,0,0,0,0,0,0,0,0,0,0,0],"id":14,"left_children":[1,3,5,-1,7,9,11,13,15,17,19,21,-1,-1,-1,23,25,27,29,31,33,35,37,39,-1,41,43,45,47,49,51,53,55,57,-1,-1,-1,-1,-1,-1,-1,-1,-1,-1,-1,-1,-1,-1,-1,-1,-1,-1,-1,-1,-1,-1,-1,-1,-1],"loss_changes":[4.0729084E0,7.4440384E-1,2.424427E0,0E0,4.316969E-1,2.4223828E0,8.119507E-1,9.5949465E-1,1.695919E-1,1.981665E0,2.567533E0,9.618493E-1,0E0,0E0,0E0,1.1986917E0,1.8734646E-1,2.7426262E0,1.6299536E0,1.809411E0,1.2303805E0,1.2502403E0,5.507394E-1,3.3371502E-1,0E0,3.6536288E0,2.3168945E-1,2.337513E0,7.204566E-1,1.5591216E0,8.8803643E-1,1.3308831E0,4.1188622E-1,3.9309716E-1,0E0,0E0,0E0,0E0,0E0,0E0,0E0,0E0,0E0,0E0,0E0,0E0,0E0,0E0,0E0,0E0,0E0,0E0,0E0,0E0,0E0,0E0,0E0,0E0,0E0],"parents":[2147483647,0,0,1,1,2,2,4,4,5,5,6,6,7,7,8,8,9,9,10,10,11,11,15,15,16,16,17,17,18,18,19,19,20,20,21,21,22,22,23,23,25,25,26,26,27,27,28,28,29,29,30,30,31,31,32,32,33,33],"right_children":[2,4,6,-1,8,10,12,14,16,18,20,22,-1,-1,-1,24,26,28,30,32,34,36,38,40,-1,42,44,46,48,50,52,54,56,58,-1,-1,-1,-1,-1,-1,-1,-1,-1,-1,-1,-1,-1,-1,-1,-1,-1,-1,-1,-1,-1,-1,-1,-1,-1],"split_conditions":[9.650046E-1,3.7865978E-1,6.9114E1,3.150647E-2,1.050475E1,5.300762E-2,-6.516714E-2,-1.2384469E-2,4.35527E1,1.5035055E0,6.545715E1,3.9411054E0,-1.7141546E-1,1.3009813E-1,-1.2162328E-1,6.706509E-1,1.2772875E1,6.1365402E1,4.5054927E-2,2.4117622E0,5.1619506E0,7.205425E1,8.245836E0,6.290293E-1,-1.5728612E-1,1.2659187E1,2.1179811E1,1.7006437E1,-8.822383E-3,6.895463E1,3.9306774E1,6.89476E1,7.836672E1,1.4141771E-1,-9.3265906E-2,-1.0694208E-1,1.9156589E-1,-1.6022521E-1,4.299412E-2,-2.4529407E-2,1.3842113E-1,-1.599317E-1,2.665248E-1,-1.6177376E-1,-7.216239E-2,-1.9543318E-2,1.3017532E-1,7.705904E-5,-1.5767837E-1,-5.138045E-2,1.7170644E-1,1.4311996E-1,-5.069649E-2,-8.639129E-2,3.2191582E-2,-1.6436023E-1,-1.6696865E-3,2.9806474E-1,5.9229888E-2],"split_indices":[3,3,0,0,0,4,4,4,2,3,1,3,0,0,0,3,0,2,4,3,3,1,3,3,0,0,0,0,4,0,1,2,2,4,0,0,0,0,0,0,0,0,0,0,0,0,0,0,0,0,0,0,0,0,0,0,0,0,0],"split_type":[0,0,0,0,0,0,0,0,0,0,0,0,0,0,0,0,0,0,0,0,0,0,0,0,0,0,0,0,0,0,0,0,0,0,0,0,0,0,0,0,0,0,0,0,0,0,0,0,0,0,0,0,0,0,0,0,0,0,0],"sum_hessian":[3.8186984E2,7.484617E1,3.0702365E2,2.209551E0,7.263661E1,2.8063263E2,2.639102E1,3.71203E0,6.892458E1,2.0155615E2,7.9076485E1,8.808708E0,1.7582312E1,1.2862465E0,2.4257834E0,8.116952E0,6.0807632E1,4.7432793E1,1.5412337E2,7.503731E1,4.0391746E0,3.233115E0,5.5755925E0,3.0161135E0,5.100838E0,1.0632619E1,5.0175014E1,3.712881E1,1.0303981E1,1.4599408E2,8.1292925E0,4.6120914E1,2.8916395E1,2.9722004E0,1.0669744E0,1.4302863E0,1.8028288E0,4.5029407E0,1.072652E0,1.8013359E0,1.2147775E0,9.381237E0,1.2513819E0,4.493495E1,5.240062E0,1.578247E1,2.134634E1,4.0708E0,6.233181E0,1.4407224E2,1.9218441E0,5.60828E0,2.5210125E0,3.5600548E1,1.0520365E1,2.7421556E1,1.4948398E0,1.2396677E0,1.7325325E0],"tree_param":{"num_deleted":"0","num_feature":"5","num_nodes":"59","size_leaf_vector":"1"}},{"base_weights":[-2.1336803E-1,-2.8631493E-1,-7.50326E-2,-2.470984E-1,-1.6159804E-1,9.866551E-2,-1.4407389E-1,-4.7480798E-1,-2.0556712E-1,2.3040953E-1,-4.1350305E-1,-3.9356256E-1,-1.4537098E-3,-1.612548E-1,-1.6177678E-1,2.2205101E-1,-2.2843368E-1,-1.577644E-2,7.88068E-1,-1.5812632E-1,3.1294703E-2,2.931258E-1,-4.7398832E-1,4.324279E-1,-1.0588936E-1,9.426121E-2,-1.2818058E-1,2.3008268E-1,-2.3948617E-2,-1.8731694E-1,-4.2054203E-1,-3.5663366E-1,2.7026033E-1,3.3088696E-1,3.7627652E-1,-1.8153194E-2,1.8924229E-1,-1.4511684E-1,-4.9991748E-1,-1.3463083E-1,7.073511E-1,2.2332042E-1,-1.5431526E-1,9.79855E-2,-1.3344245E-1,-6.349056E-2,2.2943899E-1,-1.5178709E-1,-4.8219908E-2,-1.7104147E-1,5.4141633E-2,-9.890982E-2,1.9558586E-1,2.4088912E-1,-1.2036809E-1,3.0021667E-2,-9.93123E-2,-8.689342E-2,-1.6981207E-1,4.9157303E-2,2.5017264E-1,-1.21413596E-1,3.1016935E-2],"categories":[],"categories_nodes":[],"categories_segments":[],"categories_sizes":[],"default_left":[0,0,0,0,0,0,0,0,0,0,0,0,0,0,0,0,0,0,0,0,0,0,0,0,0,0,0,0,0,0,0,0,0,0,0,0,0,0,0,0,0,0,0,0,0,0,0,0,0,0,0,0,0,0,0,0,0,0,0,0,0,0,0],"id":15,"left_children":[1,3,5,7,-1,9,11,13,15,17,19,21,23,-1,25,27,29,31,33,-1,-1,35,37,39,41,-1,-1,-1,43,45,47,49,51,-1,53,-1,-1,55,57,-1,59,-1,61,-1,-1,-1,-1,-1,-1,-1,-1,-1,-1,-1,-1,-1,-1,-1,-1,-1,-1,-1,-1],"loss_changes":[3.3486805E0,2.0273228E0,1.4132622E0,1.706749E0,0E0,2.3742554E0,2.984291E0,4.7576475E-1,1.6458049E0,3.788794E0,4.8247123E-1,1.8238187E0,2.50983E0,0E0,9.196173E-1,1.1962564E0,1.1482344E0,2.0524805E0,6.7989254E-1,0E0,0E0,4.939129E-1,1.6359043E-1,2.920867E0,1.9526533E0,0E0,0E0,0E0,1.1815808E0,3.1662192E0,5.0858736E-1,1.202093E0,2.8433259E0,0E0,2.039565E0,0E0,0E0,1.8961483E-1,1.8724442E-1,0E0,4.534545E-1,0E0,2.8201542E0,0E0,0E0,0E0,0E0,0E0,0E0,0E0,0E0,0E0,0E0,0E0,0E0,0E0,0E0,0E0,0E0,0E0,0E0,0E0,0E0],"parents":[2147483647,0,0,1,1,2,2,3,3,5,5,6,6,7,7,8,8,9,9,10,10,11,11,12,12,14,14,15,15,16,16,17,17,18,18,21,21,22,22,23,23,24,24,28,28,29,29,30,30,31,31,32,32,34,34,37,37,38,38,40,40,42,42],"right_children":[2,4,6,8,-1,10,12,14,16,18,20,22,24,-1,26,28,30,32,34,-1,-1,36,38,40,42,-1,-1,-1,44,46,48,50,52,-1,54,-1,-1,56,58,-1,60,-1,62,-1,-1,-1,-1,-1,-1,-1,-1,-1,-1,-1,-1,-1,-1,-1,-1,-1,-1,-1,-1],"split_conditions":[2.7891114E0,6.88012E1,3.24825E1,1.4696517E1,-1.6159804E-1,3.57377E1,5.42258E1,1.5401313E1,1.5240659E1,3.010515E1,1.4418836E-1,2.8701434E0,5.1669E1,-1.612548E-1,1.54313755E1,5.164819E-1,4.104725E1,3.23597E0,3.15481E1,-1.5812632E-1,3.1294703E-2,5.213769E1,2.67827E1,-1.7560321E-1,2.920828E0,9.426121E-2,-1.2818058E-1,2.3008268E-1,1.2772875E1,4.11558E1,2.5896058E0,6.7764044E-2,2.310475E1,3.3088696E-1,3.0928E1,-1.8153194E-2,1.8924229E-1,4.858561E1,3.2694502E0,-1.3463083E-1,4.87685E1,2.2332042E-1,7.094475E1,9.79855E-2,-1.3344245E-1,-6.349056E-2,2.2943899E-1,-1.5178709E-1,-4.8219908E-2,-1.7104147E-1,5.4141633E-2,-9.890982E-2,1.9558586E-1,2.4088912E-1,-1.2036809E-1,3.0021667E-2,-9.93123E-2,-8.689342E-2,-1.6981207E-1,4.9157303E-2,2.5017264E-1,-1.21413596E-1,3.1016935E-2],"split_indices":[3,2,0,1,0,1,1,0,1,1,4,3,0,0,0,3,0,3,1,0,0,2,1,4,3,0,0,0,0,1,3,4,0,0,0,0,0,2,3,0,0,0,1,0,0,0,0,0,0,0,0,0,0,0,0,0,0,0,0,0,0,0,0],"split_type":[0,0,0,0,0,0,0,0,0,0,0,0,0,0,0,0,0,0,0,0,0,0,0,0,0,0,0,0,0,0,0,0,0,0,0,0,0,0,0,0,0,0,0,0,0,0,0,0,0,0,0,0,0,0,0,0,0,0,0,0,0,0,0],"sum_hessian":[3.3297232E2,2.173106E2,1.1566171E2,1.897942E2,2.7516382E1,3.2775105E1,8.288661E1,2.7667112E1,1.6212709E2,2.6506918E1,6.268188E0,2.9508034E1,5.337858E1,2.2452236E1,5.214876E0,7.787396E0,1.543397E2,1.9063004E1,7.4439144E0,5.1259084E0,1.1422794E0,2.8164074E0,2.6691626E1,9.74636E0,4.3632217E1,1.801543E0,3.413333E0,1.7635227E0,6.0238733E0,1.2875703E2,2.5582666E1,8.58538E0,1.0477624E1,3.2671537E0,4.1767607E0,1.7766356E0,1.0397718E0,2.4327404E0,2.4258884E1,2.1672947E0,7.579065E0,1.5766418E0,4.2055576E1,3.40855E0,2.615323E0,1.2630866E2,2.4483721E0,1.8540022E1,7.0426445E0,6.0993357E0,2.486044E0,4.126944E0,6.3506794E0,2.6756442E0,1.5011164E0,1.2482965E0,1.184444E0,7.090675E0,1.716821E1,1.8649389E0,5.714126E0,2.1040918E1,2.1014658E1],"tree_param":{"num_deleted":"0","num_feature":"5","num_nodes":"63","size_leaf_vector":"1"}},{"base_weights":[2.5862598E-1,4.4284284E-1,2.1560696E-1,1.6029194E-1,4.8275745E-1,1.6067497E-1,3.3949935E-1,-1.3869503E-1,2.835684E-1,2.0298783E-3,4.902506E-1,3.7432182E-1,1.4288157E-1,2.392208E-1,4.802342E-1,4.0653995E-1,6.525438E-2,3.5075626E-1,5.2867323E-1,4.9010444E-1,1.385589E-1,-1.9376935E-2,1.6808219E-1,4.6412048E-1,7.4255675E-2,-3.8546264E-2,4.9911547E-1,1.694977E-1,-5.9490018E-2,-1.1880386E-1,3.597721E-1,4.4036773E-1,-1.683311E-1,2.4619819E-1,5.598068E-1,6.0572875E-1,2.5804842E-1,-1.6211653E-1,3.9617592E-1,1.1310557E-1,-3.1408688E-1,-3.26197E-1,1.794548E-1,2.0648995E-1,1.6294631E-1,-3.870694E-1,2.3780903E-1,5.3338504E-1,2.725555E-1,1.200461E-2,1.4859219E-1,1.075802E-2,1.6305247E-1,2.8310316E-3,1.5509774E-1,3.9515328E-2,1.7035851E-1,3.4086663E-2,2.0482576E-1,-1.0025939E-1,1.758988E-1,-3.8132682E-2,2.1429628E-1,9.215443E-2,-5.186955E-2,-1.6097602E-1,1.7470299E-1,-2.0224778E-1,1.3528003E-1,1.3444938E-1,4.674203E-2,1.3178058E-1,-2.764552E-2,-1.9390392E-1,5.8279827E-2,1.4171693E-1,-2.4976874E-2,2.45813E-2,1.6492173E-1,-2.5097194E-1,1.732157E-1],"categories":[],"categories_nodes":[],"categories_segments":[],"categories_sizes":[],"default_left":[0,0,0,0,0,0,0,0,0,0,0,0,0,0,0,0,0,0,0,0,0,0,0,0,0,0,0,0,0,0,0,0,0,0,0,0,0,0,0,0,0,0,0,0,0,0,0,0,0,0,0,0,0,0,0,0,0,0,0,0,0,0,0,0,0,0,0,0,0,0,0,0,0,0,0,0,0,0,0,0,0],"id":16,"left_children":[1,3,5,7,9,11,13,-1,15,-1,17,19,21,23,25,27,29,31,33,35,37,39,41,43,45,-1,47,-1,-1,-1,49,51,-1,53,55,57,59,-1,61,63,65,67,69,71,-1,73,75,77,79,-1,-1,-1,-1,-1,-1,-1,-1,-1,-1,-1,-1,-1,-1,-1,-1,-1,-1,-1,-1,-1,-1,-1,-1,-1,-1,-1,-1,-1,-1,-1,-1],"loss_changes":[4.001854E0,1.0158024E0,2.8112698E0,1.1668966E0,2.9784012E-1,1.062787E0,1.697958E0,0E0,2.925306E-1,0E0,2.6003265E-1,5.3148365E-1,1.1182537E0,2.8223214E0,6.670027E-1,8.223113E-1,8.8604975E-1,1.9565737E0,4.179268E-1,2.2823668E-1,1.7228605E0,1.5017747E0,1.3858666E0,5.473814E-1,3.5333614E0,0E0,2.5121593E-1,0E0,0E0,0E0,1.4766115E-1,7.986131E-1,0E0,5.1178586E-1,1.1876488E-1,2.568686E-1,1.4613352E0,0E0,1.2279111E0,1.5319569E0,2.6882148E0,1.8360554E0,1.4009843E0,6.8124807E-1,0E0,1.9822615E0,2.622015E0,2.7481747E-1,3.4434724E0,0E0,0E0,0E0,0E0,0E0,0E0,0E0,0E0,0E0,0E0,0E0,0E0,0E0,0E0,0E0,0E0,0E0,0E0,0E0,0E0,0E0,0E0,0E0,0E0,0E0,0E0,0E0,0E0,0E0,0E0,0E0,0E0],"parents":[2147483647,0,0,1,1,2,2,3,3,4,4,5,5,6,6,8,8,10,10,11,11,12,12,13,13,14,14,15,15,16,16,17,17,18,18,19,19,20,20,21,21,22,22,23,23,24,24,26,26,30,30,31,31,33,33,34,34,35,35,36,36,38,38,39,39,40,40,41,41,42,42,43,43,45,45,46,46,47,47,48,48],"right_children":[2,4,6,8,10,12,14,-1,16,-1,18,20,22,24,26,28,30,32,34,36,38,40,42,44,46,-1,48,-1,-1,-1,50,52,-1,54,56,58,60,-1,62,64,66,68,70,72,-1,74,76,78,80,-1,-1,-1,-1,-1,-1,-1,-1,-1,-1,-1,-1,-1,-1,-1,-1,-1,-1,-1,-1,-1,-1,-1,-1,-1,-1,-1,-1,-1,-1,-1,-1],"split_conditions":[9.167177E-1,-5.382042E-2,6.0756836E1,4.8607364E-1,4.0711056E1,3.053607E1,3.42445E1,-1.3869503E-1,7.739663E-1,2.0298783E-3,1.2772875E1,4.8954477E0,3.5601658E1,1.7033759E0,-6.1127383E-2,1.533765E1,1.51605E1,1.2659187E1,4.6262464E-1,3.149375E1,5.4165206E0,-1.9622035E-2,9.5138854E-1,2.4569759E-3,2.0722148E0,-3.8546264E-2,6.609345E1,1.694977E-1,-5.9490018E-2,-1.1880386E-1,-1.1051829E-1,-9.917818E-3,-1.683311E-1,1.7148563E1,4.35527E1,1.5401313E1,3.921275E1,-1.6211653E-1,2.7608786E1,4.4675713E0,5.762331E0,5.3596947E1,1.54494E1,1.3698004E0,1.6294631E-1,1.0207939E-1,2.865375E1,2.9819124E1,6.66099E1,1.200461E-2,1.4859219E-1,1.075802E-2,1.6305247E-1,2.8310316E-3,1.5509774E-1,3.9515328E-2,1.7035851E-1,3.4086663E-2,2.0482576E-1,-1.0025939E-1,1.758988E-1,-3.8132682E-2,2.1429628E-1,9.215443E-2,-5.186955E-2,-1.6097602E-1,1.7470299E-1,-2.0224778E-1,1.3528003E-1,1.3444938E-1,4.674203E-2,1.3178058E-1,-2.764552E-2,-1.9390392E-1,5.8279827E-2,1.4171693E-1,-2.4976874E-2,2.45813E-2,1.6492173E-1,-2.5097194E-1,1.732157E-1],"split_indices":[3,4,2,3,2,2,0,0,3,0,0,3,2,3,4,1,1,0,3,0,3,4,3,4,3,0,1,0,0,0,4,4,0,0,2,0,0,0,2,3,3,2,1,3,0,4,0,1,1,0,0,0,0,0,0,0,0,0,0,0,0,0,0,0,0,0,0,0,0,0,0,0,0,0,0,0,0,0,0,0,0],"split_type":[0,0,0,0,0,0,0,0,0,0,0,0,0,0,0,0,0,0,0,0,0,0,0,0,0,0,0,0,0,0,0,0,0,0,0,0,0,0,0,0,0,0,0,0,0,0,0,0,0,0,0,0,0,0,0,0,0,0,0,0,0,0,0,0,0,0,0,0,0,0,0,0,0,0,0,0,0,0,0,0,0],"sum_hessian":[5.1602515E2,9.593149E1,4.2009363E2,1.24952135E1,8.343628E1,2.9263895E2,1.274547E2,1.6106038E0,1.0884609E1,1.3226064E0,8.211367E1,2.0957964E1,2.7168097E2,7.600106E1,5.1453644E1,6.411162E0,4.473448E0,1.9920532E1,6.219314E1,1.3331899E1,7.626066E0,3.6553867E1,2.351271E2,3.1391314E1,4.4609745E1,1.3733251E0,5.008032E1,5.1324697E0,1.2786922E0,1.6089425E0,2.8645055E0,1.8608845E1,1.311686E0,7.0585766E0,5.5134563E1,7.823493E0,5.508405E0,1.7957475E0,5.8303185E0,2.5642757E1,1.0911109E1,4.6656303E0,2.3046147E2,8.217384E0,2.317393E1,1.1318294E1,3.329145E1,4.232408E1,7.756236E0,1.2383085E0,1.6261969E0,4.0546327E0,1.4554213E1,4.3180547E0,2.740522E0,1.3387167E0,5.3795845E1,1.3937773E0,6.429716E0,1.9579946E0,3.5504107E0,2.4314835E0,3.3988352E0,1.523237E1,1.0410387E1,9.0630245E0,1.8480837E0,3.3141932E0,1.3514371E0,1.718937E1,2.1327211E2,4.3532896E0,3.8640943E0,7.749962E0,3.5683315E0,1.896424E1,1.432721E1,1.6897403E0,4.0634342E1,1.2960715E0,6.4601645E0],"tree_param":{"num_deleted":"0","num_feature":"5","num_nodes":"81","size_leaf_vector":"1"}},{"base_weights":[-1.773906E-1,-3.8666603E-1,-1.3073853E-1,-1.8748936E-1,-4.4751096E-1,-1.0480508E-1,-4.122709E-1,-3.0421767E-1,1.367449E-1,-1.5239942E-1,-4.8545587E-1,-7.415522E-2,-3.2982972E-1,-1.4256996E-1,-1.6343017E-1,8.53851E-2,-4.0155482E-1,1.8515453E-1,-1.3663149E-1,-5.179299E-1,-1.8416712E-1,-8.459032E-2,6.344809E-1,-4.135254E-1,1.18829645E-1,1.9824941E-1,-3.607591E-1,-4.6019843E-1,1.7940665E-2,-2.0201446E-2,1.2274425E-1,-1.9942757E-1,-1.6171119E-1,1.2376382E-1,-1.345216E-1,-1.6946146E-2,-2.2249866E-1,1.3333187E-2,2.8641975E-1,-9.402356E-2,-4.802369E-1,1.7099592E-1,-1.0355202E-1,-1.4802168E-1,3.3784743E-2,-3.6427554E-2,-1.5686268E-1,6.440328E-2,-1.24688625E-1,-1.8179812E-2,1.1571892E-1,2.0002183E-2,-9.8251164E-2,-1.2986584E-1,7.751309E-2,-1.5382598E-1,3.501155E-2],"categories":[],"categories_nodes":[],"categories_segments":[],"categories_sizes":[],"default_left":[0,0,0,0,0,0,0,0,0,0,0,0,0,0,0,0,0,0,0,0,0,0,0,0,0,0,0,0,0,0,0,0,0,0,0,0,0,0,0,0,0,0,0,0,0,0,0,0,0,0,0,0,0,0,0,0,0],"id":17,"left_children":[1,3,5,7,9,11,13,15,-1,17,19,21,23,25,-1,-1,27,29,-1,31,33,35,37,39,-1,41,43,45,-1,-1,-1,47,-1,-1,-1,49,51,-1,-1,53,55,-1,-1,-1,-1,-1,-1,-1,-1,-1,-1,-1,-1,-1,-1,-1,-1],"loss_changes":[3.3869314E0,6.8770695E-1,2.0698643E0,1.3866808E0,4.640808E-1,1.8125355E0,7.824712E-1,9.54936E-1,0E0,7.934047E-1,3.167019E-1,1.796662E0,2.08611E0,7.619068E-1,0E0,0E0,3.79277E-1,2.532217E-1,0E0,1.4439297E-1,1.0758111E0,2.171404E0,6.2615097E-1,5.6993484E-1,0E0,1.0591332E0,4.3325377E-1,1.8387747E-1,0E0,0E0,0E0,4.3982276E-1,0E0,0E0,0E0,2.7922761E0,2.3492937E0,0E0,0E0,8.555816E-1,5.185027E-1,0E0,0E0,0E0,0E0,0E0,0E0,0E0,0E0,0E0,0E0,0E0,0E0,0E0,0E0,0E0,0E0],"parents":[2147483647,0,0,1,1,2,2,3,3,4,4,5,5,6,6,7,7,9,9,10,10,11,11,12,12,13,13,16,16,17,17,19,19,20,20,21,21,22,22,23,23,25,25,26,26,27,27,31,31,35,35,36,36,39,39,40,40],"right_children":[2,4,6,8,10,12,14,16,-1,18,20,22,24,26,-1,-1,28,30,-1,32,34,36,38,40,-1,42,44,46,-1,-1,-1,48,-1,-1,-1,50,52,-1,-1,54,56,-1,-1,-1,-1,-1,-1,-1,-1,-1,-1,-1,-1,-1,-1,-1,-1],"split_conditions":[9.650046E-1,1.2772875E1,6.9114E1,1.2659187E1,4.35527E1,1.095294E-1,-6.516714E-2,-3.9704822E-2,1.367449E-1,6.706509E-1,2.1179811E1,6.895463E1,2.8381172E-1,3.9411054E0,-1.6343017E-1,8.53851E-2,8.8970706E-2,6.290293E-1,-1.3663149E-1,-7.35889E-2,2.25945E1,3.79775E1,3.9799776E0,1.9755E1,1.18829645E-1,4.096469E1,8.245836E0,1.0473312E1,1.7940665E-2,-2.0201446E-2,1.2274425E-1,1.4015308E1,-1.6171119E-1,1.2376382E-1,-1.345216E-1,3.62032E1,3.8107285E1,1.3333187E-2,2.8641975E-1,1.9580089E-1,7.836672E1,1.7099592E-1,-1.0355202E-1,-1.4802168E-1,3.3784743E-2,-3.6427554E-2,-1.5686268E-1,6.440328E-2,-1.24688625E-1,-1.8179812E-2,1.1571892E-1,2.0002183E-2,-9.8251164E-2,-1.2986584E-1,7.751309E-2,-1.5382598E-1,3.501155E-2],"split_indices":[3,0,0,0,2,4,4,4,0,3,0,0,4,3,0,0,4,3,0,4,0,0,3,0,0,2,3,0,0,0,0,1,0,0,0,1,2,0,0,4,2,0,0,0,0,0,0,0,0,0,0,0,0,0,0,0,0],"split_type":[0,0,0,0,0,0,0,0,0,0,0,0,0,0,0,0,0,0,0,0,0,0,0,0,0,0,0,0,0,0,0,0,0,0,0,0,0,0,0,0,0,0,0,0,0,0,0,0,0,0,0,0,0,0,0,0,0],"sum_hessian":[3.5108813E2,6.266999E1,2.8841812E2,1.5619796E1,4.7050194E1,2.653478E2,2.3070332E1,1.3667008E1,1.9527869E0,5.9319057E0,4.111829E1,2.3470848E2,3.0639324E1,8.283995E0,1.4786336E1,1.6658041E0,1.20012045E1,2.9901714E0,2.9417343E0,3.6468525E1,4.649764E0,2.3217026E2,2.5382202E0,2.7857817E1,2.781508E0,3.2690332E0,5.0149617E0,1.0649984E1,1.3512204E0,1.7344325E0,1.255739E0,2.9159672E0,3.355256E1,1.2548182E0,3.3949459E0,1.5651994E2,7.5650314E1,1.2936168E0,1.2446034E0,5.228126E0,2.262969E1,1.9121289E0,1.3569043E0,3.88423E0,1.1307318E0,2.121339E0,8.5286455E0,1.0026221E0,1.9133451E0,1.4197794E2,1.4542013E1,2.0249763E1,5.5400547E1,2.5488253E0,2.6793008E0,2.1594442E1,1.0352488E0],"tree_param":{"num_deleted":"0","num_feature":"5","num_nodes":"57","size_leaf_vector":"1"}},{"base_weights":[-1.7755075E-1,-3.232558E-1,-1.1134643E-1,-1.3564159E-1,-4.7853714E-1,-7.652202E-2,-3.662041E-1,4.4984713E-2,-4.083199E-1,-1.2189066E-1,-1.6125065E-1,5.260695E-1,-9.422026E-2,-4.8976207E-1,-6.313898E-2,-2.3405026E-1,5.211771E-1,-4.8463845E-1,6.908173E-2,-1.2332559E-1,1.1726096E-1,8.6662304E-1,-1.0143482E-1,-1.1260067E-1,2.6923144E-1,-1.608093E-1,4.0482778E-2,-4.007441E-1,1.7408909E-1,-4.4975296E-1,3.2146266E-3,6.519615E-1,-8.958043E-2,3.105841E-2,-1.627791E-1,1.24827094E-1,-9.3047015E-2,2.1130364E-1,-2.3175871E-1,9.2114694E-2,3.2973823E-1,1.627171E-2,-1.8673949E-1,-1.0758655E-1,4.218699E-1,-1.112262E-2,-1.4477718E-1,-2.2818547E-2,-1.4648691E-1,-1.1799282E-1,4.1411318E-2,1.11878134E-1,3.9652696E-1,6.9655753E-3,-1.0960634E-1,-3.318522E-2,1.8434158E-1,-1.0857119E-1,-2.111268E-2,1.8909344E-1,5.2799344E-2],"categories":[],"categories_nodes":[],"categories_segments":[],"categories_sizes":[],"default_left":[0,0,0,0,0,0,0,0,0,0,0,0,0,0,0,0,0,0,0,0,0,0,0,0,0,0,0,0,0,0,0,0,0,0,0,0,0,0,0,0,0,0,0,0,0,0,0,0,0,0,0,0,0,0,0,0,0,0,0,0,0],"id":18,"left_children":[1,3,5,7,9,11,13,15,17,19,-1,21,23,25,27,29,31,33,35,-1,37,39,-1,41,43,-1,-1,45,-1,47,49,51,-1,-1,-1,-1,-1,-1,53,-1,-1,55,57,-1,59,-1,-1,-1,-1,-1,-1,-1,-1,-1,-1,-1,-1,-1,-1,-1,-1],"loss_changes":[2.902956E0,2.6927986E0,1.8447635E0,2.1984148E0,1.0153446E0,2.042914E0,9.090805E-1,3.7794907E0,6.7969346E-1,6.4197135E-1,0E0,1.9072099E0,1.2489804E0,5.8349514E-1,2.0612218E0,9.2501944E-1,1.3182828E0,5.8170867E-1,5.659364E-1,0E0,1.2855515E0,2.1090484E-1,0E0,1.6688354E0,1.0211172E0,0E0,0E0,1.6405481E-1,0E0,9.908676E-2,5.6678736E-1,1.2549746E0,0E0,0E0,0E0,0E0,0E0,0E0,1.5112643E-1,0E0,0E0,4.9707513E0,2.232068E0,0E0,2.8680587E-1,0E0,0E0,0E0,0E0,0E0,0E0,0E0,0E0,0E0,0E0,0E0,0E0,0E0,0E0,0E0,0E0],"parents":[2147483647,0,0,1,1,2,2,3,3,4,4,5,5,6,6,7,7,8,8,9,9,11,11,12,12,13,13,14,14,15,15,16,16,17,17,18,18,20,20,21,21,23,23,24,24,27,27,29,29,30,30,31,31,38,38,41,41,42,42,44,44],"right_children":[2,4,6,8,10,12,14,16,18,20,-1,22,24,26,28,30,32,34,36,-1,38,40,-1,42,44,-1,-1,46,-1,48,50,52,-1,-1,-1,-1,-1,-1,54,-1,-1,56,58,-1,60,-1,-1,-1,-1,-1,-1,-1,-1,-1,-1,-1,-1,-1,-1,-1,-1],"split_conditions":[1.4915432E0,5.2839302E1,6.88012E1,1.0672958E0,5.164819E-1,1.5447596E0,1.095294E-1,1.5628525E1,1.4141771E-1,1.4823684E1,-1.6125065E-1,5.030666E1,7.404385E1,6.5555716E0,3.14218E0,7.391609E-1,2.1179811E1,1.34332E1,1.3260104E1,-1.2332559E-1,1.5240659E1,-4.7231065E-3,-1.0143482E-1,3.24825E1,3.231774E1,-1.608093E-1,4.0482778E-2,1.2553404E-1,1.7408909E-1,4.3191648E-1,-1.2178734E-1,2.0862125E1,-8.958043E-2,3.105841E-2,-1.627791E-1,1.24827094E-1,-9.3047015E-2,2.1130364E-1,1.7148563E1,9.2114694E-2,3.2973823E-1,3.068225E1,4.046495E1,-1.0758655E-1,8.122713E1,-1.112262E-2,-1.4477718E-1,-2.2818547E-2,-1.4648691E-1,-1.1799282E-1,4.1411318E-2,1.11878134E-1,3.9652696E-1,6.9655753E-3,-1.0960634E-1,-3.318522E-2,1.8434158E-1,-1.0857119E-1,-2.111268E-2,1.8909344E-1,5.2799344E-2],"split_indices":[3,2,2,3,3,3,4,1,4,1,0,2,1,3,3,3,0,1,0,0,1,4,0,0,2,0,0,4,0,3,4,0,0,0,0,0,0,0,0,0,0,0,1,0,0,0,0,0,0,0,0,0,0,0,0,0,0,0,0,0,0],"split_type":[0,0,0,0,0,0,0,0,0,0,0,0,0,0,0,0,0,0,0,0,0,0,0,0,0,0,0,0,0,0,0,0,0,0,0,0,0,0,0,0,0,0,0,0,0,0,0,0,0,0,0,0,0,0,0,0,0,0,0,0,0],"sum_hessian":[3.0367108E2,9.3659294E1,2.100118E2,4.3262333E1,5.039696E1,1.8590897E2,2.4102823E1,2.6526077E1,1.6736256E1,7.585243E0,4.2811718E1,4.4848213E0,1.8142415E2,1.6684582E1,7.4182405E0,1.704607E1,9.480008E0,1.4416449E1,2.3198068E0,3.1079798E0,4.4772635E0,3.2150366E0,1.2697846E0,1.7334782E2,8.076324E0,1.5666206E1,1.0183762E0,5.1127872E0,2.3054533E0,8.459647E0,8.586423E0,8.352234E0,1.1277742E0,1.2226522E0,1.3193796E1,1.1606355E0,1.1591715E0,1.289736E0,3.1875272E0,1.6249193E0,1.5901175E0,6.3590923E1,1.09756905E2,1.315548E0,6.760776E0,1.2062113E0,3.906576E0,1.0688406E0,7.390806E0,1.6922307E0,6.894192E0,6.9949417E0,1.3572922E0,1.3799651E0,1.8075621E0,5.313509E1,1.0455833E1,4.296735E1,6.678955E1,2.8126976E0,3.9480786E0],"tree_param":{"num_deleted":"0","num_feature":"5","num_nodes":"61","size_leaf_vector":"1"}},{"base_weights":[2.0841075E-1,3.9225942E-1,1.7000146E-1,1.781305E-1,4.4558507E-1,1.5161765E-1,4.8754638E-1,-1.3844517E-1,2.6107866E-1,2.087508E-1,4.7829026E-1,1.22875646E-1,2.677867E-1,5.315071E-1,-4.848364E-2,3.1594336E-1,-6.45001E-2,3.636627E-1,-1.0178547E-1,3.187039E-1,5.17088E-1,7.265644E-2,1.9069965E-1,3.0207655E-1,-4.7278407E-1,3.2881021E-1,1.8889584E-1,4.520107E-1,1.4300627E-1,-9.559641E-3,1.365137E-1,-1.4065969E-1,1.14532314E-1,4.4271934E-1,-1.5116334E-1,3.4940254E-2,1.5807863E-1,1.4406787E-1,-4.6907518E-2,3.8383305E-1,7.506199E-2,3.645569E-1,-1.214547E-1,-2.3028396E-1,5.1761125E-3,1.5823753E-1,-6.9156475E-2,1.734586E-1,-5.1632687E-2,-5.322304E-3,1.3561767E-1,2.9943166E-3,1.602835E-1,3.335466E-2,2.157252E-1,-1.9936338E-1,2.5229732E-2,7.8367464E-2,1.7791265E-1,5.5791654E-2,-3.33566E-2,-1.2922789E-1,1.16317146E-1,-1.0906958E-1,3.0579645E-2],"categories":[],"categories_nodes":[],"categories_segments":[],"categories_sizes":[],"default_left":[0,0,0,0,0,0,0,0,0,0,0,0,0,0,0,0,0,0,0,0,0,0,0,0,0,0,0,0,0,0,0,0,0,0,0,0,0,0,0,0,0,0,0,0,0,0,0,0,0,0,0,0,0,0,0,0,0,0,0,0,0,0,0,0,0],"id":19,"left_children":[1,3,5,7,9,11,13,-1,15,17,19,21,23,25,-1,27,-1,29,31,33,35,37,39,41,43,45,-1,47,49,-1,-1,-1,-1,51,-1,-1,-1,53,55,57,59,61,63,-1,-1,-1,-1,-1,-1,-1,-1,-1,-1,-1,-1,-1,-1,-1,-1,-1,-1,-1,-1,-1,-1],"loss_changes":[3.3451118E0,8.652983E-1,2.2694664E0,1.084019E0,4.080429E-1,1.2389174E0,6.999297E-1,0E0,5.04521E-1,5.051111E-1,1.8712807E-1,1.032506E0,2.039806E0,1.9850302E-1,0E0,2.9756582E-1,0E0,2.570548E-1,8.925488E-1,1.6229482E0,1.1255741E-1,1.5276397E0,2.876305E0,1.949739E0,5.4717934E-1,1.0930665E0,0E0,7.4150527E-1,4.174185E-1,0E0,0E0,0E0,0E0,4.8822737E-1,0E0,0E0,0E0,2.0335042E0,5.5063777E0,1.0884433E0,1.727083E0,1.3277817E0,5.7828367E-1,0E0,0E0,0E0,0E0,0E0,0E0,0E0,0E0,0E0,0E0,0E0,0E0,0E0,0E0,0E0,0E0,0E0,0E0,0E0,0E0,0E0,0E0],"parents":[2147483647,0,0,1,1,2,2,3,3,4,4,5,5,6,6,8,8,9,9,10,10,11,11,12,12,13,13,15,15,17,17,18,18,19,19,20,20,21,21,22,22,23,23,24,24,25,25,27,27,28,28,33,33,37,37,38,38,39,39,40,40,41,41,42,42],"right_children":[2,4,6,8,10,12,14,-1,16,18,20,22,24,26,-1,28,-1,30,32,34,36,38,40,42,44,46,-1,48,50,-1,-1,-1,-1,52,-1,-1,-1,54,56,58,60,62,64,-1,-1,-1,-1,-1,-1,-1,-1,-1,-1,-1,-1,-1,-1,-1,-1,-1,-1,-1,-1,-1,-1],"split_conditions":[9.167177E-1,-3.353624E-2,7.380562E1,1.2348E1,4.6262464E-1,7.9915375E-2,1.5234217E-1,-1.3844517E-1,-3.6414836E-2,4.3191648E-1,1.2772875E1,3.79775E1,7.263567E1,2.50428E1,-4.848364E-2,1.5407812E1,-6.45001E-2,1.173375E1,3.6268294E-2,1.2659187E1,4.35527E1,2.61814E1,2.671726E0,2.1354653E-1,7.326073E1,2.2754E1,1.8889584E-1,8.406756E-1,-5.382042E-2,-9.559641E-3,1.365137E-1,-1.4065969E-1,1.14532314E-1,-9.917818E-3,-1.5116334E-1,3.4940254E-2,1.5807863E-1,2.57444E1,1.7429547E0,4.8221275E1,-1.545186E-2,9.759442E-1,2.4866241E-1,-2.3028396E-1,5.1761125E-3,1.5823753E-1,-6.9156475E-2,1.734586E-1,-5.1632687E-2,-5.322304E-3,1.3561767E-1,2.9943166E-3,1.602835E-1,3.335466E-2,2.157252E-1,-1.9936338E-1,2.5229732E-2,7.8367464E-2,1.7791265E-1,5.5791654E-2,-3.33566E-2,-1.2922789E-1,1.16317146E-1,-1.0906958E-1,3.0579645E-2],"split_indices":[3,4,2,0,3,4,4,0,4,3,0,0,2,1,0,0,0,1,4,0,2,1,3,4,2,0,0,3,4,0,0,0,0,4,0,0,0,1,3,1,4,3,4,0,0,0,0,0,0,0,0,0,0,0,0,0,0,0,0,0,0,0,0,0,0],"split_type":[0,0,0,0,0,0,0,0,0,0,0,0,0,0,0,0,0,0,0,0,0,0,0,0,0,0,0,0,0,0,0,0,0,0,0,0,0,0,0,0,0,0,0,0,0,0,0,0,0,0,0,0,0,0,0,0,0,0,0,0,0,0,0,0,0],"sum_hessian":[4.8215488E2,8.173108E1,4.004238E2,1.7161118E1,6.456996E1,3.7990707E2,2.0516712E1,1.4461691E0,1.5714948E1,8.730553E0,5.5839405E1,3.0620502E2,7.370208E1,1.9385195E1,1.1315184E0,1.439266E1,1.3222871E0,5.7106833E0,3.0198698E0,1.2722508E1,4.3116898E1,1.7712608E2,1.2907892E2,7.100645E1,2.695631E0,7.7433505E0,1.1641844E1,7.151843E0,7.2408175E0,1.1940098E0,4.516673E0,1.7339674E0,1.2859024E0,1.1457002E1,1.265507E0,1.3414451E0,4.177545E1,1.10765015E2,6.636107E1,4.747268E1,8.160625E1,6.1999393E1,9.007055E0,1.3293793E0,1.3662518E0,5.7560563E0,1.9872944E0,6.010268E0,1.1415751E0,5.3833666E0,1.8574507E0,2.1944265E0,9.262575E0,1.0590176E2,4.8632603E0,1.0899981E1,5.546109E1,3.1349028E1,1.6123652E1,5.114905E1,3.0457191E1,1.256887E0,6.0742504E1,4.0212455E0,4.98581E0],"tree_param":{"num_deleted":"0","num_feature":"5","num_nodes":"65","size_leaf_vector":"1"}},{"base_weights":[-1.4275657E-1,-3.5210195E-1,-1.0104343E-1,4.8070442E-2,-3.7532857E-1,5.3153284E-2,-1.4672723E-1,-1.3242159E-2,-3.9749905E-1,2.3611006E-1,-2.2086407E-1,1.6309285E-1,-1.7182359E-1,-1.0809597E-1,1.240594E-1,-4.1753823E-1,-1.3782734E-1,6.896682E-1,1.4977542E-1,-4.203857E-1,1.4266787E-2,-1.3840874E-1,6.192948E-1,-4.1320205E-1,-1.2150272E-1,-2.2278453E-1,-4.4865766E-1,1.16923764E-1,-1.2389612E-1,3.2870576E-1,2.5531846E-1,-2.6215583E-1,3.589092E-1,-1.6107646E-1,4.420309E-2,3.2555425E-1,-1.4880821E-1,-1.4284307E-1,6.959051E-2,7.454883E-1,1.3358011E-3,3.386928E-2,-1.7106399E-1,6.1470544E-1,-1.7262018E-1,5.173697E-2,-1.4439373E-1,-6.979997E-2,-1.4895134E-1,-9.785392E-2,2.2082031E-1,3.4694456E-2,-1.3122725E-1,1.3048387E-1,-5.6406975E-2,1.977375E-1,-5.6504227E-2,1.5372866E-1,-6.52634E-2,2.6976911E-2,2.6642597E-1,2.0584106E-1,-5.8448184E-2,2.3464753E-1,-3.0111795E-2,9.888711E-2,-5.944447E-2],"categories":[],"categories_nodes":[],"categories_segments":[],"categories_sizes":[],"default_left":[0,0,0,0,0,0,0,0,0,0,0,0,0,0,0,0,0,0,0,0,0,0,0,0,0,0,0,0,0,0,0,0,0,0,0,0,0,0,0,0,0,0,0,0,0,0,0,0,0,0,0,0,0,0,0,0,0,0,0,0,0,0,0,0,0,0,0],"id":20,"left_children":[1,3,5,-1,7,9,11,13,15,17,19,21,23,-1,-1,25,27,29,31,33,35,37,39,41,43,45,47,-1,-1,49,-1,51,53,-1,-1,55,-1,-1,57,59,-1,61,-1,63,65,-1,-1,-1,-1,-1,-1,-1,-1,-1,-1,-1,-1,-1,-1,-1,-1,-1,-1,-1,-1,-1,-1],"loss_changes":[2.8149614E0,7.007532E-1,1.9350951E0,0E0,4.105525E-1,3.223891E0,1.6711941E0,7.4491376E-1,1.9625807E-1,1.4011419E0,1.2185415E0,2.3344097E0,2.3302655E0,0E0,0E0,1.7148972E-1,8.849242E-1,6.200528E-2,2.9846857E0,1.0063362E0,2.1997566E0,7.820305E-1,5.1560116E-1,2.3632846E0,6.262499E0,9.1648877E-1,2.7337646E-1,0E0,0E0,1.1582801E0,0E0,8.370154E-1,1.0248508E0,0E0,0E0,1.5938516E0,0E0,0E0,1.0613159E0,4.3832564E-1,0E0,1.5691729E0,0E0,1.3765559E0,2.036583E0,0E0,0E0,0E0,0E0,0E0,0E0,0E0,0E0,0E0,0E0,0E0,0E0,0E0,0E0,0E0,0E0,0E0,0E0,0E0,0E0,0E0,0E0],"parents":[2147483647,0,0,1,1,2,2,4,4,5,5,6,6,7,7,8,8,9,9,10,10,11,11,12,12,15,15,16,16,17,17,18,18,19,19,20,20,21,21,22,22,23,23,24,24,25,25,26,26,29,29,31,31,32,32,35,35,38,38,39,39,41,41,43,43,44,44],"right_children":[2,4,6,-1,8,10,12,14,16,18,20,22,24,-1,-1,26,28,30,32,34,36,38,40,42,44,46,48,-1,-1,50,-1,52,54,-1,-1,56,-1,-1,58,60,-1,62,-1,64,66,-1,-1,-1,-1,-1,-1,-1,-1,-1,-1,-1,-1,-1,-1,-1,-1,-1,-1,-1,-1,-1,-1],"split_conditions":[9.650046E-1,3.7865978E-1,1.5113112E0,4.8070442E-2,1.050475E1,1.8526016E-2,1.9784813E1,1.29361E1,2.1179811E1,1.4388312E1,1.2204423E0,1.9981976E1,2.4987125E1,-1.0809597E-1,1.240594E-1,4.35527E1,2.25945E1,1.158803E0,1.9755E1,2.4903938E1,2.162125E1,1.6104824E1,2.8701434E0,3.9797577E1,2.50428E1,6.706509E-1,1.2772875E1,1.16923764E-1,-1.2389612E-1,1.3608937E1,2.5531846E-1,3.5947365E1,4.36025E1,-1.6107646E-1,4.420309E-2,6.270224E1,-1.4880821E-1,-1.4284307E-1,1.7429547E0,1.6939274E0,1.3358011E-3,1.9662591E0,-1.7106399E-1,1.095294E-1,2.79595E1,5.173697E-2,-1.4439373E-1,-6.979997E-2,-1.4895134E-1,-9.785392E-2,2.2082031E-1,3.4694456E-2,-1.3122725E-1,1.3048387E-1,-5.6406975E-2,1.977375E-1,-5.6504227E-2,1.5372866E-1,-6.52634E-2,2.6976911E-2,2.6642597E-1,2.0584106E-1,-5.8448184E-2,2.3464753E-1,-3.0111795E-2,9.888711E-2,-5.944447E-2],"split_indices":[3,3,3,0,0,4,0,1,0,0,3,1,0,0,0,2,0,3,0,0,0,1,3,2,1,3,0,0,0,0,0,2,0,0,0,2,0,0,3,3,0,3,0,4,0,0,0,0,0,0,0,0,0,0,0,0,0,0,0,0,0,0,0,0,0,0,0],"split_type":[0,0,0,0,0,0,0,0,0,0,0,0,0,0,0,0,0,0,0,0,0,0,0,0,0,0,0,0,0,0,0,0,0,0,0,0,0,0,0,0,0,0,0,0,0,0,0,0,0,0,0,0,0,0,0,0,0,0,0,0,0,0,0,0,0,0,0],"sum_hessian":[3.254305E2,5.283365E1,2.7259683E2,2.0355005E0,5.079815E1,6.226615E1,2.103307E2,3.0230613E0,4.777509E1,3.7419872E1,2.484628E1,1.5348716E1,1.9498198E2,1.753071E0,1.2699904E0,4.378797E1,3.9871166E0,4.866332E0,3.255354E1,1.3014702E1,1.1831576E1,9.660648E0,5.6880674E0,3.2392193E1,1.6258978E2,7.156944E0,3.6631027E1,1.2239535E0,2.763163E0,2.4418082E0,2.4245238E0,1.08765135E1,2.1677025E1,1.0843217E1,2.1714847E0,7.573592E0,4.2579846E0,3.1906807E0,6.4699674E0,4.543125E0,1.1449424E0,8.623126E0,2.3769068E1,9.840386E0,1.527494E2,2.961812E0,4.195132E0,7.7062087E0,2.892482E1,1.0128355E0,1.4289727E0,3.5545592E0,7.3219547E0,1.9210983E1,2.4660428E0,4.421216E0,3.1523764E0,2.2363296E0,4.233638E0,1.1029856E0,3.4401393E0,1.719297E0,6.9038296E0,7.897245E0,1.9431411E0,6.8122215E0,1.4593718E2],"tree_param":{"num_deleted":"0","num_feature":"5","num_nodes":"67","size_leaf_vector":"1"}},{"base_weights":[-1.4583573E-1,-4.445495E-1,-1.1602161E-1,-1.5397198E-1,-9.0257585E-2,-8.6712115E-2,-3.6899352E-1,1.9058916E-1,-1.25985E-1,-9.9494345E-2,2.4789523E-1,-1.4856645E-1,-7.230083E-2,2.826687E-1,-1.1084145E-1,-1.02149844E-1,3.8814935E-1,1.8132246E-1,-3.5314903E-1,-4.9084287E-2,5.027059E-1,-2.5836885E-1,-6.852735E-2,1.7763203E-1,1.6088052E-1,3.3034626E-2,-1.3756688E-1,7.519999E-2,-1.1065688E-1,5.956248E-2,1.8788923E-1,-2.3540596E-3,-1.6062823E-1,8.3273895E-2,-2.9177926E-2,-1.187972E-1,1.6600612E-1],"categories":[],"categories_nodes":[],"categories_segments":[],"categories_sizes":[],"default_left":[0,0,0,0,0,0,0,0,0,0,0,0,0,0,0,0,0,0,0,0,0,0,0,0,0,0,0,0,0,0,0,0,0,0,0,0,0],"id":21,"left_children":[1,3,5,-1,7,9,11,-1,-1,13,15,-1,17,19,21,-1,23,-1,25,27,29,31,33,-1,35,-1,-1,-1,-1,-1,-1,-1,-1,-1,-1,-1,-1],"loss_changes":[2.454064E0,5.664487E-1,1.8747649E0,0E0,1.5351737E0,1.0159618E0,9.5270014E-1,0E0,0E0,1.0025139E0,8.595789E-1,0E0,1.9332134E0,5.1665556E-1,1.3445213E0,0E0,2.563367E-1,0E0,3.935882E-1,4.373938E-1,3.132415E-2,3.346746E0,1.7269106E0,0E0,1.3033024E0,0E0,0E0,0E0,0E0,0E0,0E0,0E0,0E0,0E0,0E0,0E0,0E0],"parents":[2147483647,0,0,1,1,2,2,4,4,5,5,6,6,9,9,10,10,12,12,13,13,14,14,16,16,18,18,19,19,20,20,21,21,22,22,24,24],"right_children":[2,4,6,-1,8,10,12,-1,-1,14,16,-1,18,20,22,-1,24,-1,26,28,30,32,34,-1,36,-1,-1,-1,-1,-1,-1,-1,-1,-1,-1,-1,-1],"split_conditions":[1.4696517E1,1.5401313E1,6.88012E1,-1.5397198E-1,1.5407812E1,7.404385E1,3.1851754E0,1.9058916E-1,-1.25985E-1,1.3260104E1,3.231774E1,-1.4856645E-1,3.57377E1,-3.9704822E-2,1.4915432E0,-1.02149844E-1,8.122713E1,1.8132246E-1,6.981964E1,3.972369E1,1.52927E1,1.0558184E0,1.6143602E0,1.7763203E-1,-3.9704822E-2,3.3034626E-2,-1.3756688E-1,7.519999E-2,-1.1065688E-1,5.956248E-2,1.8788923E-1,-2.3540596E-3,-1.6062823E-1,8.3273895E-2,-2.9177926E-2,-1.187972E-1,1.6600612E-1],"split_indices":[1,0,2,0,0,1,3,0,0,0,2,0,1,4,3,0,0,0,2,2,1,3,3,0,4,0,0,0,0,0,0,0,0,0,0,0,0],"split_type":[0,0,0,0,0,0,0,0,0,0,0,0,0,0,0,0,0,0,0,0,0,0,0,0,0,0,0,0,0,0,0,0,0,0,0,0,0],"sum_hessian":[2.803465E2,2.4179222E1,2.5616727E2,1.9876848E1,4.302376E0,2.3077257E2,2.5394688E1,1.0545924E0,3.2477832E0,2.2295807E2,7.814495E0,1.7345781E1,8.048906E0,5.7396445E0,2.1721843E2,1.2293572E0,6.585138E0,2.022815E0,6.0260916E0,2.5986109E0,3.1410334E0,4.7278114E1,1.699403E2,2.6245124E0,3.9606256E0,1.1086984E0,4.917393E0,1.452841E0,1.1457698E0,1.6606162E0,1.4804173E0,2.536809E1,2.1910027E1,1.2362486E1,1.5757784E2,1.6336769E0,2.3269486E0],"tree_param":{"num_deleted":"0","num_feature":"5","num_nodes":"37","size_leaf_vector":"1"}},{"base_weights":[1.664137E-1,3.4726235E-1,1.3270816E-1,1.3552563E-1,4.0501946E-1,1.1632359E-1,4.4727805E-1,-1.2764628E-1,2.1332973E-1,2.896268E-1,4.81949E-1,1.408992E-1,-1.7836059E-2,4.9369827E-1,-4.8818745E-2,2.675456E-1,-6.412232E-2,1.5813337E-1,4.2312008E-1,2.4622212E-1,5.1305443E-1,9.241619E-2,2.460698E-1,-9.4265416E-2,2.7642515E-1,2.968351E-1,1.7568463E-1,1.5169919E-1,1.4639086E-1,2.7733326E-1,-1.7643467E-1,1.6912228E-1,1.5329196E-1,1.1668836E-1,-5.2792992E-2,1.6223349E-1,2.1893273E-1,4.4654533E-1,7.552488E-2,1.9441882E-1,2.0678782E-1,-2.548104E-1,9.748343E-2,4.0370256E-1,-1.0791307E-1,1.4693949E-1,-5.728951E-2,-7.810493E-2,8.418791E-2,1.1043529E-1,-5.7472344E-2,1.3072419E-1,-4.7665063E-2,-3.4160264E-2,1.14590205E-1,1.6103852E-1,-1.3811741E-2,9.608975E-3,7.41378E-2,7.781127E-2,-5.4459833E-2,-9.394554E-3,-1.1960487E-1,1.0335272E-1,-3.5550546E-2,-2.5500132E-2,1.5747723E-1],"categories":[],"categories_nodes":[],"categories_segments":[],"categories_sizes":[],"default_left":[0,0,0,0,0,0,0,0,0,0,0,0,0,0,0,0,0,0,0,0,0,0,0,0,0,0,0,0,0,0,0,0,0,0,0,0,0,0,0,0,0,0,0,0,0,0,0,0,0,0,0,0,0,0,0,0,0,0,0,0,0,0,0,0,0,0,0],"id":22,"left_children":[1,3,5,7,9,11,13,-1,15,17,19,21,23,25,-1,27,-1,29,31,33,35,37,39,41,43,45,-1,47,-1,49,-1,51,-1,-1,-1,-1,53,55,57,-1,59,61,63,65,-1,-1,-1,-1,-1,-1,-1,-1,-1,-1,-1,-1,-1,-1,-1,-1,-1,-1,-1,-1,-1,-1,-1],"loss_changes":[2.722602E0,8.101616E-1,1.9295897E0,8.1808674E-1,3.4930515E-1,1.2118464E0,6.0937166E-1,0E0,4.1142893E-1,3.637724E-1,1.0492182E-1,1.5585423E0,1.3231761E0,1.4481354E-1,0E0,2.8398323E-1,0E0,1.4046218E0,1.7194843E-1,4.0588042E-1,1.01267815E-1,1.2455574E0,1.40169E0,1.4572062E0,1.1286056E0,8.119979E-1,0E0,6.3836956E-1,0E0,6.117617E-1,0E0,4.6017903E-1,0E0,0E0,0E0,0E0,2.6056558E-1,4.4851005E-1,1.5246454E0,0E0,1.8860793E0,8.1073904E-1,1.2107275E0,6.7210186E-1,0E0,0E0,0E0,0E0,0E0,0E0,0E0,0E0,0E0,0E0,0E0,0E0,0E0,0E0,0E0,0E0,0E0,0E0,0E0,0E0,0E0,0E0,0E0],"parents":[2147483647,0,0,1,1,2,2,3,3,4,4,5,5,6,6,8,8,9,9,10,10,11,11,12,12,13,13,15,15,17,17,18,18,19,19,20,20,21,21,22,22,23,23,24,24,25,25,27,27,29,29,31,31,36,36,37,37,38,38,40,40,41,41,42,42,43,43],"right_children":[2,4,6,8,10,12,14,-1,16,18,20,22,24,26,-1,28,-1,30,32,34,36,38,40,42,44,46,-1,48,-1,50,-1,52,-1,-1,-1,-1,54,56,58,-1,60,62,64,66,-1,-1,-1,-1,-1,-1,-1,-1,-1,-1,-1,-1,-1,-1,-1,-1,-1,-1,-1,-1,-1,-1,-1],"split_conditions":[9.167177E-1,-3.353624E-2,7.380562E1,1.2348E1,6.290293E-1,4.4244018E0,1.5234217E-1,-1.2764628E-1,-3.6414836E-2,1.5240659E1,-9.917818E-3,3.79775E1,6.9114E1,2.50428E1,-4.8818745E-2,-5.382042E-2,-6.412232E-2,1.5067734E1,4.6262464E-1,-1.3683105E-2,1.8990313E1,3.053607E1,-1.0009212E-1,5.2320676E0,7.551655E1,2.2754E1,1.7568463E-1,5.4812783E-1,1.4639086E-1,5.953391E-1,-1.7643467E-1,4.3191648E-1,1.5329196E-1,1.1668836E-1,-5.2792992E-2,1.6223349E-1,2.55565E1,3.149375E1,9.343583E-2,1.9441882E-1,3.854222E0,4.68989E1,-1.037838E-1,-1.7247222E-1,-1.0791307E-1,1.4693949E-1,-5.728951E-2,-7.810493E-2,8.418791E-2,1.1043529E-1,-5.7472344E-2,1.3072419E-1,-4.7665063E-2,-3.4160264E-2,1.14590205E-1,1.6103852E-1,-1.3811741E-2,9.608975E-3,7.41378E-2,7.781127E-2,-5.4459833E-2,-9.394554E-3,-1.1960487E-1,1.0335272E-1,-3.5550546E-2,-2.5500132E-2,1.5747723E-1],"split_indices":[3,4,2,0,3,3,4,0,4,1,4,0,0,1,0,4,0,1,3,4,0,2,4,3,1,0,0,3,0,3,0,3,0,0,0,0,0,0,4,0,3,1,4,4,0,0,0,0,0,0,0,0,0,0,0,0,0,0,0,0,0,0,0,0,0,0,0],"split_type":[0,0,0,0,0,0,0,0,0,0,0,0,0,0,0,0,0,0,0,0,0,0,0,0,0,0,0,0,0,0,0,0,0,0,0,0,0,0,0,0,0,0,0,0,0,0,0,0,0,0,0,0,0,0,0,0,0,0,0,0,0,0,0,0,0,0,0],"sum_hessian":[4.5321072E2,6.9736E1,3.8347473E2,1.5662819E1,5.407318E1,3.65792E2,1.7682722E1,1.363376E0,1.4299443E1,2.3535404E1,3.0537777E1,3.0911713E2,5.6674866E1,1.6609447E1,1.073274E0,1.3020098E1,1.2793446E0,1.2957045E1,1.057836E1,4.599211E0,2.5938566E1,2.1286595E2,9.625118E1,4.5529106E1,1.114576E1,6.6328793E0,9.976568E0,9.641243E0,3.3788552E0,1.1714265E1,1.2427806E0,3.4702759E0,7.108084E0,3.495993E0,1.103218E0,2.2937828E1,3.000738E0,8.533031E0,2.0433292E2,7.188618E0,8.906257E1,2.4601885E1,2.0927221E1,9.591986E0,1.5537736E0,4.7498465E0,1.8830332E0,2.054796E0,7.5864472E0,9.994244E0,1.7200204E0,1.7330573E0,1.7372185E0,1.0858276E0,1.9149102E0,7.135869E0,1.3971629E0,1.6396109E2,4.037183E1,7.873325E1,1.0329317E1,1.0111727E1,1.4490157E1,9.484545E0,1.1442677E1,1.965778E0,7.626208E0],"tree_param":{"num_deleted":"0","num_feature":"5","num_nodes":"67","size_leaf_vector":"1"}},{"base_weights":[-1.1363605E-1,-2.798146E-1,-6.808764E-2,8.703674E-2,-3.5340953E-1,2.5560758E-1,-1.00438476E-1,6.123546E-1,-3.760415E-1,-1.8581684E-1,-4.59848E-1,-5.465534E-3,6.411648E-1,3.9858782E-1,-1.2715213E-1,7.2897726E-1,1.7584004E-2,-1.4400846E-1,2.070302E-2,-2.4382754E-1,1.3964799E-1,-2.4157132E-1,-1.5710196E-1,2.010871E-1,-2.4259089E-1,2.5890198E-1,2.466392E-1,5.5829704E-1,-1.10840484E-1,-2.9341918E-1,-7.719471E-2,7.7884145E-2,2.503231E-1,1.149529E-1,-4.152946E-1,-5.7365462E-2,-1.31969E-1,-1.9356918E-1,3.8443992E-1,5.8500133E-2,-3.5146677E-1,5.189401E-1,-9.718535E-2,7.0442355E-1,-9.101354E-2,1.3906302E-1,-4.4297436E-1,4.2396834E-1,-1.1795507E-1,8.66187E-2,-1.03288166E-1,1.22201545E-2,-1.5333714E-1,-8.146134E-2,1.2636407E-1,1.6100792E-2,-1.0739468E-1,2.0215543E-1,-5.157163E-3,1.7665204E-2,-1.3802251E-1,4.851039E-2,1.8036701E-1,1.0920719E-1,2.711939E-1,1.7861825E-1,-3.949071E-2,-1.5561852E-1,6.300772E-4,-4.4555806E-2,1.6817167E-1,1.4257155E-1,-4.1628607E-2],"categories":[],"categories_nodes":[],"categories_segments":[],"categories_sizes":[],"default_left":[0,0,0,0,0,0,0,0,0,0,0,0,0,0,0,0,0,0,0,0,0,0,0,0,0,0,0,0,0,0,0,0,0,0,0,0,0,0,0,0,0,0,0,0,0,0,0,0,0,0,0,0,0,0,0,0,0,0,0,0,0,0,0,0,0,0,0,0,0,0,0,0,0],"id":23,"left_children":[1,3,5,7,9,11,13,15,17,19,21,23,25,27,29,31,-1,-1,-1,33,-1,35,-1,37,39,-1,41,43,-1,45,47,-1,-1,49,51,53,-1,55,57,-1,59,61,-1,63,-1,65,67,69,71,-1,-1,-1,-1,-1,-1,-1,-1,-1,-1,-1,-1,-1,-1,-1,-1,-1,-1,-1,-1,-1,-1,-1,-1],"loss_changes":[2.2827182E0,1.7883139E0,2.5389044E0,3.0715384E0,8.852892E-1,2.226932E0,2.9689417E0,3.35227E-1,3.490851E-1,9.7552764E-1,3.2771254E-1,7.4242675E-1,5.6843114E-1,1.6003743E0,1.7095883E0,1.8288136E-2,0E0,0E0,0E0,1.3768935E0,0E0,3.1206465E-1,0E0,6.6168404E-1,4.042467E-1,0E0,8.8484657E-1,1.4485245E0,0E0,3.1550035E0,3.3535495E0,0E0,0E0,7.1948856E-1,6.691544E-1,7.228841E-1,0E0,1.5089795E-1,6.9461524E-1,0E0,2.9446483E-1,5.871594E-3,0E0,2.6095486E-1,0E0,1.6904309E0,1.2073264E0,1.0515213E0,1.9215024E0,0E0,0E0,0E0,0E0,0E0,0E0,0E0,0E0,0E0,0E0,0E0,0E0,0E0,0E0,0E0,0E0,0E0,0E0,0E0,0E0,0E0,0E0,0E0,0E0],"parents":[2147483647,0,0,1,1,2,2,3,3,4,4,5,5,6,6,7,7,8,8,9,9,10,10,11,11,12,12,13,13,14,14,15,15,19,19,21,21,23,23,24,24,26,26,27,27,29,29,30,30,33,33,34,34,35,35,37,37,38,38,40,40,41,41,43,43,45,45,46,46,47,47,48,48],"right_children":[2,4,6,8,10,12,14,16,18,20,22,24,26,28,30,32,-1,-1,-1,34,-1,36,-1,38,40,-1,42,44,-1,46,48,-1,-1,50,52,54,-1,56,58,-1,60,62,-1,64,-1,66,68,70,72,-1,-1,-1,-1,-1,-1,-1,-1,-1,-1,-1,-1,-1,-1,-1,-1,-1,-1,-1,-1,-1,-1,-1,-1],"split_conditions":[1.87223E1,3.7469246E1,1.9894312E1,1.5249125E1,1.449775E1,1.9981976E1,1.962425E1,1.4696517E1,2.5335332E-2,1.5398225E1,-3.353624E-2,1.1888329E-2,6.1450973E-2,2.165646E0,2.656475E1,1.1652312E1,1.7584004E-2,-1.4400846E-1,2.070302E-2,6.290293E-1,1.3964799E-1,1.5910438E1,-1.5710196E-1,6.157122E1,1.2875822E0,2.5890198E-1,1.9436196E0,7.7789076E-2,-1.10840484E-1,3.9797577E1,2.50428E1,7.7884145E-2,2.503231E-1,6.960919E1,1.050475E1,1.5407812E1,-1.31969E-1,5.625E1,6.369611E1,5.8500133E-2,6.270224E1,1.0207939E-1,-9.718535E-2,2.1987062E1,-9.101354E-2,1.9662591E0,2.61814E1,2.17183E1,1.2875822E0,8.66187E-2,-1.03288166E-1,1.22201545E-2,-1.5333714E-1,-8.146134E-2,1.2636407E-1,1.6100792E-2,-1.0739468E-1,2.0215543E-1,-5.157163E-3,1.7665204E-2,-1.3802251E-1,4.851039E-2,1.8036701E-1,1.0920719E-1,2.711939E-1,1.7861825E-1,-3.949071E-2,-1.5561852E-1,6.300772E-4,-4.4555806E-2,1.6817167E-1,1.4257155E-1,-4.1628607E-2],"split_indices":[1,2,0,0,0,1,1,1,4,1,4,4,4,3,0,0,