{"learner":{"attributes":{"scikit_learn":"{\"_estimator_type\": \"classifier\"}"},"feature_names":["SMA_1","SMA_2","RSI","Volatility","Daily_Return"],"feature_types":["float","float","float","float","float"],"gradient_booster":{"model":{"gbtree_model_param":{"num_parallel_tree":"1","num_trees":"300"},"iteration_indptr":[0,3,6,9,12,15,18,21,24,27,30,33,36,39,42,45,48,51,54,57,60,63,66,69,72,75,78,81,84,87,90,93,96,99,102,105,108,111,114,117,120,123,126,129,132,135,138,141,144,147,150,153,156,159,162,165,168,171,174,177,180,183,186,189,192,195,198,201,204,207,210,213,216,219,222,225,228,231,234,237,240,243,246,249,252,255,258,261,264,267,270,273,276,279,282,285,288,291,294,297,300],"tree_info":[0,1,2,0,1,2,0,1,2,0,1,2,0,1,2,0,1,2,0,1,2,0,1,2,0,1,2,0,1,2,0,1,2,0,1,2,0,1,2,0,1,2,0,1,2,0,1,2,0,1,2,0,1,2,0,1,2,0,1,2,0,1,2,0,1,2,0,1,2,0,1,2,0,1,2,0,1,2,0,1,2,0,1,2,0,1,2,0,1,2,0,1,2,0,1,2,0,1,2,0,1,2,0,1,2,0,1,2,0,1,2,0,1,2,0,1,2,0,1,2,0,1,2,0,1,2,0,1,2,0,1,2,0,1,2,0,1,2,0,1,2,0,1,2,0,1,2,0,1,2,0,1,2,0,1,2,0,1,2,0,1,2,0,1,2,0,1,2,0,1,2,0,1,2,0,1,2,0,1,2,0,1,2,0,1,2,0,1,2,0,1,2,0,1,2,0,1,2,0,1,2,0,1,2,0,1,2,0,1,2,0,1,2,0,1,2,0,1,2,0,1,2,0,1,2,0,1,2,0,1,2,0,1,2,0,1,2,0,1,2,0,1,2,0,1,2,0,1,2,0,1,2,0,1,2,0,1,2,0,1,2,0,1,2,0,1,2,0,1,2,0,1,2,0,1,2,0,1,2,0,1,2,0,1,2,0,1,2,0,1,2,0,1,2,0,1,2,0,1,2],"trees":[{"base_weights":[-3.6558077E-1,-4.9163103E-1,-1.4168383E-1,-2.0408168E-1,-5.4890037E-1,2.2429903E-1,-2.4281989E-1,5.121951E-1,-2.713937E-1,-3.9069772E-1,-6.13591E-1,5.1502144E-1,-4.9484542E-1,-3.041475E-1,6.986301E-1,3.1034475E-2,2.5714284E-1,-3.5734078E-1,3.1578943E-1,-4.8979598E-1,-1.6901413E-1,-6.2390286E-1,3.1034475E-2,-4.7368425E-1,7.945946E-1,-1.9384618E-1,-1.463415E-1,-3.7614685E-1,3.451327E-1,-8.1081115E-2,3.5999998E-1,-1.01694964E-1,-5.7512957E-1,2.8800002E-1,-1.463415E-1,1.6216213E-1,-5.375303E-1,5.9999996E-1,-3.5593227E-1,-6.705883E-1,-4.7532472E-1,-1.8E-1,-7.663455E-9,1.8461534E-1,1.0465117E0,-1.5517244E-1,1.2857142E-1,2.1897769E-2,-4.361079E-1,6.986301E-1,-2.44898E-1,-1.2857145E-1,7.2E-2,-8.456378E-2,1.9459459E-1,-2.0930235E-1,-8.630139E-2,-1.5517244E-1,1.2857142E-1,-1.2857145E-1,1.7999999E-1,-3.333335E-2,-1.8739006E-1,3.1034475E-2,2.8800002E-1,-1.2857145E-1,7.2E-2,-1.5600002E-1,-2.1057372E-1,2.9032247E-2,-1.9136216E-1,2.4545455E-1,-1.0975611E-1,3.4615386E-1,-7.663455E-9,1.16129026E-1,-1.8679248E-1,-1.5104024E-1,-1.914895E-2,-1.2857145E-1,2.9508197E-1,7.2E-2,-1.6363637E-1],"categories":[],"categories_nodes":[],"categories_segments":[],"categories_sizes":[],"default_left":[1,0,0,0,1,0,0,0,1,1,0,0,0,0,0,0,0,0,0,0,0,1,0,0,0,0,0,0,0,0,0,1,0,0,0,0,0,0,0,0,0,0,0,0,0,0,0,0,0,0,0,0,0,0,0,0,0,0,0,0,0,0,0,0,0,0,0,0,0,0,0,0,0,0,0,0,0,0,0,0,0,0,0],"id":0,"left_children":[1,3,5,7,9,11,13,15,17,19,21,23,25,27,29,-1,-1,31,33,35,37,39,-1,41,43,-1,45,47,49,51,-1,53,55,-1,57,59,61,63,65,67,69,-1,-1,71,73,-1,-1,75,77,79,81,-1,-1,-1,-1,-1,-1,-1,-1,-1,-1,-1,-1,-1,-1,-1,-1,-1,-1,-1,-1,-1,-1,-1,-1,-1,-1,-1,-1,-1,-1,-1,-1],"loss_changes":[1.2539421E1,4.5886154E0,6.063081E0,2.5014935E0,2.1903305E0,7.7117357E0,7.583563E0,5.5364656E-1,2.406275E0,1.4916239E0,1.297699E0,7.5324793E0,4.7377038E-1,5.76552E0,3.2681227E0,0E0,0E0,2.1747704E0,2.025982E0,1.6120872E0,3.6154687E0,8.226776E-1,0E0,3.7894738E-1,2.9654493E0,0E0,1.1930795E0,2.6110725E0,2.7898598E0,5.6154436E-1,0E0,2.841776E0,5.547128E-1,0E0,1.1930795E0,1.3204634E0,1.6350222E0,7.944828E-1,9.5418906E-1,2.1415329E-1,4.039812E0,0E0,0E0,2.8181477E0,1.6100178E0,0E0,0E0,3.824107E0,2.3445568E0,3.0270443E0,9.243785E-1,0E0,0E0,0E0,0E0,0E0,0E0,0E0,0E0,0E0,0E0,0E0,0E0,0E0,0E0,0E0,0E0,0E0,0E0,0E0,0E0,0E0,0E0,0E0,0E0,0E0,0E0,0E0,0E0,0E0,0E0,0E0,0E0],"parents":[2147483647,0,0,1,1,2,2,3,3,4,4,5,5,6,6,7,7,8,8,9,9,10,10,11,11,12,12,13,13,14,14,17,17,18,18,19,19,20,20,21,21,23,23,24,24,26,26,27,27,28,28,29,29,31,31,32,32,34,34,35,35,36,36,37,37,38,38,39,39,40,40,43,43,44,44,47,47,48,48,49,49,50,50],"right_children":[2,4,6,8,10,12,14,16,18,20,22,24,26,28,30,-1,-1,32,34,36,38,40,-1,42,44,-1,46,48,50,52,-1,54,56,-1,58,60,62,64,66,68,70,-1,-1,72,74,-1,-1,76,78,80,82,-1,-1,-1,-1,-1,-1,-1,-1,-1,-1,-1,-1,-1,-1,-1,-1,-1,-1,-1,-1,-1,-1,-1,-1,-1,-1,-1,-1,-1,-1,-1,-1],"split_conditions":[2.348096E0,-5.40953E-2,3.1402573E1,5.279345E-1,5.18813E1,3.4358E1,7.170968E1,1.545756E1,2.974436E1,1.506327E1,6.354718E1,2.245429E1,7.675906E-2,5.8804703E0,-1.239344E-1,3.1034475E-2,2.5714284E-1,9.278124E-1,3.0496252E1,1.283842E1,9.498119E-1,1.9144241E1,3.1034475E-2,3.7777805E1,-1.1043291E-1,-1.9384618E-1,2.6571117E1,2.5696847E0,5.1013035E1,7.5526E1,3.5999998E-1,1.4979429E1,1.5041323E0,2.8800002E-1,-8.417534E-2,1.4805905E1,1.2657025E1,1.620882E1,5.069395E1,5.6490684E-1,2.3871687E1,-1.8E-1,-7.663455E-9,3.1491247E1,7.645855E1,-1.5517244E-1,1.2857142E-1,4.6721573E1,6.797969E1,-2.0152952E-1,4.1528173E-2,-1.2857145E-1,7.2E-2,-8.456378E-2,1.9459459E-1,-2.0930235E-1,-8.630139E-2,-1.5517244E-1,1.2857142E-1,-1.2857145E-1,1.7999999E-1,-3.333335E-2,-1.8739006E-1,3.1034475E-2,2.8800002E-1,-1.2857145E-1,7.2E-2,-1.5600002E-1,-2.1057372E-1,2.9032247E-2,-1.9136216E-1,2.4545455E-1,-1.0975611E-1,3.4615386E-1,-7.663455E-9,1.16129026E-1,-1.8679248E-1,-1.5104024E-1,-1.914895E-2,-1.2857145E-1,2.9508197E-1,7.2E-2,-1.6363637E-1],"split_indices":[3,4,0,3,2,1,1,0,0,1,0,0,4,3,4,0,0,3,0,1,3,1,0,2,4,0,0,3,0,0,0,1,3,0,4,0,0,0,2,3,0,0,0,2,2,0,0,0,1,4,4,0,0,0,0,0,0,0,0,0,0,0,0,0,0,0,0,0,0,0,0,0,0,0,0,0,0,0,0,0,0,0,0],"split_type":[0,0,0,0,0,0,0,0,0,0,0,0,0,0,0,0,0,0,0,0,0,0,0,0,0,0,0,0,0,0,0,0,0,0,0,0,0,0,0,0,0,0,0,0,0,0,0,0,0,0,0,0,0,0,0,0,0,0,0,0,0,0,0,0,0,0,0,0,0,0,0,0,0,0,0,0,0,0,0,0,0,0,0],"sum_hessian":[4.4577774E2,2.8444443E2,1.6133333E2,4.7999996E1,2.3644443E2,3.4666664E1,1.2666666E2,3.5555553E0,4.4444443E1,7.0666664E1,1.6577777E2,2.4888887E1,9.777777E0,1.1955555E2,7.1111107E0,2.222222E0,1.3333333E0,3.9111107E1,5.333333E0,4.7999996E1,2.2666666E1,1.6355554E2,2.222222E0,5.333333E0,1.9555553E1,6.222222E0,3.5555553E0,1.0799999E2,1.1555555E1,3.111111E0,3.9999998E0,1.8666666E1,2.0444443E1,1.7777777E0,3.5555553E0,3.111111E0,4.4888885E1,3.9999998E0,1.8666666E1,1.2177777E2,4.1777775E1,3.9999998E0,1.3333333E0,6.222222E0,1.3333332E1,2.222222E0,1.3333333E0,1.4222221E1,9.377777E1,7.1111107E0,4.444444E0,1.3333333E0,1.7777777E0,1.5555554E1,3.111111E0,1.3333332E1,7.1111107E0,2.222222E0,1.3333333E0,1.3333333E0,1.7777777E0,7.9999995E0,3.6888885E1,2.222222E0,1.7777777E0,1.6888887E1,1.7777777E0,2.3999998E1,9.777777E1,9.333333E0,3.2444443E1,2.6666665E0,3.5555553E0,1.1999999E1,1.3333333E0,9.333333E0,4.8888884E0,7.911111E1,1.4666666E1,1.3333333E0,5.7777777E0,1.7777777E0,2.6666665E0],"tree_param":{"num_deleted":"0","num_feature":"5","num_nodes":"83","size_leaf_vector":"1"}},{"base_weights":[6.953494E-1,4.110236E-1,9.472941E-1,4.8932037E-1,7.317069E-2,1.4457828E-1,1.0488063E0,8.171206E-1,4.2097145E-1,-4.559275E-2,8.5714287E-1,5.9999996E-1,-8.6705245E-2,1.314741E0,8.6503065E-1,9.9512196E-1,9.836062E-2,3.137673E-1,6.8292683E-1,9.8901056E-2,-1.9384618E-1,3.4054056E-1,-7.663455E-9,-1.2857145E-1,8.219178E-1,5.4098356E-1,-3.9669427E-1,7.35849E-1,1.3413258E0,4.792332E-1,1E0,1.6216213E-1,1.118644E0,-2.44898E-1,2.5714284E-1,2.2864649E-1,6.486486E-1,8.871595E-1,1.9834708E-1,-1.7751484E-1,5.0442475E-1,7.2E-2,2.8421053E-1,-8.1081115E-2,3.2727274E-1,-1.956522E-1,-4.9180366E-2,-7.663455E-9,2.8536585E-1,1.3515065E0,1.2857142E-1,7.7720207E-1,-4.1584638E-8,1.0231425E0,-3.600001E-2,-1.2857145E-1,1.7999999E-1,1.2E-1,3.8297874E-1,-1.4400001E-1,-9.753488E-9,8.48821E-2,-1.836735E-1,2.8800002E-1,-1.1661779E-8,1.839416E-1,3.3488372E-1,2.8800002E-1,-1.2261528E-8,-1.321101E-1,7.826086E-2,3.3157894E-1,-2.769232E-2,1.2857142E-1,-1.4400001E-1,1.7999999E-1,-1.2000001E-1,1.2857142E-1,4.0861315E-1,6.666666E-2,3.2727274E-1,1.4693877E-1,-8.0898896E-2,2.3865816E-1,3.4294003E-1],"categories":[],"categories_nodes":[],"categories_segments":[],"categories_sizes":[],"default_left":[0,0,0,0,0,1,0,0,0,0,0,0,0,0,0,0,0,0,0,0,0,0,0,0,0,0,0,0,0,0,1,0,0,0,0,0,0,0,0,0,0,0,0,0,0,0,0,0,0,0,0,0,0,0,0,0,0,0,0,0,0,0,0,0,0,0,0,0,0,0,0,0,0,0,0,0,0,0,0,0,0,0,0,0,0],"id":1,"left_children":[1,3,5,7,9,11,13,15,17,19,21,23,25,27,29,31,33,35,37,39,-1,-1,-1,-1,41,43,45,47,49,51,53,55,57,59,-1,61,63,65,67,69,71,-1,-1,73,-1,-1,75,-1,-1,77,-1,79,81,83,-1,-1,-1,-1,-1,-1,-1,-1,-1,-1,-1,-1,-1,-1,-1,-1,-1,-1,-1,-1,-1,-1,-1,-1,-1,-1,-1,-1,-1,-1,-1],"loss_changes":[3.161528E1,5.5633698E0,1.9087997E1,3.5021706E0,3.8564758E0,2.9661953E0,9.098724E0,3.5555248E0,3.8327503E0,3.2361E0,1.2972972E0,2.508024E0,3.9548001E0,3.006134E-1,6.1222076E0,2.16218E0,1.9752426E0,2.819415E0,3.8816795E0,3.489703E0,0E0,0E0,0E0,0E0,3.647585E-1,2.4070568E0,1.1615605E0,9.3327165E-1,1.5280151E-1,4.966148E0,2.5332947E0,1.3204634E0,1.7217445E0,3.1346935E-1,0E0,4.0336313E0,4.151352E0,1.108387E0,2.0310743E0,2.278647E0,4.60369E0,0E0,0E0,1.0415444E0,0E0,0E0,1.7836065E0,0E0,0E0,1.6944885E-1,0E0,3.4910755E0,2.0252237E0,1.5820389E0,0E0,0E0,0E0,0E0,0E0,0E0,0E0,0E0,0E0,0E0,0E0,0E0,0E0,0E0,0E0,0E0,0E0,0E0,0E0,0E0,0E0,0E0,0E0,0E0,0E0,0E0,0E0,0E0,0E0,0E0,0E0],"parents":[2147483647,0,0,1,1,2,2,3,3,4,4,5,5,6,6,7,7,8,8,9,9,10,10,11,11,12,12,13,13,14,14,15,15,16,16,17,17,18,18,19,19,24,24,25,25,26,26,27,27,28,28,29,29,30,30,31,31,32,32,33,33,35,35,36,36,37,37,38,38,39,39,40,40,43,43,46,46,49,49,51,51,52,52,53,53],"right_children":[2,4,6,8,10,12,14,16,18,20,22,24,26,28,30,32,34,36,38,40,-1,-1,-1,-1,42,44,46,48,50,52,54,56,58,60,-1,62,64,66,68,70,72,-1,-1,74,-1,-1,76,-1,-1,78,-1,80,82,84,-1,-1,-1,-1,-1,-1,-1,-1,-1,-1,-1,-1,-1,-1,-1,-1,-1,-1,-1,-1,-1,-1,-1,-1,-1,-1,-1,-1,-1,-1,-1],"split_conditions":[5.3718433E1,4.25542E0,-3.4204427E-2,7.0142764E-1,4.4498287E-2,1.814201E1,1.8025488E1,1.5123211E1,4.572496E1,5.2044354E-3,4.0484444E1,-7.240483E-2,-9.954025E-2,-1.7723994E-2,2.4747484E1,4.7487104E-1,6.457487E-1,7.95579E-2,3.5130033E0,5.3935005E1,-1.9384618E-1,3.4054056E-1,-7.663455E-9,-1.2857145E-1,1.3452193E1,3.1402573E1,3.5867462E1,1.23198395E1,2.1884954E1,1.5764279E0,7.082999E1,1.394517E1,4.3428917E1,1.5374356E1,2.5714284E-1,3.3625248E1,4.651646E1,-2.9959992E-2,-1.1125072E-1,5.2969737E0,6.959611E1,7.2E-2,2.8421053E-1,2.0045979E1,3.2727274E-1,-1.956522E-1,4.572496E1,-7.663455E-9,2.8536585E-1,3.6190355E-1,1.2857142E-1,5.8315463E-2,1.9144241E1,3.4986567E-2,-3.600001E-2,-1.2857145E-1,1.7999999E-1,1.2E-1,3.8297874E-1,-1.4400001E-1,-9.753488E-9,8.48821E-2,-1.836735E-1,2.8800002E-1,-1.1661779E-8,1.839416E-1,3.3488372E-1,2.8800002E-1,-1.2261528E-8,-1.321101E-1,7.826086E-2,3.3157894E-1,-2.769232E-2,1.2857142E-1,-1.4400001E-1,1.7999999E-1,-1.2000001E-1,1.2857142E-1,4.0861315E-1,6.666666E-2,3.2727274E-1,1.4693877E-1,-8.0898896E-2,2.3865816E-1,3.4294003E-1],"split_indices":[2,3,4,3,4,1,1,1,0,4,2,4,4,4,1,3,3,4,3,0,0,0,0,0,1,0,0,1,0,3,0,1,2,1,0,0,2,4,4,3,1,0,0,0,0,0,0,0,0,3,0,4,1,4,0,0,0,0,0,0,0,0,0,0,0,0,0,0,0,0,0,0,0,0,0,0,0,0,0,0,0,0,0,0,0],"split_type":[0,0,0,0,0,0,0,0,0,0,0,0,0,0,0,0,0,0,0,0,0,0,0,0,0,0,0,0,0,0,0,0,0,0,0,0,0,0,0,0,0,0,0,0,0,0,0,0,0,0,0,0,0,0,0,0,0,0,0,0,0,0,0,0,0,0,0,0,0,0,0,0,0,0,0,0,0,0,0,0,0,0,0,0,0],"sum_hessian":[4.4577774E2,2.1066666E2,2.351111E2,1.7066666E2,3.9999996E1,2.6666664E1,2.0844443E2,2.7555553E1,1.431111E2,3.5555553E1,4.444444E0,8.444444E0,1.8222221E1,8.2666664E1,1.2577777E2,2.1777777E1,5.7777777E0,1.0311111E2,3.9999996E1,2.9333332E1,6.222222E0,3.111111E0,1.3333333E0,1.3333333E0,7.1111107E0,5.7777777E0,1.2444444E1,4.8888884E0,7.777777E1,3.3777775E1,9.199999E1,3.111111E0,1.8666666E1,4.444444E0,1.3333333E0,8.355555E1,1.9555553E1,2.7555553E1,1.2444444E1,1.7777777E1,1.1555555E1,1.7777777E0,5.333333E0,3.111111E0,2.6666665E0,6.666666E0,5.7777777E0,1.3333333E0,3.5555553E0,7.644444E1,1.3333333E0,2.0444443E1,1.3333332E1,9.022221E1,1.7777777E0,1.3333333E0,1.7777777E0,3.9999998E0,1.4666666E1,1.7777777E0,2.6666665E0,7.911111E1,4.444444E0,1.2888888E1,6.666666E0,1.4222221E1,1.3333332E1,1.7777777E0,1.0666666E1,1.1111111E1,6.666666E0,5.333333E0,6.222222E0,1.3333333E0,1.7777777E0,1.7777777E0,3.9999998E0,1.3333333E0,7.511111E1,7.9999995E0,1.2444444E1,4.444444E0,8.888888E0,3.3777775E1,5.6444443E1],"tree_param":{"num_deleted":"0","num_feature":"5","num_nodes":"85","size_leaf_vector":"1"}},{"base_weights":[-3.2976878E-1,3.8399957E-2,-3.9647582E-1,7.425742E-1,-9.568485E-2,-1.789687E-1,-4.837114E-1,-2.727273E-1,1.0909091E0,2.5714284E-1,-1.3243766E-1,-5.5954136E-2,-4.584718E-1,-6.336634E-1,-3.9147547E-1,-1.2857145E-1,-7.663455E-9,3.8769233E-1,-7.663455E-9,-4.0000007E-1,6.885242E-2,-4.2424247E-1,2.127139E-1,-5.241636E-1,7.31707E-2,-1.411765E-1,-6.770709E-1,-6.461543E-2,-4.7642687E-1,7.2E-2,-4.593302E-1,1.9245279E-1,-1.836735E-1,2.5714284E-1,-5.052632E-1,-3.4285718E-1,3.9297122E-1,-3.065694E-1,-2.1063831E-1,1.2857142E-1,-6.206898E-2,3.0612242E-1,-1.8E-1,-7.663455E-9,-6.869672E-1,3.471074E-1,-2.957747E-1,1.7999999E-1,-4.9538982E-1,-1.4619291E-1,-7.663455E-9,1.02183394E-1,-1.8E-1,-5.8441572E-2,-1.7834103E-1,1.2857142E-1,-1.4516132E-1,2E-1,-6.76693E-3,5.9999995E-2,-1.5148516E-1,-1.2857145E-1,1.9459459E-1,-3.600001E-2,-2.0906834E-1,2.5714287E-1,-1.192093E-8,-1.525424E-1,1.7999999E-1,-1.6436331E-1,-5.7142872E-2],"categories":[],"categories_nodes":[],"categories_segments":[],"categories_sizes":[],"default_left":[0,0,0,0,0,0,0,0,0,0,0,0,0,0,0,0,0,0,0,0,0,0,0,0,0,0,0,0,0,0,0,0,0,0,0,1,0,0,0,0,0,0,0,0,0,0,0,0,1,0,0,0,0,0,0,0,0,0,0,0,0,0,0,0,0,0,0,0,0,0,0],"id":2,"left_children":[1,3,5,7,9,11,13,15,17,-1,19,21,23,25,27,-1,-1,-1,-1,29,31,33,35,37,39,41,43,45,47,-1,49,51,-1,-1,53,55,57,59,-1,-1,-1,61,-1,-1,63,65,67,-1,69,-1,-1,-1,-1,-1,-1,-1,-1,-1,-1,-1,-1,-1,-1,-1,-1,-1,-1,-1,-1,-1,-1],"loss_changes":[1.0987839E1,6.627933E0,7.09206E0,4.2664256E0,2.187427E0,3.7526507E0,3.4786186E0,1.5584415E-1,1.8797207E0,0E0,3.1453009E0,7.7531605E0,1.2063856E0,2.063549E0,4.6742134E0,0E0,0E0,0E0,0E0,1.0595212E0,2.9707265E0,3.8591032E0,4.6858015E0,9.421654E-1,5.4211223E-1,2.1219687E0,6.201706E-1,3.539488E0,3.0392857E0,0E0,2.9844856E-1,3.661399E0,0E0,0E0,7.612009E-1,1.4764977E0,3.9702458E0,1.6307293E0,0E0,0E0,0E0,1.6480972E0,0E0,0E0,4.2981339E-1,2.3801656E0,4.814323E0,0E0,2.0170898E0,0E0,0E0,0E0,0E0,0E0,0E0,0E0,0E0,0E0,0E0,0E0,0E0,0E0,0E0,0E0,0E0,0E0,0E0,0E0,0E0,0E0,0E0],"parents":[2147483647,0,0,1,1,2,2,3,3,4,4,5,5,6,6,7,7,8,8,10,10,11,11,12,12,13,13,14,14,19,19,20,20,21,21,22,22,23,23,24,24,25,25,26,26,27,27,28,28,30,30,31,31,34,34,35,35,36,36,37,37,41,41,44,44,45,45,46,46,48,48],"right_children":[2,4,6,8,10,12,14,16,18,-1,20,22,24,26,28,-1,-1,-1,-1,30,32,34,36,38,40,42,44,46,48,-1,50,52,-1,-1,54,56,58,60,-1,-1,-1,62,-1,-1,64,66,68,-1,70,-1,-1,-1,-1,-1,-1,-1,-1,-1,-1,-1,-1,-1,-1,-1,-1,-1,-1,-1,-1,-1,-1],"split_conditions":[3.83832E1,1.4666713E1,-2.0577937E-2,9.278124E-1,2.3757084E1,2.6847928E0,1.7985308E1,1.3194848E1,3.751378E1,2.5714284E-1,3.3409138E1,9.4340837E-1,6.543491E1,4.528876E1,2.3415102E1,-1.2857145E-1,-7.663455E-9,3.8769233E-1,-7.663455E-9,-3.3897123E-1,5.2969737E0,1.1327459E1,4.432225E1,4.4004868E1,6.9371925E1,1.4732891E1,3.6190355E-1,6.1886883E1,5.3495055E-1,7.2E-2,6.6358624E0,6.794692E-2,-1.836735E-1,2.5714284E-1,1.3452193E1,1.1470046E1,3.2169975E1,3.2058407E1,-2.1063831E-1,1.2857142E-1,-6.206898E-2,2.3997458E-2,-1.8E-1,-7.663455E-9,-1.7723994E-2,1.7333006E1,7.261027E1,1.7999999E-1,6.167572E1,-1.4619291E-1,-7.663455E-9,1.02183394E-1,-1.8E-1,-5.8441572E-2,-1.7834103E-1,1.2857142E-1,-1.4516132E-1,2E-1,-6.76693E-3,5.9999995E-2,-1.5148516E-1,-1.2857145E-1,1.9459459E-1,-3.600001E-2,-2.0906834E-1,2.5714287E-1,-1.192093E-8,-1.525424E-1,1.7999999E-1,-1.6436331E-1,-5.7142872E-2],"split_indices":[2,0,4,3,2,3,1,0,2,0,2,3,2,2,1,0,0,0,0,4,3,1,2,2,2,1,3,2,3,0,3,4,0,0,1,0,0,0,0,0,0,4,0,0,4,0,2,0,1,0,0,0,0,0,0,0,0,0,0,0,0,0,0,0,0,0,0,0,0,0,0],"split_type":[0,0,0,0,0,0,0,0,0,0,0,0,0,0,0,0,0,0,0,0,0,0,0,0,0,0,0,0,0,0,0,0,0,0,0,0,0,0,0,0,0,0,0,0,0,0,0,0,0,0,0,0,0,0,0,0,0,0,0,0,0,0,0,0,0,0,0,0,0,0,0],"sum_hessian":[4.4577774E2,6.844444E1,3.773333E2,1.0222221E1,5.8222218E1,1.08888885E2,2.6844443E2,2.6666665E0,7.5555553E0,1.3333333E0,5.6888885E1,7.644444E1,3.2444443E1,9.999999E1,1.6844443E2,1.3333333E0,1.3333333E0,6.222222E0,1.3333333E0,2.3999998E1,3.2888885E1,3.1999998E1,4.4444443E1,2.8888887E1,3.5555553E0,8.444444E0,9.155555E1,3.511111E1,1.3333333E2,1.7777777E0,2.2222221E1,2.8444443E1,4.444444E0,1.3333333E0,3.0666664E1,1.0666666E1,3.3777775E1,1.4222221E1,1.4666666E1,1.3333333E0,2.222222E0,4.444444E0,3.9999998E0,1.3333333E0,9.022221E1,1.2444444E1,2.2666666E1,1.7777777E0,1.3155554E2,2.0888887E1,1.3333333E0,2.4444443E1,3.9999998E0,7.5555553E0,2.311111E1,1.3333333E0,9.333333E0,1.9999998E1,1.3777777E1,3.9999998E0,1.0222221E1,1.3333333E0,3.111111E0,1.7777777E0,8.844444E1,4.444444E0,7.9999995E0,1.8666666E1,3.9999998E0,1.1155555E2,1.9999998E1],"tree_param":{"num_deleted":"0","num_feature":"5","num_nodes":"71","size_leaf_vector":"1"}},{"base_weights":[-3.0340236E-1,-4.1863787E-1,-1.1003598E-1,-2.8362942E-1,-5.258543E-1,1.936077E-1,-1.9830538E-1,-4.1420045E-1,-7.5735204E-2,-5.448125E-1,2.5644654E-1,4.2318037E-1,-4.371985E-1,-2.5297588E-1,5.594434E-1,-1.8093611E-1,-5.1950413E-1,5.260089E-1,-2.584551E-1,-5.942357E-1,-3.7899488E-1,-4.2376652E-1,6.366566E-1,-1.7757453E-1,-1.01011634E-1,-3.1870237E-1,2.9676878E-1,-7.584466E-2,2.799627E-1,-4.0196016E-1,5.142499E-1,1.4798328E-1,-5.8769166E-1,6.8015885E-1,-1.1748972E-1,-3.304996E-1,3.3514303E-1,-4.107518E-1,-6.2997454E-1,1.1420228E-1,-4.421594E-1,-1.6715226E-1,1.2608846E-2,1.492712E-1,8.2620436E-1,-1.3778485E-1,1.1809245E-1,1.8161339E-1,-3.4087223E-1,5.6592184E-1,-2.0255335E-1,-1.16587654E-1,5.89709E-2,-1.6186175E-1,1.3109083E-1,3.165012E-1,-1.401871E-2,-6.517383E-2,1.6265388E-1,-6.419887E-2,-1.946381E-1,2.7265474E-1,6.880727E-2,-1.8840362E-1,-6.374309E-2,-1.1942431E-1,2.249241E-1,-1.6998155E-1,-2.4290754E-2,-1.5452571E-1,-2.0226265E-1,-3.429731E-2,-1.8454917E-1,1.2479842E-1,-1.3708104E-1,8.341866E-2,3.0321583E-1,-7.363427E-2,-1.6497219E-1,-6.606265E-2,2.638757E-1,5.7487305E-2,-1.4325525E-1],"categories":[],"categories_nodes":[],"categories_segments":[],"categories_sizes":[],"default_left":[1,1,0,1,0,0,0,0,0,0,0,0,0,0,0,1,0,0,0,0,0,0,0,0,0,0,0,0,0,0,0,0,1,0,0,0,0,1,1,0,0,0,0,0,0,0,0,0,0,0,0,0,0,0,0,0,0,0,0,0,0,0,0,0,0,0,0,0,0,0,0,0,0,0,0,0,0,0,0,0,0,0,0],"id":3,"left_children":[1,3,5,7,9,11,13,15,17,19,-1,21,23,25,27,29,31,33,35,37,39,41,43,-1,45,47,49,51,-1,53,55,57,59,61,-1,63,65,67,69,-1,71,-1,-1,73,75,-1,-1,-1,77,79,81,-1,-1,-1,-1,-1,-1,-1,-1,-1,-1,-1,-1,-1,-1,-1,-1,-1,-1,-1,-1,-1,-1,-1,-1,-1,-1,-1,-1,-1,-1,-1,-1],"loss_changes":[9.207783E0,3.612381E0,4.2311535E0,3.1498556E0,4.226227E0,5.3605433E0,5.182852E0,1.6686811E0,5.2414093E0,9.412384E-1,0E0,5.099183E0,4.617983E-1,4.220684E0,2.0892231E0,3.8718865E0,2.3129015E0,1.8428881E0,1.6626832E0,4.4872284E-1,1.8690162E0,3.9486933E-1,1.8844452E0,0E0,9.545767E-1,2.3058395E0,1.8231174E0,4.2348185E-1,0E0,2.3895433E0,1.9279885E0,8.854193E-1,8.78952E-1,8.12953E-1,0E0,1.0205534E0,1.6434016E0,1.005842E0,1.0211563E-1,0E0,1.81181E0,0E0,0E0,1.3713915E0,1.2792702E0,0E0,0E0,0E0,1.8740778E0,2.295454E0,6.5390086E-1,0E0,0E0,0E0,0E0,0E0,0E0,0E0,0E0,0E0,0E0,0E0,0E0,0E0,0E0,0E0,0E0,0E0,0E0,0E0,0E0,0E0,0E0,0E0,0E0,0E0,0E0,0E0,0E0,0E0,0E0,0E0,0E0],"parents":[2147483647,0,0,1,1,2,2,3,3,4,4,5,5,6,6,7,7,8,8,9,9,11,11,12,12,13,13,14,14,15,15,16,16,17,17,18,18,19,19,20,20,21,21,22,22,24,24,25,25,26,26,27,27,29,29,30,30,31,31,32,32,33,33,35,35,36,36,37,37,38,38,40,40,43,43,44,44,48,48,49,49,50,50],"right_children":[2,4,6,8,10,12,14,16,18,20,-1,22,24,26,28,30,32,34,36,38,40,42,44,-1,46,48,50,52,-1,54,56,58,60,62,-1,64,66,68,70,-1,72,-1,-1,74,76,-1,-1,-1,78,80,82,-1,-1,-1,-1,-1,-1,-1,-1,-1,-1,-1,-1,-1,-1,-1,-1,-1,-1,-1,-1,-1,-1,-1,-1,-1,-1,-1,-1,-1,-1,-1,-1],"split_conditions":[2.348096E0,5.4747604E1,3.1402573E1,1.4979429E1,6.452233E1,3.4358E1,7.170968E1,1.327867E1,9.498119E-1,1.6349365E0,2.5644654E-1,2.020803E1,7.675906E-2,5.8804703E0,-1.239344E-1,1.4171148E1,1.283842E1,5.1529892E1,5.358788E1,5.6490684E-1,-5.9776485E-2,9.3835816E-2,-1.1043291E-1,-1.7757453E-1,2.6571117E1,2.3820074E0,5.1013035E1,7.5526E1,2.799627E-1,1.2990363E1,1.2186153E1,1.4805905E1,3.9351797E-1,-2.564096E-2,-1.1748972E-1,1.4338138E0,2.0045979E1,1.44770355E1,1.343498E1,1.1420228E-1,2.3871687E1,-1.6715226E-1,1.2608846E-2,-1.3220632E-1,2.9327276E0,-1.3778485E-1,1.1809245E-1,1.8161339E-1,4.6231132E-2,-1.123767E-1,4.1528173E-2,-1.16587654E-1,5.89709E-2,-1.6186175E-1,1.3109083E-1,3.165012E-1,-1.401871E-2,-6.517383E-2,1.6265388E-1,-6.419887E-2,-1.946381E-1,2.7265474E-1,6.880727E-2,-1.8840362E-1,-6.374309E-2,-1.1942431E-1,2.249241E-1,-1.6998155E-1,-2.4290754E-2,-1.5452571E-1,-2.0226265E-1,-3.429731E-2,-1.8454917E-1,1.2479842E-1,-1.3708104E-1,8.341866E-2,3.0321583E-1,-7.363427E-2,-1.6497219E-1,-6.606265E-2,2.638757E-1,5.7487305E-2,-1.4325525E-1],"split_indices":[3,2,0,1,0,1,1,0,3,3,0,1,4,3,4,1,1,2,2,3,4,4,4,0,0,3,0,0,0,0,0,0,3,4,0,3,0,1,1,0,0,0,0,4,3,0,0,0,4,4,4,0,0,0,0,0,0,0,0,0,0,0,0,0,0,0,0,0,0,0,0,0,0,0,0,0,0,0,0,0,0,0,0],"split_type":[0,0,0,0,0,0,0,0,0,0,0,0,0,0,0,0,0,0,0,0,0,0,0,0,0,0,0,0,0,0,0,0,0,0,0,0,0,0,0,0,0,0,0,0,0,0,0,0,0,0,0,0,0,0,0,0,0,0,0,0,0,0,0,0,0,0,0,0,0,0,0,0,0,0,0,0,0,0,0,0,0,0,0],"sum_hessian":[4.1429352E2,2.5886157E2,1.5543196E2,1.1619394E2,1.4266762E2,3.4738693E1,1.2069327E2,7.075983E1,4.5434113E1,1.4133238E2,1.3352447E0,2.5710777E1,9.027916E0,1.13192726E2,7.5005445E0,2.2853636E1,4.7906197E1,1.0145051E1,3.5289062E1,1.0688948E2,3.4442894E1,4.977588E0,2.0733189E1,5.661681E0,3.366235E0,1.014802E2,1.17125225E1,3.0735393E0,4.4270053E0,1.7660528E1,5.193107E0,4.331818E0,4.3574375E1,8.907518E0,1.2375325E0,3.1864878E1,3.4241848E0,1.9462376E1,8.742711E1,2.258123E0,3.218477E1,3.716871E0,1.2607172E0,6.306011E0,1.4427177E1,1.993716E0,1.3725189E0,1.7612612E0,9.971894E1,7.523628E0,4.1888943E0,1.2321786E0,1.8413607E0,1.5478952E1,2.181576E0,2.1958122E0,2.997295E0,2.4815292E0,1.850289E0,6.7562003E0,3.6818176E1,5.2354927E0,3.6720262E0,7.8231354E0,2.4041742E1,1.2512357E0,2.172949E0,1.2728733E1,6.7336426E0,2.7818697E1,5.960841E1,1.1691245E1,2.0493525E1,4.5971165E0,1.7088947E0,4.2647624E0,1.0162415E1,6.995747E1,2.9761467E1,2.2307296E0,5.292899E0,1.8458502E0,2.3430443E0],"tree_param":{"num_deleted":"0","num_feature":"5","num_nodes":"83","size_leaf_vector":"1"}},{"base_weights":[5.019888E-1,2.927177E-1,6.614605E-1,2.3694885E-1,5.8537316E-1,-5.093366E-3,7.240572E-1,3.0158135E-1,-4.01764E-2,-2.8202697E-3,6.616657E-1,1.8949428E-1,-4.8233753E-1,2.706609E-1,5.898418E-1,-2.2233242E-1,3.329412E-1,-1.7555444E-1,1.9130807E-1,2.1590413E-1,-1.6198991E-1,7.219841E-1,-4.591111E-2,5.8005136E-1,-9.354611E-2,-1.7703903E-1,4.3008782E-4,4.186849E-1,7.6821107E-1,1.1022359E-1,-1.7994113E-1,6.277891E-1,2.4822345E-1,3.09482E-2,-5.368138E-1,5.2800846E-1,-2.8037003E-1,2.6007208E-1,5.457872E-1,8.5905716E-2,2.7860025E-1,-5.023021E-1,4.8343137E-1,4.6910173E-1,-1.8902753E-1,8.134828E-1,-1.4237066E-1,-1.5088208E-1,2.0028825E-1,2.1180211E-1,-1.3107929E-1,9.003634E-2,-1.092741E-1,-9.900876E-2,1.5301558E-1,-1.89186E-1,-4.0126435E-2,2.2889273E-1,-1.205362E-1,-1.6733875E-2,-1.4485858E-1,-5.9750807E-2,2.00963E-1,1.0431264E-1,-4.985729E-2,-1.5550764E-2,-1.8137905E-1,2.422162E-1,-3.2777403E-2,1.4871146E-1,-1.5076134E-1,2.877467E-1,1.8130766E-1],"categories":[],"categories_nodes":[],"categories_segments":[],"categories_sizes":[],"default_left":[0,0,0,0,0,0,0,0,0,0,0,0,0,0,0,0,0,0,0,0,0,0,0,1,0,0,0,0,1,0,0,1,0,0,0,0,0,0,0,0,0,1,0,0,0,0,0,0,0,0,0,0,0,0,0,0,0,0,0,0,0,0,0,0,0,0,0,0,0,0,0,0,0],"id":4,"left_children":[1,3,5,7,9,11,13,15,17,19,21,23,25,-1,27,29,31,33,35,-1,-1,37,-1,39,41,-1,-1,43,45,47,-1,49,51,53,55,57,59,-1,61,63,-1,65,67,69,-1,71,-1,-1,-1,-1,-1,-1,-1,-1,-1,-1,-1,-1,-1,-1,-1,-1,-1,-1,-1,-1,-1,-1,-1,-1,-1,-1,-1],"loss_changes":[1.5723526E1,3.2570915E0,1.1264496E1,3.1723833E0,1.4657879E0,2.3352728E0,5.3670197E0,2.4266033E0,1.1069199E0,2.2286377E0,1.5297546E0,2.0310097E0,3.8049817E-1,0E0,4.062355E0,1.1565216E0,3.228878E0,1.6677511E0,2.2312756E0,0E0,0E0,2.1796131E-1,0E0,1.2385466E0,2.8911815E0,0E0,0E0,4.2866383E0,4.2749825E0,2.2028227E0,0E0,2.7727232E0,3.507637E0,2.7674217E0,2.2207975E-1,2.054477E0,2.5124267E-1,0E0,1.5121121E0,3.3944505E-1,0E0,2.9413688E-1,1.0801219E0,2.1254873E0,0E0,1.463211E0,0E0,0E0,0E0,0E0,0E0,0E0,0E0,0E0,0E0,0E0,0E0,0E0,0E0,0E0,0E0,0E0,0E0,0E0,0E0,0E0,0E0,0E0,0E0,0E0,0E0,0E0,0E0],"parents":[2147483647,0,0,1,1,2,2,3,3,4,4,5,5,6,6,7,7,8,8,9,9,10,10,11,11,12,12,14,14,15,15,16,16,17,17,18,18,21,21,23,23,24,24,27,27,28,28,29,29,31,31,32,32,33,33,34,34,35,35,36,36,38,38,39,39,41,41,42,42,43,43,45,45],"right_children":[2,4,6,8,10,12,14,16,18,20,22,24,26,-1,28,30,32,34,36,-1,-1,38,-1,40,42,-1,-1,44,46,48,-1,50,52,54,56,58,60,-1,62,64,-1,66,68,70,-1,72,-1,-1,-1,-1,-1,-1,-1,-1,-1,-1,-1,-1,-1,-1,-1,-1,-1,-1,-1,-1,-1,-1,-1,-1,-1,-1,-1],"split_conditions":[5.2257133E1,7.95579E-2,-4.3918155E-2,4.320899E0,1.2657025E1,6.0002743E1,1.8204384E1,1.2276848E1,5.3935005E1,1.0817411E1,2.89059E-1,2.0045979E1,3.0471454E0,2.706609E-1,4.3389896E1,1.1708142E1,8.6943716E-1,5.5039158E1,6.825042E1,2.1590413E-1,-1.6198991E-1,1.0700021E-1,-4.591111E-2,1.44770355E1,2.7989945E0,-1.7703903E-1,4.3008782E-4,4.546485E1,7.885049E1,3.9079624E1,-1.7994113E-1,1.620882E1,5.0219757E1,4.32753E1,4.093053E1,1.1843544E-3,7.263234E1,2.6007208E-1,1.1658721E-1,6.212964E-1,2.7860025E-1,2.12706E1,-1.0378385E-1,3.3560188E0,-1.8902753E-1,6.3569134E1,-1.4237066E-1,-1.5088208E-1,2.0028825E-1,2.1180211E-1,-1.3107929E-1,9.003634E-2,-1.092741E-1,-9.900876E-2,1.5301558E-1,-1.89186E-1,-4.0126435E-2,2.2889273E-1,-1.205362E-1,-1.6733875E-2,-1.4485858E-1,-5.9750807E-2,2.00963E-1,1.0431264E-1,-4.985729E-2,-1.5550764E-2,-1.8137905E-1,2.422162E-1,-3.2777403E-2,1.4871146E-1,-1.5076134E-1,2.877467E-1,1.8130766E-1],"split_indices":[2,4,4,3,0,2,1,0,0,0,4,0,3,0,1,0,3,1,0,0,0,4,0,1,3,0,0,0,0,2,0,0,2,0,2,4,1,0,4,3,0,0,4,3,0,1,0,0,0,0,0,0,0,0,0,0,0,0,0,0,0,0,0,0,0,0,0,0,0,0,0,0,0],"split_type":[0,0,0,0,0,0,0,0,0,0,0,0,0,0,0,0,0,0,0,0,0,0,0,0,0,0,0,0,0,0,0,0,0,0,0,0,0,0,0,0,0,0,0,0,0,0,0,0,0,0,0,0,0,0,0,0,0,0,0,0,0,0,0,0,0,0,0,0,0,0,0,0,0],"sum_hessian":[4.7594965E2,2.0706218E2,2.6888745E2,1.7543977E2,3.1622412E1,2.3162525E1,2.4572493E2,1.421894E2,3.3250362E1,3.7412758E0,2.7881136E1,1.6882097E1,6.2804284E0,1.03124504E2,1.4260043E2,7.686416E0,1.3450299E2,2.1132912E1,1.2117453E1,1.450468E0,2.2908077E0,2.606515E1,1.8159859E0,6.652793E0,1.0229304E1,4.9562387E0,1.3241897E0,7.4479675E1,6.812076E1,4.4627147E0,3.2237015E0,2.8589836E1,1.0591316E2,1.4028366E1,7.1045446E0,7.000689E0,5.116763E0,1.2150882E1,1.3914268E1,3.2675815E0,3.3852117E0,6.063255E0,4.166049E0,7.159087E1,2.888804E0,6.605978E1,2.0609784E0,2.1715941E0,2.2911205E0,2.6947119E1,1.6427183E0,9.810981E1,7.8033504E0,8.177921E0,5.8504453E0,5.305242E0,1.799303E0,5.7316647E0,1.2690245E0,3.0307374E0,2.0860257E0,1.900398E0,1.2013869E1,1.4168799E0,1.8507015E0,1.4009116E0,4.6623435E0,2.4594846E0,1.7065644E0,7.015975E1,1.4311199E0,3.6822918E1,2.9236862E1],"tree_param":{"num_deleted":"0","num_feature":"5","num_nodes":"73","size_leaf_vector":"1"}},{"base_weights":[-2.7137518E-1,2.7302006E-2,-3.3430836E-1,2.8485608E-1,-3.0420499E-2,-4.7631744E-1,-2.2702952E-1,2.4058522E-1,-6.571342E-2,-2.1630608E-1,-5.24504E-1,4.108164E-1,-2.9053345E-1,1.1910699E-2,-5.3647023E-1,2.6214305E-1,-3.4194943E-1,8.4709726E-2,-5.492323E-1,2.565414E-1,-5.6073526E-3,2.5208542E-1,-3.3018908E-1,-4.928662E-1,8.7886855E-2,6.4059626E-3,-1.8738122E-1,-1.3095443E-1,6.497274E-1,-5.238054E-1,6.76959E-2,2.1821503E-1,-3.0480278E-1,-4.6594828E-1,-6.500607E-1,-4.5623726E-1,5.7552296E-1,4.7939125E-1,-1.5089893E-1,-1.5283558E-1,-4.1284606E-1,-1.7742887E-1,5.559466E-4,4.282248E-2,-1.5913385E-1,1.0808037E-3,2.8566393E-1,4.3057352E-2,-1.965282E-1,-8.7158106E-2,1.1873888E-1,-1.4264208E-1,2.043173E-2,-1.4737335E-1,1.5321384E-1,-2.0050113E-1,1.2444479E-2,-1.7189889E-1,-5.017246E-4,-1.14304334E-1,2.938925E-1,-1.3946351E-1,2.2795261E-1,1.48591995E-2,-1.1410008E-1,-2.0264016E-1,-1.0687182E-1],"categories":[],"categories_nodes":[],"categories_segments":[],"categories_sizes":[],"default_left":[0,1,1,0,0,0,0,0,0,0,0,0,0,0,0,0,0,0,1,0,0,0,0,0,0,0,0,0,0,1,0,0,0,1,0,0,0,0,0,0,0,0,0,0,0,0,0,0,0,0,0,0,0,0,0,0,0,0,0,0,0,0,0,0,0,0,0],"id":5,"left_children":[1,3,5,-1,7,9,11,-1,13,15,17,19,21,23,25,27,29,31,33,-1,35,37,39,41,43,-1,-1,-1,45,47,49,-1,51,53,55,57,59,61,-1,63,65,-1,-1,-1,-1,-1,-1,-1,-1,-1,-1,-1,-1,-1,-1,-1,-1,-1,-1,-1,-1,-1,-1,-1,-1,-1,-1],"loss_changes":[7.865286E0,3.9501953E0,5.152218E0,0E0,2.1176944E0,1.7368622E0,8.164138E0,0E0,2.504348E0,1.5799747E0,1.9129066E0,3.4087784E0,3.982521E0,2.331355E0,4.9011898E-1,1.8331863E0,1.5305581E0,1.6483318E0,6.9800186E-1,0E0,3.0097148E0,2.4566596E0,2.4187965E0,3.8905537E-1,1.863362E0,0E0,0E0,0E0,7.944592E-1,1.3217881E0,9.4428533E-1,0E0,3.0306798E-1,1.950777E0,6.7718124E-1,3.4224153E-1,2.3152742E0,3.1162877E0,0E0,2.5697503E0,1.4673977E0,0E0,0E0,0E0,0E0,0E0,0E0,0E0,0E0,0E0,0E0,0E0,0E0,0E0,0E0,0E0,0E0,0E0,0E0,0E0,0E0,0E0,0E0,0E0,0E0,0E0,0E0],"parents":[2147483647,0,0,1,1,2,2,4,4,5,5,6,6,8,8,9,9,10,10,11,11,12,12,13,13,14,14,15,15,16,16,17,17,18,18,20,20,21,21,22,22,23,23,24,24,28,28,29,29,30,30,32,32,33,33,34,34,35,35,36,36,37,37,39,39,40,40],"right_children":[2,4,6,-1,8,10,12,-1,14,16,18,20,22,24,26,28,30,32,34,-1,36,38,40,42,44,-1,-1,-1,46,48,50,-1,52,54,56,58,60,62,-1,64,66,-1,-1,-1,-1,-1,-1,-1,-1,-1,-1,-1,-1,-1,-1,-1,-1,-1,-1,-1,-1,-1,-1,-1,-1,-1,-1],"split_conditions":[3.88645E1,1.1708142E1,1.8025488E1,2.8485608E-1,2.3757084E1,4.528876E1,1.8441225E1,2.4058522E-1,5.2969737E0,6.457487E-1,1.1327459E1,5.8315463E-2,1.2625262E0,2.923077E1,2.7608786E1,-9.085646E-2,4.2925106E1,-2.9959992E-2,1.394517E1,2.565414E-1,1.5390078E1,8.078109E-2,-2.564096E-2,4.6863074E0,7.0446044E-2,6.4059626E-3,-1.8738122E-1,-1.3095443E-1,6.017579E-1,1.1006605E1,9.498119E-1,2.1821503E-1,5.727107E-2,1.1706398E0,2.1884954E1,1.9228415E0,1.8334997E1,4.9746826E1,-1.5089893E-1,2.6847928E0,2.6403522E1,-1.7742887E-1,5.559466E-4,4.282248E-2,-1.5913385E-1,1.0808037E-3,2.8566393E-1,4.3057352E-2,-1.965282E-1,-8.7158106E-2,1.1873888E-1,-1.4264208E-1,2.043173E-2,-1.4737335E-1,1.5321384E-1,-2.0050113E-1,1.2444479E-2,-1.7189889E-1,-5.017246E-4,-1.14304334E-1,2.938925E-1,-1.3946351E-1,2.2795261E-1,1.48591995E-2,-1.1410008E-1,-2.0264016E-1,-1.0687182E-1],"split_indices":[2,0,1,0,2,2,0,0,3,3,1,4,3,2,2,4,2,4,1,0,0,4,4,3,4,0,0,0,3,0,3,0,4,3,0,3,1,2,0,3,0,0,0,0,0,0,0,0,0,0,0,0,0,0,0,0,0,0,0,0,0,0,0,0,0,0,0],"split_type":[0,0,0,0,0,0,0,0,0,0,0,0,0,0,0,0,0,0,0,0,0,0,0,0,0,0,0,0,0,0,0,0,0,0,0,0,0,0,0,0,0,0,0,0,0,0,0,0,0,0,0,0,0,0,0,0,0,0,0,0,0,0,0,0,0,0,0],"sum_hessian":[4.1695404E2,7.2663506E1,3.4429053E2,3.3701239E0,6.929338E1,1.4668199E2,1.9760854E2,1.9349746E0,6.7358406E1,2.3791832E1,1.2289015E2,1.7397316E1,1.8021123E2,5.8660454E1,8.697951E0,4.7224317E0,1.9069399E1,4.6989827E0,1.1819117E2,7.9070325E0,9.490284E0,1.1908404E1,1.6830281E2,6.9563227E0,5.1704132E1,1.2901229E0,7.4078283E0,1.6399754E0,3.0824564E0,1.3013548E1,6.0558515E0,1.4459035E0,3.2530794E0,6.780534E1,5.038583E1,5.466372E0,4.0239124E0,9.43366E0,2.474745E0,5.4408936E1,1.1389388E2,5.6376457E0,1.3186772E0,4.8197495E1,3.5066376E0,1.3055803E0,1.7768761E0,2.1240358E0,1.0889512E1,2.9497766E0,3.1060748E0,2.0430062E0,1.2100731E0,6.657794E1,1.2273974E0,4.9121193E1,1.2646351E0,4.14194E0,1.3244318E0,1.2120935E0,2.811819E0,2.009642E0,7.4240174E0,2.9208971E1,2.5199966E1,1.8257471E1,9.5636406E1],"tree_param":{"num_deleted":"0","num_feature":"5","num_nodes":"67","size_leaf_vector":"1"}},{"base_weights":[-2.529123E-1,-4.0149227E-1,-1.3047849E-1,-2.5426117E-1,-4.9472398E-1,2.283794E-1,-1.8324822E-1,-3.018861E-1,4.538822E-1,-5.1936764E-1,2.2637475E-1,3.7768453E-1,-1.8075027E-1,-2.1286914E-1,4.5522597E-1,-3.805423E-1,3.249217E-2,2.223237E-1,-1.8445686E-2,-5.2737445E-1,3.4880828E-2,3.8276475E-2,8.1719464E-1,-1.7159314E-1,2.0276879E-1,-2.472025E-1,2.5509492E-1,-7.676667E-2,2.2868545E-1,-1.4327891E-1,-4.8083338E-1,1.913986E-1,-1.9901195E-1,-4.315764E-1,-1.8815313E-1,-1.7345752E-1,5.3759414E-1,2.983993E-1,4.5050155E-2,-1.6371593E-1,-4.1138643E-1,-1.3394177E-1,4.0389633E-1,-1.0584982E-1,4.550926E-2,1.5069048E-1,-1.5574242E-1,2.1257494E-2,-1.6239196E-1,-1.7430504E-1,5.6661814E-2,-1.472839E-1,5.4782953E-2,2.3125549E-1,1.581447E-2,-5.8667634E-2,2.4832138E-1,-1.6492711E-1,-3.4856373E-3,1.859462E-1,-6.356317E-2],"categories":[],"categories_nodes":[],"categories_segments":[],"categories_sizes":[],"default_left":[1,1,0,1,0,0,0,1,0,0,0,0,0,0,0,0,0,0,0,1,0,0,0,0,0,0,0,0,0,0,0,0,0,1,0,0,0,0,0,0,0,0,0,0,0,0,0,0,0,0,0,0,0,0,0,0,0,0,0,0,0],"id":6,"left_children":[1,3,5,7,9,11,13,15,17,19,-1,21,23,25,27,29,31,-1,-1,33,-1,35,37,-1,-1,39,41,43,-1,45,47,-1,49,51,-1,-1,53,-1,-1,55,57,-1,59,-1,-1,-1,-1,-1,-1,-1,-1,-1,-1,-1,-1,-1,-1,-1,-1,-1,-1],"loss_changes":[6.890415E0,2.2343178E0,4.0322223E0,2.4546337E0,3.6004734E0,1.7456055E0,3.581686E0,1.7216744E0,7.4564356E-1,5.8447075E-1,0E0,3.0179946E0,3.0737302E0,2.9032335E0,1.4450738E0,1.1849508E0,1.9910059E0,0E0,0E0,7.016182E-1,0E0,4.1841125E0,8.9921236E-1,0E0,0E0,2.1970425E0,1.4930911E0,3.0674246E-1,0E0,4.4052234E0,1.2598457E0,0E0,1.6480857E0,2.0986366E0,0E0,0E0,8.042767E-1,0E0,0E0,3.6716769E0,3.037385E0,0E0,1.5805472E0,0E0,0E0,0E0,0E0,0E0,0E0,0E0,0E0,0E0,0E0,0E0,0E0,0E0,0E0,0E0,0E0,0E0,0E0],"parents":[2147483647,0,0,1,1,2,2,3,3,4,4,5,5,6,6,7,7,8,8,9,9,11,11,12,12,13,13,14,14,15,15,16,16,19,19,21,21,22,22,25,25,26,26,27,27,29,29,30,30,32,32,33,33,36,36,39,39,40,40,42,42],"right_children":[2,4,6,8,10,12,14,16,18,20,-1,22,24,26,28,30,32,-1,-1,34,-1,36,38,-1,-1,40,42,44,-1,46,48,-1,50,52,-1,-1,54,-1,-1,56,58,-1,60,-1,-1,-1,-1,-1,-1,-1,-1,-1,-1,-1,-1,-1,-1,-1,-1,-1,-1],"split_conditions":[1.9364172E1,5.166519E1,2.4747484E1,5.10288E1,2.5477844E1,2.435277E1,7.170968E1,1.4979429E1,1.02210306E-1,2.0746434E-1,2.2637475E-1,2.245429E1,2.974436E1,5.8804703E0,-1.239344E-1,1.30891695E1,1.4444362E1,2.223237E-1,-1.8445686E-2,1.4732891E1,3.4880828E-2,3.9813965E1,2.3871687E1,-1.7159314E-1,2.0276879E-1,4.925906E1,-1.6250958E-1,7.5526E1,2.2868545E-1,9.01822E-1,1.283842E1,1.913986E-1,1.5784816E1,1.44770355E1,-1.8815313E-1,-1.7345752E-1,5.10288E1,2.983993E-1,4.5050155E-2,5.5039158E1,6.797969E1,-1.3394177E-1,4.1528173E-2,-1.0584982E-1,4.550926E-2,1.5069048E-1,-1.5574242E-1,2.1257494E-2,-1.6239196E-1,-1.7430504E-1,5.6661814E-2,-1.472839E-1,5.4782953E-2,2.3125549E-1,1.581447E-2,-5.8667634E-2,2.4832138E-1,-1.6492711E-1,-3.4856373E-3,1.859462E-1,-6.356317E-2],"split_indices":[1,2,1,2,0,0,1,1,4,4,0,0,0,3,4,0,0,0,0,1,0,2,0,0,0,0,4,0,0,3,1,0,0,1,0,0,2,0,0,1,1,0,4,0,0,0,0,0,0,0,0,0,0,0,0,0,0,0,0,0,0],"split_type":[0,0,0,0,0,0,0,0,0,0,0,0,0,0,0,0,0,0,0,0,0,0,0,0,0,0,0,0,0,0,0,0,0,0,0,0,0,0,0,0,0,0,0,0,0,0,0,0,0,0,0,0,0,0,0,0,0,0,0,0,0],"sum_hessian":[3.8065692E2,1.7093678E2,2.0972014E2,6.772034E1,1.03216446E2,2.6459024E1,1.8326111E2,6.399046E1,3.7298737E0,1.0179276E2,1.4236774E0,1.9441154E1,7.0178704E0,1.7577303E2,7.488094E0,5.1692673E1,1.2297788E1,2.1139054E0,1.6159682E0,1.0069469E2,1.0980791E0,1.1583207E1,7.857947E0,5.0457864E0,1.9720839E0,1.6419797E2,1.15750475E1,3.014806E0,4.473288E0,1.6080023E1,3.5612648E1,2.915742E0,9.382046E0,5.4094765E1,4.6599922E1,5.112832E0,6.470375E0,5.818646E0,2.0393012E0,1.1017287E2,5.402511E1,1.6754053E0,9.899642E0,1.1186777E0,1.8961283E0,5.793214E0,1.0286808E1,3.5010555E0,3.2111595E1,4.475992E0,4.9060535E0,4.950961E1,4.5851564E0,3.9705224E0,2.4998527E0,1.0752229E2,2.650572E0,3.9855007E1,1.4170103E1,7.324644E0,2.5749981E0],"tree_param":{"num_deleted":"0","num_feature":"5","num_nodes":"61","size_leaf_vector":"1"}},{"base_weights":[3.8153994E-1,2.190636E-1,5.0706613E-1,2.5831333E-1,-3.799937E-2,-1.567335E-2,5.5439967E-1,2.7441648E-1,-4.205414E-1,1.8225403E-1,-2.0729445E-1,3.9873162E-1,-2.071786E-1,6.843514E-1,4.2899713E-1,6.650615E-2,3.236382E-1,-1.4851546E-2,-1.6568254E-1,3.9181E-1,-3.2475242E-1,-3.4825623E-1,1.2901227E-1,3.494689E-2,2.190666E-1,3.2827446E-1,-4.8081917E-1,5.8211523E-1,7.6712847E-1,2.1819504E-1,5.4956275E-1,-4.409051E-1,2.2640473E-1,6.973623E-1,2.6331222E-1,-2.6058066E-1,7.020469E-1,5.274233E-3,-1.429113E-1,-1.2156175E-2,-4.7556397E-1,1.4860238E-1,-1.3165921E-1,-7.00926E-2,2.1179146E-1,-5.413116E-1,-5.0988793E-3,6.3608205E-1,-1.8668352E-1,9.253172E-2,2.3308666E-1,3.726784E-1,-3.2068288E-1,5.768716E-1,-1.2596653E-1,4.8085127E-2,-1.8806428E-1,-5.1973934E-6,1.9391955E-1,2.5250697E-1,1.3238408E-1,5.1307198E-2,1.2289147E-1,1.7695233E-2,-1.2964086E-1,8.505323E-2,2.5892964E-1,-1.3342538E-1,1.0303016E-1,-1.860058E-1,-5.214691E-2,-2.8444404E-2,-1.8128917E-1,2.0771973E-1,1.1760925E-2,-1.1880607E-2,1.9113933E-1,-1.6125287E-1,-1.3627506E-2,-9.434204E-2,1.8120037E-1],"categories":[],"categories_nodes":[],"categories_segments":[],"categories_sizes":[],"default_left":[0,0,0,0,0,0,1,0,0,0,0,1,0,0,0,0,0,0,0,0,0,0,0,0,0,0,0,0,0,0,0,0,0,0,0,0,0,0,0,0,0,0,0,0,0,0,0,0,0,0,0,0,0,0,0,0,0,0,0,0,0,0,0,0,0,0,0,0,0,0,0,0,0,0,0,0,0,0,0,0,0],"id":7,"left_children":[1,3,5,7,9,11,13,15,17,19,21,23,25,27,29,31,33,-1,-1,35,37,39,-1,41,-1,43,45,47,49,51,53,55,57,59,61,63,65,-1,-1,67,69,-1,-1,-1,-1,71,-1,73,-1,-1,-1,75,77,79,-1,-1,-1,-1,-1,-1,-1,-1,-1,-1,-1,-1,-1,-1,-1,-1,-1,-1,-1,-1,-1,-1,-1,-1,-1,-1,-1],"loss_changes":[9.647011E0,2.1316223E0,6.668518E0,2.1111784E0,1.1089696E0,1.9333755E0,3.7289505E0,1.809722E0,1.9873083E-1,1.5102435E0,1.651047E0,9.045757E-1,2.5912943E0,5.650902E-1,3.1408367E0,2.981138E0,3.0725822E0,0E0,0E0,2.1387706E0,2.3434195E-1,6.0337746E-1,0E0,1.2486519E0,0E0,1.4831841E0,3.1057143E-1,4.141617E0,4.392624E-2,4.1435876E0,2.3855782E0,1.0898287E0,2.6307554E0,3.4806442E-1,1.6309671E0,2.362093E-1,2.1499538E-1,0E0,0E0,9.122344E-1,3.4115314E-1,0E0,0E0,0E0,0E0,2.2532654E-1,0E0,1.8436012E0,0E0,0E0,0E0,4.171709E0,6.5045226E-1,2.1042328E0,0E0,0E0,0E0,0E0,0E0,0E0,0E0,0E0,0E0,0E0,0E0,0E0,0E0,0E0,0E0,0E0,0E0,0E0,0E0,0E0,0E0,0E0,0E0,0E0,0E0,0E0,0E0],"parents":[2147483647,0,0,1,1,2,2,3,3,4,4,5,5,6,6,7,7,8,8,9,9,10,10,11,11,12,12,13,13,14,14,15,15,16,16,19,19,20,20,21,21,23,23,25,25,26,26,27,27,28,28,29,29,30,30,31,31,32,32,33,33,34,34,35,35,36,36,39,39,40,40,45,45,47,47,51,51,52,52,53,53],"right_children":[2,4,6,8,10,12,14,16,18,20,22,24,26,28,30,32,34,-1,-1,36,38,40,-1,42,-1,44,46,48,50,52,54,56,58,60,62,64,66,-1,-1,68,70,-1,-1,-1,-1,72,-1,74,-1,-1,-1,76,78,80,-1,-1,-1,-1,-1,-1,-1,-1,-1,-1,-1,-1,-1,-1,-1,-1,-1,-1,-1,-1,-1,-1,-1,-1,-1,-1,-1],"split_conditions":[5.2257133E1,4.6863074E0,-4.3918155E-2,5.18813E1,-9.085646E-2,-9.954025E-2,1.8204384E1,1.4666713E1,-6.719879E-2,6.3051934E0,4.4498287E-2,3.1402573E1,1.8025488E1,3.6268387E-2,3.0702799E1,3.751378E1,1.5256735E1,-1.4851546E-2,-1.6568254E-1,4.2650845E1,-1.9663416E-1,3.4916954E1,1.2901227E-1,2.0045979E1,2.190666E-1,1.3452193E1,6.476305E1,2.3042599E1,3.810302E-1,2.6571117E1,7.383827E1,9.278124E-1,9.9007565E-1,6.017579E-1,4.572496E1,2.8392967E1,3.3566433E1,5.274233E-3,-1.429113E-1,-3.186482E-2,5.95867E1,1.4860238E-1,-1.3165921E-1,-7.00926E-2,2.1179146E-1,1.327867E1,-5.0988793E-3,2.92287E-2,-1.8668352E-1,9.253172E-2,2.3308666E-1,5.8315463E-2,6.949447E1,1.3825916E0,-1.2596653E-1,4.8085127E-2,-1.8806428E-1,-5.1973934E-6,1.9391955E-1,2.5250697E-1,1.3238408E-1,5.1307198E-2,1.2289147E-1,1.7695233E-2,-1.2964086E-1,8.505323E-2,2.5892964E-1,-1.3342538E-1,1.0303016E-1,-1.860058E-1,-5.214691E-2,-2.8444404E-2,-1.8128917E-1,2.0771973E-1,1.1760925E-2,-1.1880607E-2,1.9113933E-1,-1.6125287E-1,-1.3627506E-2,-9.434204E-2,1.8120037E-1],"split_indices":[2,3,4,2,4,4,1,0,4,3,4,0,1,4,0,2,0,0,0,0,4,2,0,0,0,1,2,0,3,0,0,3,3,3,0,2,2,0,0,4,0,0,0,0,0,0,0,4,0,0,0,4,2,3,0,0,0,0,0,0,0,0,0,0,0,0,0,0,0,0,0,0,0,0,0,0,0,0,0,0,0],"split_type":[0,0,0,0,0,0,0,0,0,0,0,0,0,0,0,0,0,0,0,0,0,0,0,0,0,0,0,0,0,0,0,0,0,0,0,0,0,0,0,0,0,0,0,0,0,0,0,0,0,0,0,0,0,0,0,0,0,0,0,0,0,0,0,0,0,0,0,0,0,0,0,0,0,0,0,0,0,0,0,0,0],"sum_hessian":[4.774542E2,2.092954E2,2.681588E2,1.815678E2,2.7727592E1,2.2320942E1,2.4583788E2,1.7794258E2,3.6252184E0,1.2016953E1,1.5710638E1,6.712795E0,1.5608147E1,1.18540215E2,1.2729766E2,3.4512894E1,1.4342969E2,1.3103455E0,2.314873E0,8.6634035E0,3.3535502E0,1.3236622E1,2.4740171E0,3.7275376E0,2.985257E0,5.211249E0,1.0396897E1,5.663005E1,6.1910164E1,4.7338596E1,7.995907E1,7.8487625E0,2.6664133E1,1.8466763E1,1.2496292E2,2.843637E0,5.8197665E0,1.300731E0,2.0528193E0,3.9373274E0,9.299294E0,1.8674884E0,1.8600492E0,2.2480822E0,2.9631667E0,9.049573E0,1.3473241E0,5.4653008E1,1.9770421E0,1.9778558E0,5.993231E1,3.703109E1,1.0307507E1,7.816224E1,1.7968282E0,1.8869902E0,5.9617724E0,1.7974106E1,8.690027E0,1.03479E1,8.118862E0,7.796129E1,4.7001633E1,1.2225378E0,1.6210991E0,2.384189E0,3.4355776E0,1.6632047E0,2.2741227E0,5.575347E0,3.723947E0,1.428494E0,7.6210794E0,4.9794716E1,4.8582926E0,1.4803206E1,2.2227882E1,5.232781E0,5.0747256E0,1.9958855E0,7.616635E1],"tree_param":{"num_deleted":"0","num_feature":"5","num_nodes":"81","size_leaf_vector":"1"}},{"base_weights":[-2.2176023E-1,-4.1856012E-1,-1.4340755E-1,1.1624412E-1,-4.421922E-1,1.5594904E-1,-2.172579E-1,1.9390076E-1,-2.4714458E-1,-4.55903E-1,6.9805756E-2,-1.5579693E-1,3.9545035E-1,-6.5111406E-2,-3.2040134E-1,-1.2742297E-1,2.9572783E-2,-1.8839224E-1,-5.012036E-1,3.3917788E-1,-1.8872531E-1,8.139654E-1,2.8209382E-1,1.4649886E-1,-1.5283324E-1,-3.6859068E-1,-8.503101E-2,-4.468664E-1,2.8032064E-1,-2.3603222E-1,-5.514365E-1,-3.9494075E-2,2.2678982E-1,7.3125415E-2,2.7947968E-1,-4.169311E-1,4.4678998E-1,-3.1000897E-1,3.331812E-1,-3.5469222E-1,1.3307472E-2,-2.751703E-1,-5.609721E-1,5.368446E-1,-3.626422E-1,-1.793903E-1,-3.7048537E-2,1.452081E-1,-1.0905556E-1,-1.3588054E-1,2.4798924E-1,-5.5703454E-2,-1.7909734E-1,1.1189418E-1,-1.6020674E-1,7.290376E-3,-1.661855E-1,2.01656E-1,-9.08834E-3,-1.4340349E-1,3.6875598E-2,-1.5352066E-1,1.3437521E-1,-1.2220224E-1,1.3414316E-1,1.15524046E-1,-5.3174455E-2,-1.3765779E-1,-4.2628E-2,-5.0585438E-2,-1.8181929E-1,7.206462E-2,2.8950652E-1,8.630712E-2,-1.6869679E-1],"categories":[],"categories_nodes":[],"categories_segments":[],"categories_sizes":[],"default_left":[1,0,1,0,1,0,0,0,0,0,0,0,0,0,0,0,0,0,0,0,0,0,0,0,0,0,0,1,0,0,0,0,0,0,0,0,0,0,0,0,0,0,0,0,0,0,0,0,0,0,0,0,0,0,0,0,0,0,0,0,0,0,0,0,0,0,0,0,0,0,0,0,0,0,0],"id":8,"left_children":[1,3,5,7,9,11,13,-1,15,17,-1,19,21,23,25,-1,-1,27,29,31,-1,33,35,37,39,41,43,45,47,49,51,53,-1,-1,-1,55,57,59,61,63,65,67,69,71,73,-1,-1,-1,-1,-1,-1,-1,-1,-1,-1,-1,-1,-1,-1,-1,-1,-1,-1,-1,-1,-1,-1,-1,-1,-1,-1,-1,-1,-1,-1],"loss_changes":[5.9215145E0,1.4409008E0,6.2012744E0,1.2084833E0,1.0822544E0,4.226731E0,3.4972763E0,0E0,2.8461066E-1,1.1626682E0,0E0,6.0593348E0,1.2804799E0,1.7270515E0,1.4812126E0,0E0,0E0,2.1393623E0,1.0434895E0,2.0575194E0,0E0,1.923914E-1,3.2460148E0,2.4403067E0,2.1983485E0,1.8296385E0,4.331599E0,4.6857405E-1,1.0315622E0,4.011869E0,1.1109467E0,1.7661351E0,0E0,0E0,0E0,3.5112274E-1,2.3852391E0,6.75336E-1,2.1627727E0,1.4303024E0,2.6783218E0,1.7992201E0,5.191736E-1,7.5871754E-1,2.3906536E0,0E0,0E0,0E0,0E0,0E0,0E0,0E0,0E0,0E0,0E0,0E0,0E0,0E0,0E0,0E0,0E0,0E0,0E0,0E0,0E0,0E0,0E0,0E0,0E0,0E0,0E0,0E0,0E0,0E0,0E0],"parents":[2147483647,0,0,1,1,2,2,3,3,4,4,5,5,6,6,8,8,9,9,11,11,12,12,13,13,14,14,17,17,18,18,19,19,21,21,22,22,23,23,24,24,25,25,26,26,27,27,28,28,29,29,30,30,31,31,35,35,36,36,37,37,38,38,39,39,40,40,41,41,42,42,43,43,44,44],"right_children":[2,4,6,8,10,12,14,-1,16,18,-1,20,22,24,26,-1,-1,28,30,32,-1,34,36,38,40,42,44,46,48,50,52,54,-1,-1,-1,56,58,60,62,64,66,68,70,72,74,-1,-1,-1,-1,-1,-1,-1,-1,-1,-1,-1,-1,-1,-1,-1,-1,-1,-1,-1,-1,-1,-1,-1,-1,-1,-1,-1,-1,-1,-1],"split_conditions":[9.4340837E-1,1.1327459E1,1.8441225E1,-2.9959992E-2,2.12706E1,1.1706398E0,-2.564096E-2,1.9390076E-1,5.727107E-2,4.528876E1,6.9805756E-2,-2.9165088E-3,1.4772411E1,2.322124E0,6.0919262E1,-1.2742297E-1,2.9572783E-2,-3.744026E-2,1.2276848E1,1.4796833E1,-1.8872531E-1,-1.1916664E-1,1.5425867E1,-9.954025E-2,3.701748E0,4.3389896E1,6.453661E1,1.4781378E1,5.391867E-2,1.2134304E1,-6.308769E-2,3.80359E1,2.2678982E-1,7.3125415E-2,2.7947968E-1,1.5213769E1,8.405129E-2,2.138883E0,1.9626871E1,6.3053005E1,4.32753E1,2.6403522E1,3.9438835E1,5.985965E1,5.2583065E1,-1.793903E-1,-3.7048537E-2,1.452081E-1,-1.0905556E-1,-1.3588054E-1,2.4798924E-1,-5.5703454E-2,-1.7909734E-1,1.1189418E-1,-1.6020674E-1,7.290376E-3,-1.661855E-1,2.01656E-1,-9.08834E-3,-1.4340349E-1,3.6875598E-2,-1.5352066E-1,1.3437521E-1,-1.2220224E-1,1.3414316E-1,1.15524046E-1,-5.3174455E-2,-1.3765779E-1,-4.2628E-2,-5.0585438E-2,-1.8181929E-1,7.206462E-2,2.8950652E-1,8.630712E-2,-1.6869679E-1],"split_indices":[3,1,0,4,0,3,4,0,4,2,0,4,1,3,1,0,0,4,0,1,0,4,1,4,3,1,1,1,4,0,4,2,0,0,0,0,4,3,0,2,0,0,2,2,0,0,0,0,0,0,0,0,0,0,0,0,0,0,0,0,0,0,0,0,0,0,0,0,0,0,0,0,0,0,0],"split_type":[0,0,0,0,0,0,0,0,0,0,0,0,0,0,0,0,0,0,0,0,0,0,0,0,0,0,0,0,0,0,0,0,0,0,0,0,0,0,0,0,0,0,0,0,0,0,0,0,0,0,0,0,0,0,0,0,0,0,0,0,0,0,0,0,0,0,0,0,0,0,0,0,0,0,0],"sum_hessian":[3.8691293E2,1.08941216E2,2.779717E2,4.444368E0,1.0449685E2,5.4785183E1,2.2318652E2,1.4908954E0,2.9534724E0,1.0273417E2,1.7626783E0,2.3954453E1,3.0830729E1,9.083193E1,1.323546E2,1.8001506E0,1.1533216E0,1.5624794E1,8.7109375E1,1.1847463E1,1.210699E1,5.253628E0,2.55771E1,2.6422716E1,6.440922E1,1.0939187E2,2.2962729E1,1.01011E1,5.5236945E0,1.4781094E1,7.2328285E1,6.681889E0,5.1655736E0,1.423844E0,3.829784E0,4.585062E0,2.0992039E1,7.477303E0,1.8945412E1,2.8566442E1,3.5842777E1,7.527074E1,3.412113E1,6.7988515E0,1.6163877E1,6.3055477E0,3.7955518E0,4.384641E0,1.1390532E0,1.2752019E1,2.0290747E0,8.572841E0,6.3755444E1,3.7771997E0,2.9046893E0,1.281389E0,3.3036733E0,1.3978843E1,7.013196E0,5.311843E0,2.16546E0,1.8514235E0,1.7093988E1,2.7268015E1,1.2984284E0,1.180008E1,2.4042696E1,3.0593626E1,4.467711E1,4.0057673E0,3.0115362E1,4.9385676E0,1.8602837E0,3.6935906E0,1.2470287E1],"tree_param":{"num_deleted":"0","num_feature":"5","num_nodes":"75","size_leaf_vector":"1"}},{"base_weights":[-2.0918939E-1,-3.111441E-1,-5.667444E-2,-1.9798638E-1,-4.1340202E-1,1.8115614E-1,-1.3131917E-1,-3.127705E-1,-3.7505507E-2,-4.3351698E-1,1.8615758E-1,3.6674026E-1,-3.76405E-1,-7.424229E-2,-1.7179519E-1,-1.1342644E-1,-4.1388065E-1,4.1262826E-1,-1.874201E-1,-4.8850077E-1,-2.707007E-1,-3.694757E-1,5.3372973E-1,-1.6394922E-1,-2.8149098E-2,-1.6893905E-1,2.8576896E-1,-3.177878E-1,4.320469E-1,1.6617246E-1,-4.8902908E-1,5.596579E-1,4.9798716E-2,-2.573856E-1,3.354373E-1,-3.7393495E-1,-1.7827204E-1,1.149299E-1,-3.3805215E-1,-1.5190323E-1,1.8926144E-2,1.3197523E-1,6.837093E-1,-1.177641E-1,1.1677021E-1,-5.286331E-1,-4.6182957E-2,-3.7637138E-1,4.8192883E-1,-1.3925046E-1,1.23599246E-1,2.2132562E-1,8.640097E-3,-5.1718205E-2,1.476998E-1,-2.6902147E-2,-1.6895819E-1,3.0673364E-2,2.0728928E-1,-1.1243683E-1,9.600588E-2,-1.709173E-1,-4.2828765E-2,-1.0638093E-1,2.0475848E-1,-1.3733098E-1,1.4597295E-1,-6.301486E-3,-1.5841858E-1,1.6885674E-1,-9.127957E-2,2.272764E-1,-1.6986921E-2,-1.8673736E-1,5.690754E-2,-1.2379772E-1,3.2947853E-2,-1.5321077E-1,1.2804367E-2,-1.23370245E-1,1.8066296E-1],"categories":[],"categories_nodes":[],"categories_segments":[],"categories_sizes":[],"default_left":[1,1,0,1,0,0,0,0,0,0,0,0,0,0,0,1,0,0,0,1,0,0,0,0,0,0,0,0,0,0,1,0,0,0,0,1,0,0,0,0,0,0,0,0,0,0,0,0,0,0,0,0,0,0,0,0,0,0,0,0,0,0,0,0,0,0,0,0,0,0,0,0,0,0,0,0,0,0,0,0,0],"id":9,"left_children":[1,3,5,7,9,11,13,15,17,19,-1,21,23,25,-1,27,29,31,33,35,37,39,41,-1,43,45,47,49,51,53,55,57,59,61,63,65,-1,-1,67,-1,-1,69,71,-1,-1,73,75,77,79,-1,-1,-1,-1,-1,-1,-1,-1,-1,-1,-1,-1,-1,-1,-1,-1,-1,-1,-1,-1,-1,-1,-1,-1,-1,-1,-1,-1,-1,-1,-1,-1],"loss_changes":[5.4304276E0,2.3454266E0,2.537567E0,1.8578866E0,2.5415726E0,3.681599E0,2.6868842E0,1.1429725E0,3.0100484E0,8.325939E-1,0E0,3.4182472E0,5.20439E-1,3.358389E0,0E0,2.5055177E0,1.7721915E0,5.6801975E-1,1.3041251E0,7.387333E-1,1.4263539E0,3.5371512E-1,1.2212262E0,0E0,7.645975E-1,3.3976436E0,2.8560004E0,1.9037443E0,7.44764E-1,6.5860784E-1,9.74164E-1,4.0091205E-1,6.1545146E-1,9.900627E-1,1.2869953E0,3.1639562E0,0E0,0E0,1.6293879E0,0E0,0E0,1.5162946E0,8.966527E-1,0E0,0E0,1.4406695E0,3.4115672E0,3.183266E-1,2.0013905E0,0E0,0E0,0E0,0E0,0E0,0E0,0E0,0E0,0E0,0E0,0E0,0E0,0E0,0E0,0E0,0E0,0E0,0E0,0E0,0E0,0E0,0E0,0E0,0E0,0E0,0E0,0E0,0E0,0E0,0E0,0E0,0E0],"parents":[2147483647,0,0,1,1,2,2,3,3,4,4,5,5,6,6,7,7,8,8,9,9,11,11,12,12,13,13,15,15,16,16,17,17,18,18,19,19,20,20,21,21,22,22,24,24,25,25,26,26,27,27,28,28,29,29,30,30,31,31,32,32,33,33,34,34,35,35,38,38,41,41,42,42,45,45,46,46,47,47,48,48],"right_children":[2,4,6,8,10,12,14,16,18,20,-1,22,24,26,-1,28,30,32,34,36,38,40,42,-1,44,46,48,50,52,54,56,58,60,62,64,66,-1,-1,68,-1,-1,70,72,-1,-1,74,76,78,80,-1,-1,-1,-1,-1,-1,-1,-1,-1,-1,-1,-1,-1,-1,-1,-1,-1,-1,-1,-1,-1,-1,-1,-1,-1,-1,-1,-1,-1,-1,-1,-1],"split_conditions":[2.348096E0,5.4747604E1,3.1402573E1,1.4979429E1,6.452233E1,3.4358E1,6.976855E1,1.327867E1,9.498119E-1,1.6349365E0,1.8615758E-1,2.245429E1,7.675906E-2,5.0453277E0,-1.7179519E-1,1.4171148E1,1.283842E1,4.8233963E1,5.358788E1,1.4732891E1,-5.9776485E-2,3.7777805E1,-1.1043291E-1,-1.6394922E-1,2.6571117E1,4.0587196E1,-1.5378888E-1,1.2990363E1,1.2186153E1,1.4805905E1,3.9351797E-1,4.044527E1,1.5123211E1,1.4338138E0,2.0045979E1,1.44770355E1,-1.7827204E-1,1.149299E-1,2.3871687E1,-1.5190323E-1,1.8926144E-2,3.1491247E1,7.645855E1,-1.177641E-1,1.1677021E-1,6.843621E1,3.8919468E1,3.3409138E1,5.2284782E1,-1.3925046E-1,1.23599246E-1,2.2132562E-1,8.640097E-3,-5.1718205E-2,1.476998E-1,-2.6902147E-2,-1.6895819E-1,3.0673364E-2,2.0728928E-1,-1.1243683E-1,9.600588E-2,-1.709173E-1,-4.2828765E-2,-1.0638093E-1,2.0475848E-1,-1.3733098E-1,1.4597295E-1,-6.301486E-3,-1.5841858E-1,1.6885674E-1,-9.127957E-2,2.272764E-1,-1.6986921E-2,-1.8673736E-1,5.690754E-2,-1.2379772E-1,3.2947853E-2,-1.5321077E-1,1.2804367E-2,-1.23370245E-1,1.8066296E-1],"split_indices":[3,2,0,1,0,1,2,0,3,3,0,0,4,3,0,1,1,2,2,1,4,2,4,0,0,2,4,0,0,0,3,2,1,3,0,1,0,0,0,0,0,2,2,0,0,1,1,2,1,0,0,0,0,0,0,0,0,0,0,0,0,0,0,0,0,0,0,0,0,0,0,0,0,0,0,0,0,0,0,0,0],"split_type":[0,0,0,0,0,0,0,0,0,0,0,0,0,0,0,0,0,0,0,0,0,0,0,0,0,0,0,0,0,0,0,0,0,0,0,0,0,0,0,0,0,0,0,0,0,0,0,0,0,0,0,0,0,0,0,0,0,0,0,0,0,0,0,0,0,0,0,0,0,0,0,0,0,0,0,0,0,0,0,0,0],"sum_hessian":[3.4936618E2,2.0876723E2,1.4059894E2,1.0049568E2,1.0827155E2,3.3245697E1,1.0735325E2,5.803624E1,4.2459442E1,1.0677496E2,1.4965891E0,2.5200092E1,8.045603E0,9.609377E1,1.1259473E1,2.0244644E1,3.779159E1,1.0170141E1,3.22893E1,7.83242E1,2.845076E1,4.4349422E0,2.076515E1,5.0230465E0,3.0225568E0,7.650165E1,1.9592129E1,1.5030779E1,5.2138658E0,4.195587E0,3.3596004E1,6.851302E0,3.318839E0,2.8926298E1,3.363003E0,3.9770397E1,3.8553806E1,2.2192988E0,2.623146E1,3.2393901E0,1.1955522E0,6.1556897E0,1.460946E1,1.645474E0,1.3770828E0,1.8624031E1,5.7877613E1,4.267712E0,1.5324417E1,1.2822756E1,2.2080233E0,2.4937778E0,2.720088E0,2.2899637E0,1.9056238E0,5.607957E0,2.7988049E1,1.9248042E0,4.926498E0,1.1402429E0,2.1785963E0,6.699709E0,2.222659E1,1.1182342E0,2.2447689E0,3.666623E1,3.1041665E0,1.0245888E1,1.5985573E1,2.9508517E0,3.2048378E0,1.3262657E1,1.3468031E0,1.6590504E1,2.0335264E0,1.6790497E1,4.1087116E1,3.0661287E0,1.2015831E0,1.5316914E0,1.3792726E1],"tree_param":{"num_deleted":"0","num_feature":"5","num_nodes":"81","size_leaf_vector":"1"}},{"base_weights":[2.9882044E-1,1.6844608E-1,4.0412596E-1,1.2991963E-1,3.7253553E-1,1.061976E-1,4.661442E-1,3.1318516E-1,7.006305E-2,4.830615E-1,1.2563053E-1,3.7007276E-2,6.148738E-1,6.082272E-1,3.6629474E-1,3.6339056E-1,-2.8340578E-1,-1.1351288E-1,1.5306264E-1,2.2300033E-1,3.3361116E-1,-1.8902184E-1,3.8600606E-1,2.6190165E-1,-1.4027864E-1,2.1343006E-1,6.3294016E-2,3.2781944E-1,6.287465E-1,1.3945246E-1,4.279368E-1,2.3888955E-1,6.8488145E-1,-1.3212454E-1,6.2642302E-3,2.7208377E-2,-4.7911948E-1,6.14312E-1,6.525217E-2,-1.3731223E-1,4.2833063E-1,5.536965E-1,-5.3758886E-2,-1.5444028E-1,4.3528992E-1,3.6170694E-1,-3.1781754E-1,7.950725E-3,1.8251751E-1,4.9147266E-1,6.6987675E-1,2.530475E-1,-4.3792325E-1,4.754671E-1,4.2768043E-2,1.0344392E-1,-1.1335361E-1,2.2107817E-1,6.281755E-2,-2.153123E-2,1.6149391E-1,4.4169586E-2,-1.838766E-1,2.2906922E-1,-1.5928626E-2,-4.9128417E-2,6.0272906E-2,1.4999732E-1,-8.77035E-3,1.5934095E-2,2.1849696E-1,4.5133382E-2,-1.661241E-1,-2.2860691E-2,1.501067E-1,-7.820917E-3,1.9238825E-1,-1.3031736E-1,4.9127284E-2,-1.4133926E-1,1.49338E-1,1.7046458E-1,-1.10839866E-1,2.0446262E-1,6.556728E-2,1.3940853E-1,-1.924812E-2,-1.8362667E-1,1.8347895E-2,1.05758525E-1,2.2134262E-1,-2.1982041E-1,1.12036735E-1],"categories":[],"categories_nodes":[],"categories_segments":[],"categories_sizes":[],"default_left":[0,0,0,0,0,0,0,0,0,0,0,1,0,0,0,0,0,0,0,0,0,0,0,0,0,0,0,0,0,0,1,0,0,0,0,0,0,0,0,0,0,0,0,0,0,0,0,0,0,0,0,0,0,1,0,0,0,0,0,0,0,0,0,0,0,0,0,0,0,0,0,0,0,0,0,0,0,0,0,0,0,0,0,0,0,0,0,0,0,0,0,0,0],"id":10,"left_children":[1,3,5,7,9,11,13,15,17,19,21,23,25,27,29,31,33,35,37,-1,39,-1,41,43,45,-1,-1,47,49,51,53,55,57,-1,-1,59,61,63,65,-1,67,69,-1,71,73,75,77,79,-1,81,83,85,87,89,91,-1,-1,-1,-1,-1,-1,-1,-1,-1,-1,-1,-1,-1,-1,-1,-1,-1,-1,-1,-1,-1,-1,-1,-1,-1,-1,-1,-1,-1,-1,-1,-1,-1,-1,-1,-1,-1,-1],"loss_changes":[6.2978134E0,1.5940933E0,4.6766167E0,1.9225056E0,8.2992697E-1,1.5739316E0,2.776577E0,1.401485E0,2.0728803E0,6.152611E-1,2.4948635E0,1.67137E0,5.924678E-2,2.8722E-1,1.7116413E0,1.4544597E0,1.9680819E-1,2.2035851E0,3.7399044E0,0E0,1.3886998E0,0E0,9.646441E-1,1.397044E0,2.216187E0,0E0,0E0,7.073733E-1,1.1571884E-1,1.9833927E0,1.7943707E0,2.1342597E0,1.1171007E-1,0E0,0E0,1.6418084E0,1.0864661E0,1.5154829E0,2.5033932E0,0E0,4.975202E-1,5.982444E-1,0E0,8.325415E-1,4.7966743E-1,7.3527145E-1,1.0787935E0,1.3425343E0,0E0,1.6584129E0,1.5578079E-1,1.6740531E0,4.7726464E-1,2.5825195E0,3.3477933E0,0E0,0E0,0E0,0E0,0E0,0E0,0E0,0E0,0E0,0E0,0E0,0E0,0E0,0E0,0E0,0E0,0E0,0E0,0E0,0E0,0E0,0E0,0E0,0E0,0E0,0E0,0E0,0E0,0E0,0E0,0E0,0E0,0E0,0E0,0E0,0E0,0E0,0E0],"parents":[2147483647,0,0,1,1,2,2,3,3,4,4,5,5,6,6,7,7,8,8,9,9,10,10,11,11,12,12,13,13,14,14,15,15,16,16,17,17,18,18,20,20,22,22,23,23,24,24,27,27,28,28,29,29,30,30,31,31,32,32,35,35,36,36,37,37,38,38,40,40,41,41,43,43,44,44,45,45,46,46,47,47,49,49,50,50,51,51,52,52,53,53,54,54],"right_children":[2,4,6,8,10,12,14,16,18,20,22,24,26,28,30,32,34,36,38,-1,40,-1,42,44,46,-1,-1,48,50,52,54,56,58,-1,-1,60,62,64,66,-1,68,70,-1,72,74,76,78,80,-1,82,84,86,88,90,92,-1,-1,-1,-1,-1,-1,-1,-1,-1,-1,-1,-1,-1,-1,-1,-1,-1,-1,-1,-1,-1,-1,-1,-1,-1,-1,-1,-1,-1,-1,-1,-1,-1,-1,-1,-1,-1,-1],"split_conditions":[5.2257133E1,7.95579E-2,-1.7723994E-2,-1.1703549E-1,4.651646E1,6.729391E1,1.8334997E1,6.3051934E0,3.8509315E1,1.2625262E0,4.7428482E1,1.814201E1,6.825042E1,4.2487225E-1,2.4747484E1,5.06702E1,7.383827E1,5.2044354E-3,4.0587196E1,2.2300033E-1,1.6068386E1,-1.8902184E-1,2.5170457E-1,1.3706387E1,-9.954025E-2,2.1343006E-1,6.3294016E-2,6.765558E1,1.3453877E1,7.261027E1,6.3569134E1,3.7623606E0,7.885049E1,-1.3212454E-1,6.2642302E-3,6.647432E1,1.4752438E1,4.560195E0,4.5464294E1,-1.3731223E-1,4.9217823E1,1.4666713E1,-5.3758886E-2,1.343498E1,-7.907495E-2,3.1402573E1,5.612636E1,1.5256735E1,1.8251751E-1,7.756231E1,2.204909E0,1.5764279E0,2.9510399E1,4.579747E1,6.453661E1,1.0344392E-1,-1.1335361E-1,2.2107817E-1,6.281755E-2,-2.153123E-2,1.6149391E-1,4.4169586E-2,-1.838766E-1,2.2906922E-1,-1.5928626E-2,-4.9128417E-2,6.0272906E-2,1.4999732E-1,-8.77035E-3,1.5934095E-2,2.1849696E-1,4.5133382E-2,-1.661241E-1,-2.2860691E-2,1.501067E-1,-7.820917E-3,1.9238825E-1,-1.3031736E-1,4.9127284E-2,-1.4133926E-1,1.49338E-1,1.7046458E-1,-1.10839866E-1,2.0446262E-1,6.556728E-2,1.3940853E-1,-1.924812E-2,-1.8362667E-1,1.8347895E-2,1.05758525E-1,2.2134262E-1,-2.1982041E-1,1.12036735E-1],"split_indices":[2,4,4,4,2,2,1,3,2,3,2,1,0,3,1,1,0,4,2,0,0,0,4,1,4,0,0,2,0,2,1,3,0,0,0,0,1,3,2,0,0,0,0,1,4,0,0,0,0,2,3,3,0,1,1,0,0,0,0,0,0,0,0,0,0,0,0,0,0,0,0,0,0,0,0,0,0,0,0,0,0,0,0,0,0,0,0,0,0,0,0,0,0],"split_type":[0,0,0,0,0,0,0,0,0,0,0,0,0,0,0,0,0,0,0,0,0,0,0,0,0,0,0,0,0,0,0,0,0,0,0,0,0,0,0,0,0,0,0,0,0,0,0,0,0,0,0,0,0,0,0,0,0,0,0,0,0,0,0,0,0,0,0,0,0,0,0,0,0,0,0,0,0,0,0,0,0,0,0,0,0,0,0,0,0,0,0,0,0],"sum_hessian":[4.6267715E2,2.0789304E2,2.5478412E2,1.7625714E2,3.1635895E1,4.436624E1,2.1041788E2,4.235247E1,1.3390466E2,2.1192636E1,1.0443257E1,3.9998398E1,4.367844E0,8.474154E1,1.2567633E2,3.9425545E1,2.9269235E0,4.1577408E1,9.2327255E1,6.280733E0,1.4911904E1,2.3122926E0,8.130965E0,1.7421383E1,2.2577015E1,2.9105713E0,1.4572729E0,6.9358215E0,7.780572E1,2.7551037E1,9.81253E1,2.9676176E1,9.749371E0,1.6355987E0,1.2913249E0,3.0690338E1,1.0887071E1,1.3806871E1,7.8520386E1,1.1844412E0,1.3727463E1,6.2862487E0,1.8447162E0,5.1542416E0,1.2267142E1,5.627656E0,1.6949358E1,3.7214682E0,3.2143533E0,2.0923132E1,5.6882587E1,2.3491049E1,4.0599875E0,8.713793E1,1.0987361E1,2.5702677E1,3.9734988E0,8.291931E0,1.4574399E0,2.6431303E1,4.2590365E0,1.8986784E0,8.988392E0,1.1165795E1,2.6410766E0,2.9132492E1,4.9387894E1,1.1788513E1,1.9389496E0,1.9630749E0,4.323174E0,3.2760763E0,1.8781651E0,1.3650568E0,1.0902085E1,2.7375443E0,2.890112E0,1.3724968E1,3.22439E0,1.9007117E0,1.8207566E0,1.95229E1,1.4002322E0,5.4952133E1,1.9304576E0,1.3811068E1,9.67998E0,2.84184E0,1.2181478E0,6.0929085E1,2.620885E1,2.9211411E0,8.066219E0],"tree_param":{"num_deleted":"0","num_feature":"5","num_nodes":"93","size_leaf_vector":"1"}},{"base_weights":[-1.8181802E-1,-3.7001398E-1,-1.14647105E-1,1.3498697E-1,-3.9506456E-1,1.2920435E-1,-1.7759424E-1,4.2996502E-1,-1.1436759E-1,-3.2855627E-1,-1.7533144E-1,-1.4210781E-1,3.5134286E-1,-9.435089E-2,-3.4307954E-1,1.9777258E-1,2.7668234E-3,-3.4889162E-1,1.291679E-1,2.7344653E-1,-1.7630477E-1,-6.9058366E-2,4.002892E-1,2.8961726E-2,-2.2345941E-1,-5.4436165E-1,-2.5769284E-1,-2.291972E-1,-4.8017588E-1,-1.373946E-1,4.099041E-1,5.2597487E-1,6.936362E-2,-1.3037564E-1,5.929934E-1,1.8016925E-1,-2.6038387E-1,-3.0271107E-1,-1.7644626E-1,6.872152E-1,-3.4382343E-1,-1.09729186E-1,5.1775347E-2,-4.0976785E-2,-1.738069E-1,1.53286E-1,-1.00873195E-1,1.0009806E-1,2.2380523E-1,1.4495288E-1,-1.513031E-1,-5.5272296E-2,1.3463387E-1,2.9885793E-1,6.521862E-2,-1.1270624E-1,-2.188094E-2,4.126268E-2,-1.3615294E-1,2.807383E-1,7.009538E-3,1.0964326E-1,-1.1266214E-1],"categories":[],"categories_nodes":[],"categories_segments":[],"categories_sizes":[],"default_left":[1,0,1,0,0,0,0,0,0,1,0,0,0,0,0,0,0,1,0,0,0,0,0,0,0,0,0,1,0,0,0,1,0,0,0,0,0,0,0,0,0,0,0,0,0,0,0,0,0,0,0,0,0,0,0,0,0,0,0,0,0,0,0],"id":11,"left_children":[1,3,5,7,9,11,13,15,-1,17,-1,19,21,23,25,-1,-1,27,-1,29,-1,-1,31,33,35,37,39,41,43,-1,45,47,49,51,53,-1,55,57,-1,59,61,-1,-1,-1,-1,-1,-1,-1,-1,-1,-1,-1,-1,-1,-1,-1,-1,-1,-1,-1,-1,-1,-1],"loss_changes":[4.4951544E0,1.242074E0,4.105685E0,9.536395E-1,9.3876934E-1,3.3738327E0,2.8857007E0,3.5763133E-1,0E0,1.2111912E0,0E0,4.8896356E0,9.6347713E-1,2.272224E0,1.0716467E0,0E0,0E0,9.504652E-1,0E0,1.5748197E0,0E0,0E0,1.1530743E0,6.698718E0,2.2752361E0,3.4715176E-2,4.420334E0,2.1051655E0,9.865589E-1,0E0,1.0946772E0,6.2180233E-1,2.3861308E0,1.9004184E0,2.268435E0,0E0,1.4282403E0,4.0474698E-1,0E0,7.418728E-1,1.2122021E0,0E0,0E0,0E0,0E0,0E0,0E0,0E0,0E0,0E0,0E0,0E0,0E0,0E0,0E0,0E0,0E0,0E0,0E0,0E0,0E0,0E0,0E0],"parents":[2147483647,0,0,1,1,2,2,3,3,4,4,5,5,6,6,7,7,9,9,11,11,12,12,13,13,14,14,17,17,19,19,22,22,23,23,24,24,25,25,26,26,27,27,28,28,30,30,31,31,32,32,33,33,34,34,36,36,37,37,39,39,40,40],"right_children":[2,4,6,8,10,12,14,16,-1,18,-1,20,22,24,26,-1,-1,28,-1,30,-1,-1,32,34,36,38,40,42,44,-1,46,48,50,52,54,-1,56,58,-1,60,62,-1,-1,-1,-1,-1,-1,-1,-1,-1,-1,-1,-1,-1,-1,-1,-1,-1,-1,-1,-1,-1,-1],"split_conditions":[9.278124E-1,1.1327459E1,1.8226082E1,6.765558E1,5.727107E-2,1.1706398E0,4.122155E-2,1.1708142E1,-1.1436759E-1,2.0075375E1,-1.7533144E-1,7.7959574E-3,3.1491247E1,4.32753E1,2.6571117E1,1.9777258E-1,2.7668234E-3,1.394517E1,1.291679E-1,1.3016701E1,-1.7630477E-1,-6.9058366E-2,8.405129E-2,3.5229233E1,2.5568146E1,1.2151282E0,2.3415102E1,1.2929883E1,4.2695187E1,-1.373946E-1,5.554181E1,1.8334997E1,6.1101566E1,4.560195E0,3.8432747E1,1.8016925E-1,6.0919262E1,6.3766426E1,-1.7644626E-1,2.8897007E1,2.6903423E1,-1.09729186E-1,5.1775347E-2,-4.0976785E-2,-1.738069E-1,1.53286E-1,-1.00873195E-1,1.0009806E-1,2.2380523E-1,1.4495288E-1,-1.513031E-1,-5.5272296E-2,1.3463387E-1,2.9885793E-1,6.521862E-2,-1.1270624E-1,-2.188094E-2,4.126268E-2,-1.3615294E-1,2.807383E-1,7.009538E-3,1.0964326E-1,-1.1266214E-1],"split_indices":[3,1,0,2,4,3,4,0,0,0,0,4,2,0,0,0,0,1,0,1,0,0,4,1,2,3,1,1,2,0,2,1,2,3,1,0,1,2,0,0,0,0,0,0,0,0,0,0,0,0,0,0,0,0,0,0,0,0,0,0,0,0,0],"split_type":[0,0,0,0,0,0,0,0,0,0,0,0,0,0,0,0,0,0,0,0,0,0,0,0,0,0,0,0,0,0,0,0,0,0,0,0,0,0,0,0,0,0,0,0,0,0,0,0,0,0,0,0,0,0,0,0,0,0,0,0,0,0,0],"sum_hessian":[3.5794867E2,9.296779E1,2.6498087E2,4.1863093E0,8.878148E1,5.4151257E1,2.1082962E2,2.770338E0,1.4159713E0,6.7729675E1,2.1051804E1,2.4539656E1,2.9611599E1,1.4131479E2,6.951482E1,1.4262636E0,1.3440745E0,6.648895E1,1.2407222E0,1.2897461E1,1.1642195E1,2.0113633E0,2.7600237E1,7.267652E1,6.8638275E1,1.9104507E1,5.041031E1,3.6215965E1,3.0272991E1,1.657397E0,1.1240064E1,1.95759E1,8.024339E0,5.7267475E1,1.540905E1,2.2890959E0,6.6349174E1,4.1449203E0,1.4959587E1,3.628172E0,4.678214E1,2.7095703E1,9.120261E0,7.3136835E0,2.2959307E1,1.0177024E1,1.0630405E0,1.1788888E1,7.78701E0,4.7534757E0,3.2708626E0,5.3018295E1,4.24918E0,6.634603E0,8.7744465E0,4.0458138E1,2.5891039E1,1.0822387E0,3.0626817E0,2.341681E0,1.286491E0,1.5519578E0,4.523018E1],"tree_param":{"num_deleted":"0","num_feature":"5","num_nodes":"63","size_leaf_vector":"1"}},{"base_weights":[-1.7430772E-1,-3.3462352E-1,-9.21844E-2,-1.23581305E-1,-4.6244836E-1,1.8161799E-1,-1.3254224E-1,-1.8679796E-1,4.294064E-1,-2.4872494E-1,-5.1767784E-1,2.9946667E-1,-1.8169385E-1,-1.5494744E-1,3.8473952E-1,-2.2438353E-1,1.6326699E-1,1.9574668E-1,-7.1356753E-3,-1.5370789E-1,-4.9982373E-2,-1.660513E-1,-1.6999947E-1,-9.6516736E-2,4.9808848E-1,-1.5839949E-1,1.6638573E-1,-1.7466587E-1,-1.3301781E-1,-6.273197E-2,1.9290398E-1,-1.0942747E-1,-1.6437869E-1,3.8571018E-1,-1.4289178E-1,1.896802E-1,-1.3809273E-1,-3.9910996E-1,2.314056E-1,9.5252715E-2,2.2371477E-1,1.5587434E-1,-1.7279768E-1,1.7546194E-2,-4.092047E-2,-1.148259E-1,2.2311423E-2,3.2010626E-3,1.6152744E-1,-1.5566804E-1,3.0887589E-2,-1.3184157E-1,1.3194066E-1,-5.3008795E-2,2.1797396E-1,-2.8619511E-2,-1.0197239E-1],"categories":[],"categories_nodes":[],"categories_segments":[],"categories_sizes":[],"default_left":[0,0,0,0,0,0,1,0,0,0,0,0,0,0,0,0,0,0,0,0,0,0,0,0,0,0,0,0,0,0,0,0,0,0,0,0,0,0,0,0,0,0,0,0,0,0,0,0,0,0,0,0,0,0,0,0,0],"id":12,"left_children":[1,3,5,7,9,11,13,15,17,19,21,23,25,27,29,31,-1,-1,-1,-1,33,-1,35,37,39,-1,-1,-1,41,43,-1,45,-1,47,-1,-1,-1,49,-1,51,-1,53,55,-1,-1,-1,-1,-1,-1,-1,-1,-1,-1,-1,-1,-1,-1],"loss_changes":[4.204734E0,2.8723965E0,2.3900871E0,1.5599381E0,6.6525936E-1,1.2501712E0,2.2291045E0,1.1849624E0,4.8519188E-1,7.9900354E-1,5.6021786E-1,1.7363414E0,2.195733E0,1.6103706E0,9.716381E-1,1.3347762E0,0E0,0E0,0E0,0E0,2.0563352E0,0E0,1.7701111E0,2.4108317E0,1.3711362E0,0E0,0E0,0E0,2.0108562E0,4.244936E-2,0E0,1.4812297E0,0E0,3.1147122E-1,0E0,0E0,0E0,4.5014775E-1,0E0,1.4185206E0,0E0,4.193885E0,1.9363375E0,0E0,0E0,0E0,0E0,0E0,0E0,0E0,0E0,0E0,0E0,0E0,0E0,0E0,0E0],"parents":[2147483647,0,0,1,1,2,2,3,3,4,4,5,5,6,6,7,7,8,8,9,9,10,10,11,11,12,12,13,13,14,14,15,15,20,20,22,22,23,23,24,24,28,28,29,29,31,31,33,33,37,37,39,39,41,41,42,42],"right_children":[2,4,6,8,10,12,14,16,18,20,22,24,26,28,30,32,-1,-1,-1,-1,34,-1,36,38,40,-1,-1,-1,42,44,-1,46,-1,48,-1,-1,-1,50,-1,52,-1,54,56,-1,-1,-1,-1,-1,-1,-1,-1,-1,-1,-1,-1,-1,-1],"split_conditions":[1.9144241E1,5.166519E1,2.4747484E1,5.10288E1,5.6490684E-1,2.435277E1,7.170968E1,1.5397287E1,1.02210306E-1,5.9078342E1,7.756231E1,2.0045979E1,2.974436E1,2.5471436E1,-1.239344E-1,1.0627953E0,1.6326699E-1,1.9574668E-1,-7.1356753E-3,-1.5370789E-1,6.800963E1,-1.660513E-1,1.3664438E1,6.1713562E1,3.9438835E1,-1.5839949E-1,1.6638573E-1,-1.7466587E-1,2.975821E1,-1.8566522E-1,1.9290398E-1,7.0142764E-1,-1.6437869E-1,1.3563883E1,-1.4289178E-1,1.896802E-1,-1.3809273E-1,4.1386995E0,2.314056E-1,2.0307232E1,2.2371477E-1,4.5933987E1,4.6231132E-2,1.7546194E-2,-4.092047E-2,-1.148259E-1,2.2311423E-2,3.2010626E-3,1.6152744E-1,-1.5566804E-1,3.0887589E-2,-1.3184157E-1,1.3194066E-1,-5.3008795E-2,2.1797396E-1,-2.8619511E-2,-1.0197239E-1],"split_indices":[1,2,1,2,3,0,1,1,4,2,2,0,0,1,4,3,0,0,0,0,2,0,0,2,2,0,0,0,1,4,0,3,0,1,0,0,0,3,0,1,0,2,4,0,0,0,0,0,0,0,0,0,0,0,0,0,0],"split_type":[0,0,0,0,0,0,0,0,0,0,0,0,0,0,0,0,0,0,0,0,0,0,0,0,0,0,0,0,0,0,0,0,0,0,0,0,0,0,0,0,0,0,0,0,0,0,0,0,0,0,0,0,0,0,0,0,0],"sum_hessian":[3.207141E2,1.0759651E2,2.1311758E2,4.1328636E1,6.6267876E1,2.6927992E1,1.8618959E2,3.7682983E1,3.645655E0,1.4738251E1,5.152963E1,2.0465319E1,6.4626737E0,1.7913129E2,7.0583167E0,3.6499413E1,1.1835679E0,2.1483655E0,1.4972894E0,5.656638E0,9.081613E0,4.6179108E1,5.3505206E0,7.00795E0,1.3457369E1,4.5878305E0,1.874843E0,7.497731E0,1.7163354E2,2.8601248E0,4.198192E0,2.7918242E1,8.581171E0,4.538568E0,4.5430446E0,1.1087096E0,4.241811E0,5.5967126E0,1.4112371E0,5.6502705E0,7.8070984E0,2.0419954E1,1.512136E2,1.1590532E0,1.7010717E0,1.0790032E1,1.712821E1,1.6228954E0,2.9156728E0,4.491597E0,1.1051155E0,2.106141E0,3.5441291E0,1.3337886E1,7.0820684E0,1.0442066E2,4.6792927E1],"tree_param":{"num_deleted":"0","num_feature":"5","num_nodes":"57","size_leaf_vector":"1"}},{"base_weights":[2.3936974E-1,1.5836342E-1,3.604939E-1,2.9405764E-1,5.896765E-2,-3.4859484E-1,3.8188478E-1,2.048931E-1,5.659972E-1,-2.0541742E-1,1.3339545E-1,-1.7186956E-1,5.559921E-2,5.1336336E-1,2.8088516E-1,4.295192E-1,1.141454E-1,3.0964375E-1,6.1652696E-1,1.13406815E-1,-3.9948145E-1,1.6184275E-1,-2.4078596E-1,3.5706285E-1,5.694721E-1,3.9233427E-2,3.666477E-1,2.0409824E-1,5.670589E-1,-3.141126E-1,1.724374E-1,5.889621E-1,-5.589057E-2,2.6247022E-1,6.847102E-1,-1.4778002E-1,2.2202627E-1,1.1268491E-1,-5.8275354E-1,8.3951324E-2,3.799462E-1,9.964495E-2,-4.5868284E-1,5.262232E-1,7.942866E-2,3.2782438E-1,1.820382E-1,5.504555E-1,-1.16231844E-1,4.4886178E-1,2.2154048E-2,2.0560756E-1,-6.5066274E-3,1.8774778E-1,1.9961832E-2,-2.490611E-1,4.194862E-2,-9.7473145E-2,6.428392E-2,2.0783502E-1,6.4874545E-2,1.493913E-1,-1.0311014E-1,2.161647E-1,4.9081713E-2,-5.4208588E-2,1.2585725E-1,-9.022181E-2,1.2203637E-1,-1.0668897E-1,-2.2789288E-1,1.7249022E-1,1.1331361E-2,1.7416802E-1,8.170277E-2,-1.0064669E-1,1.0318868E-1,-1.9582601E-2,-1.6787888E-1,-3.647937E-2,1.83891E-1,-1.753723E-1,9.656332E-2,1.4148629E-1,-1.0481433E-2,3.1064743E-2,1.9537921E-1,-1.9148985E-1,2.1038452E-2,9.85518E-2,1.9394808E-1,-7.80938E-2,1.1619184E-1],"categories":[],"categories_nodes":[],"categories_segments":[],"categories_sizes":[],"default_left":[0,0,0,0,1,0,1,1,0,0,0,0,0,0,0,0,0,0,0,0,0,0,0,0,0,0,0,0,0,0,0,0,0,0,0,0,0,0,0,0,0,0,0,0,0,0,0,0,0,0,0,0,0,0,0,0,0,0,0,0,0,0,0,0,0,0,0,0,0,0,0,0,0,0,0,0,0,0,0,0,0,0,0,0,0,0,0,0,0,0,0,0,0],"id":13,"left_children":[1,3,5,7,9,11,13,15,17,19,21,-1,-1,23,25,27,29,31,33,35,37,39,41,43,45,47,49,51,53,55,57,59,-1,61,63,-1,65,67,69,71,73,75,77,79,81,83,-1,85,87,89,91,-1,-1,-1,-1,-1,-1,-1,-1,-1,-1,-1,-1,-1,-1,-1,-1,-1,-1,-1,-1,-1,-1,-1,-1,-1,-1,-1,-1,-1,-1,-1,-1,-1,-1,-1,-1,-1,-1,-1,-1,-1,-1],"loss_changes":[4.273838E0,3.5741744E0,2.8044033E0,2.60785E0,3.0764756E0,7.8641486E-1,2.132309E0,1.7073686E0,1.6104889E-1,2.1757085E0,1.3324745E0,0E0,0E0,4.3922806E-1,2.0407214E0,6.4174604E-1,1.6202241E0,1.0077584E0,3.4384155E-1,1.0182166E0,2.0955222E0,1.8968198E0,7.1240807E-1,9.9310017E-1,2.721691E-1,2.217362E0,2.0595055E0,1.1906278E0,3.881302E-1,1.9598796E0,1.2321299E0,1.9959569E-2,0E0,9.025861E-1,2.1013546E-1,0E0,1.0618919E0,9.1715676E-1,3.7620163E-1,1.9042934E0,4.8069143E-1,5.7563186E-1,1.8811953E-1,8.340287E-1,1.7208633E0,4.9447322E-1,0E0,2.250613E-1,2.1464586E0,1.1895313E0,1.6613778E0,0E0,0E0,0E0,0E0,0E0,0E0,0E0,0E0,0E0,0E0,0E0,0E0,0E0,0E0,0E0,0E0,0E0,0E0,0E0,0E0,0E0,0E0,0E0,0E0,0E0,0E0,0E0,0E0,0E0,0E0,0E0,0E0,0E0,0E0,0E0,0E0,0E0,0E0,0E0,0E0,0E0,0E0],"parents":[2147483647,0,0,1,1,2,2,3,3,4,4,5,5,6,6,7,7,8,8,9,9,10,10,13,13,14,14,15,15,16,16,17,17,18,18,19,19,20,20,21,21,22,22,23,23,24,24,25,25,26,26,27,27,28,28,29,29,30,30,31,31,33,33,34,34,36,36,37,37,38,38,39,39,40,40,41,41,42,42,43,43,44,44,45,45,47,47,48,48,49,49,50,50],"right_children":[2,4,6,8,10,12,14,16,18,20,22,-1,-1,24,26,28,30,32,34,36,38,40,42,44,46,48,50,52,54,56,58,60,-1,62,64,-1,66,68,70,72,74,76,78,80,82,84,-1,86,88,90,92,-1,-1,-1,-1,-1,-1,-1,-1,-1,-1,-1,-1,-1,-1,-1,-1,-1,-1,-1,-1,-1,-1,-1,-1,-1,-1,-1,-1,-1,-1,-1,-1,-1,-1,-1,-1,-1,-1,-1,-1,-1,-1],"split_conditions":[3.6268387E-2,2.0045979E1,3.563444E1,1.5535197E1,2.7226109E1,4.208454E0,1.8334997E1,1.2240601E1,4.7428482E1,-8.610222E-2,7.066876E1,-1.7186956E-1,5.559921E-2,5.2028732E1,2.4747484E1,5.8670242E1,1.2276848E1,1.6353857E1,-4.3918155E-2,2.0209005E1,1.842293E1,5.8104076E1,-1.239344E-1,4.6806328E1,4.9918175E-1,1.5336536E1,6.2957138E1,-1.0801131E-1,2.6583947E-2,8.0444634E-1,4.7487104E-1,3.4505455E1,-5.589057E-2,1.3055872E0,1.96853E1,-1.4778002E-1,3.3409138E1,1.150923E0,2.6558565E1,-1.8385914E-1,6.452233E1,7.383827E1,3.701748E0,6.379795E-1,4.7428482E1,4.8981664E-1,1.820382E-1,6.3053005E1,1.7333006E1,4.3389896E1,6.676046E1,2.0560756E-1,-6.5066274E-3,1.8774778E-1,1.9961832E-2,-2.490611E-1,4.194862E-2,-9.7473145E-2,6.428392E-2,2.0783502E-1,6.4874545E-2,1.493913E-1,-1.0311014E-1,2.161647E-1,4.9081713E-2,-5.4208588E-2,1.2585725E-1,-9.022181E-2,1.2203637E-1,-1.0668897E-1,-2.2789288E-1,1.7249022E-1,1.1331361E-2,1.7416802E-1,8.170277E-2,-1.0064669E-1,1.0318868E-1,-1.9582601E-2,-1.6787888E-1,-3.647937E-2,1.83891E-1,-1.753723E-1,9.656332E-2,1.4148629E-1,-1.0481433E-2,3.1064743E-2,1.9537921E-1,-1.9148985E-1,2.1038452E-2,9.85518E-2,1.9394808E-1,-7.80938E-2,1.1619184E-1],"split_indices":[4,0,2,0,0,3,1,1,2,4,1,0,0,2,1,2,0,0,4,0,1,0,4,2,3,0,1,4,4,3,3,2,0,3,0,0,2,3,1,4,0,0,3,3,2,3,0,2,0,1,0,0,0,0,0,0,0,0,0,0,0,0,0,0,0,0,0,0,0,0,0,0,0,0,0,0,0,0,0,0,0,0,0,0,0,0,0,0,0,0,0,0,0],"split_type":[0,0,0,0,0,0,0,0,0,0,0,0,0,0,0,0,0,0,0,0,0,0,0,0,0,0,0,0,0,0,0,0,0,0,0,0,0,0,0,0,0,0,0,0,0,0,0,0,0,0,0,0,0,0,0,0,0,0,0,0,0,0,0,0,0,0,0,0,0,0,0,0,0,0,0,0,0,0,0,0,0,0,0,0,0,0,0,0,0,0,0,0,0],"sum_hessian":[4.403987E2,2.6528613E2,1.7511256E2,1.1133463E2,1.539515E2,4.679951E0,1.7043262E2,8.516415E1,2.6170485E1,3.343227E1,1.2051924E2,3.2441013E0,1.4358498E0,7.227029E1,9.816232E1,2.343149E1,6.173266E1,5.4827476E0,2.0687738E1,1.2807191E1,2.0625078E1,1.1253147E2,7.9877744E0,2.103564E1,5.123465E1,2.60943E1,7.206802E1,9.820342E0,1.3611148E1,6.8702083E0,5.486245E1,3.3873992E0,2.0953484E0,4.1237445E0,1.6563993E1,1.4093094E0,1.13978815E1,5.536922E0,1.5088157E1,8.393915E1,2.8592321E1,3.329161E0,4.658613E0,1.2514977E1,8.520662E0,8.163326E0,4.3071323E1,5.4924803E0,2.060182E1,5.7938038E1,1.412999E1,2.4860206E0,7.334321E0,1.1956911E1,1.6542367E0,2.8271317E0,4.0430765E0,3.7324576E0,5.1129993E1,1.9777354E0,1.4096637E0,3.0984688E0,1.0252757E0,1.5140011E1,1.4239826E0,3.7783847E0,7.619497E0,2.2921927E0,3.2447293E0,7.9241357E0,7.1640215E0,6.2314906E0,7.770766E1,8.447547E0,2.0144775E1,1.0629166E0,2.2662444E0,1.287231E0,3.3713825E0,1.4304774E0,1.10845E1,1.9015913E0,6.6190715E0,5.631111E0,2.532215E0,1.3840165E0,4.108464E0,4.7815976E0,1.5820222E1,3.7663532E1,2.0274504E1,8.12891E0,6.00108E0],"tree_param":{"num_deleted":"0","num_feature":"5","num_nodes":"93","size_leaf_vector":"1"}},{"base_weights":[-1.4914812E-1,-3.2525164E-1,-9.018953E-2,-1.08730994E-1,-3.8348725E-1,2.6519641E-2,-1.9045717E-1,2.3170759E-1,-3.204042E-1,-8.105919E-2,-4.449407E-1,1.8383898E-1,-1.1516474E-1,-3.0054957E-2,-3.4059817E-1,5.184556E-1,-1.1898155E-1,3.131915E-2,-4.4911298E-1,1.3757053E-1,-1.4377066E-1,-4.7088414E-1,6.607534E-2,4.689837E-1,7.516652E-2,-4.6018225E-1,1.2336084E-2,-2.8980827E-1,7.660565E-2,-4.4456822E-1,-1.8096553E-1,1.633173E-2,7.5335133E-1,-1.1747677E-1,1.7602494E-1,-1.5907407E-1,1.7165376E-2,2.1102388E-1,-7.2354525E-2,-1.2872034E-1,-5.272013E-1,8.01899E-2,6.729723E-1,-2.5636917E-1,2.3659709E-1,-5.0804573E-1,3.537321E-2,1.7566603E-1,-2.8877386E-1,8.7104894E-2,-3.532652E-1,2.2893575E-1,-2.470881E-1,-2.7913713E-1,-1.699791E-1,1.6330154E-1,-2.4939752E-1,2.8635255E-1,3.6253687E-2,6.7242235E-2,-1.3888174E-1,1.2083452E-1,-1.522805E-1,-9.560583E-2,-1.7033008E-1,1.5117355E-1,-6.094874E-2,2.253902E-1,5.320814E-2,9.3099015E-4,-1.7182484E-1,-5.6335274E-2,9.580686E-2,2.3018772E-2,-1.6813064E-1,1.1286174E-2,1.6233358E-1,8.1340306E-2,-1.3126335E-1,-1.5987445E-1,4.2003477E-3,1.0846396E-1,-1.1454134E-1,1.8819553E-1,-1.25188E-1,-1.06441684E-1,1.3071992E-1,6.1610237E-2,-9.405311E-2],"categories":[],"categories_nodes":[],"categories_segments":[],"categories_sizes":[],"default_left":[1,0,0,0,0,0,0,0,0,0,1,1,0,0,0,0,0,0,0,0,0,0,0,0,0,1,0,0,0,0,0,0,0,0,0,0,0,0,0,0,1,0,0,0,0,0,0,0,0,0,0,0,0,0,0,0,0,0,0,0,0,0,0,0,0,0,0,0,0,0,0,0,0,0,0,0,0,0,0,0,0,0,0,0,0,0,0,0,0],"id":14,"left_children":[1,3,5,7,9,11,13,15,17,19,21,23,25,27,29,31,-1,33,35,37,-1,39,-1,41,43,45,47,49,51,53,55,-1,57,-1,-1,-1,-1,-1,59,61,63,65,67,69,71,73,-1,75,77,-1,79,81,83,85,-1,-1,87,-1,-1,-1,-1,-1,-1,-1,-1,-1,-1,-1,-1,-1,-1,-1,-1,-1,-1,-1,-1,-1,-1,-1,-1,-1,-1,-1,-1,-1,-1,-1,-1],"loss_changes":[3.4221501E0,1.0048065E0,2.9355953E0,1.4424652E0,1.1721268E0,2.6202285E0,3.2367282E0,1.6216772E0,5.630624E-1,1.1281124E0,1.0322742E0,1.6888334E0,2.7315276E0,1.8585576E0,1.0737534E0,5.944469E-1,0E0,1.2125028E0,3.9774275E-1,1.0788106E0,0E0,9.3619823E-1,0E0,1.1485512E0,2.280451E0,5.232675E-1,2.323784E0,8.205793E-1,2.4124336E0,6.7814827E-1,1.5808785E0,0E0,3.672228E-1,0E0,0E0,0E0,0E0,0E0,9.3973047E-1,1.9538252E0,1.9477558E-1,8.6512715E-1,2.4755383E-1,1.1561542E0,1.0579094E0,5.2258635E-1,0E0,1.5226911E0,1.5040485E0,0E0,1.1971574E0,2.811386E0,2.6088364E0,1.2125119E0,0E0,0E0,8.600935E-1,0E0,0E0,0E0,0E0,0E0,0E0,0E0,0E0,0E0,0E0,0E0,0E0,0E0,0E0,0E0,0E0,0E0,0E0,0E0,0E0,0E0,0E0,0E0,0E0,0E0,0E0,0E0,0E0,0E0,0E0,0E0,0E0],"parents":[2147483647,0,0,1,1,2,2,3,3,4,4,5,5,6,6,7,7,8,8,9,9,10,10,11,11,12,12,13,13,14,14,15,15,17,17,18,18,19,19,21,21,23,23,24,24,25,25,26,26,27,27,28,28,29,29,30,30,32,32,38,38,39,39,40,40,41,41,42,42,43,43,44,44,45,45,47,47,48,48,50,50,51,51,52,52,53,53,56,56],"right_children":[2,4,6,8,10,12,14,16,18,20,22,24,26,28,30,32,-1,34,36,38,-1,40,-1,42,44,46,48,50,52,54,56,-1,58,-1,-1,-1,-1,-1,60,62,64,66,68,70,72,74,-1,76,78,-1,80,82,84,86,-1,-1,88,-1,-1,-1,-1,-1,-1,-1,-1,-1,-1,-1,-1,-1,-1,-1,-1,-1,-1,-1,-1,-1,-1,-1,-1,-1,-1,-1,-1,-1,-1,-1,-1],"split_conditions":[9.278124E-1,1.23878355E1,2.2331111E0,5.396401E-1,4.528876E1,2.4072998E-3,4.4872494E1,6.88459E1,1.0167654E1,1.4979429E1,2.12706E1,1.4666713E1,1.1959081E0,3.5130033E0,6.543491E1,1.1470046E1,-1.1898155E-1,1.23198395E1,1.2276848E1,1.4227012E1,-1.4377066E-1,-6.308769E-2,6.607534E-2,1.3052032E1,4.432225E1,2.245429E1,6.3630512E1,2.3871687E1,5.014117E0,5.2257133E1,-3.744026E-2,1.633173E-2,5.727107E-2,-1.1747677E-1,1.7602494E-1,-1.5907407E-1,1.7165376E-2,2.1102388E-1,6.457487E-1,1.3452193E1,4.7487104E-1,3.751378E1,6.3630512E1,3.8509315E1,1.96853E1,9.3366355E-1,3.537321E-2,1.9228415E0,1.2421911E0,8.7104894E-2,4.0587196E1,5.10525E-2,2.5568146E1,5.1812374E1,-1.699791E-1,1.6330154E-1,3.1907536E1,2.8635255E-1,3.6253687E-2,6.7242235E-2,-1.3888174E-1,1.2083452E-1,-1.522805E-1,-9.560583E-2,-1.7033008E-1,1.5117355E-1,-6.094874E-2,2.253902E-1,5.320814E-2,9.3099015E-4,-1.7182484E-1,-5.6335274E-2,9.580686E-2,2.3018772E-2,-1.6813064E-1,1.1286174E-2,1.6233358E-1,8.1340306E-2,-1.3126335E-1,-1.5987445E-1,4.2003477E-3,1.0846396E-1,-1.1454134E-1,1.8819553E-1,-1.25188E-1,-1.06441684E-1,1.3071992E-1,6.1610237E-2,-9.405311E-2],"split_indices":[3,0,3,3,2,4,2,2,0,1,0,0,3,3,2,0,0,1,0,0,0,4,0,0,2,0,2,0,3,2,4,0,4,0,0,0,0,0,3,1,3,2,2,2,0,3,0,3,3,0,2,4,2,2,0,0,1,0,0,0,0,0,0,0,0,0,0,0,0,0,0,0,0,0,0,0,0,0,0,0,0,0,0,0,0,0,0,0,0],"split_type":[0,0,0,0,0,0,0,0,0,0,0,0,0,0,0,0,0,0,0,0,0,0,0,0,0,0,0,0,0,0,0,0,0,0,0,0,0,0,0,0,0,0,0,0,0,0,0,0,0,0,0,0,0,0,0,0,0,0,0,0,0,0,0,0,0,0,0,0,0,0,0,0,0,0,0,0,0,0,0,0,0,0,0,0,0,0,0,0,0],"sum_hessian":[3.3142285E2,8.199506E1,2.494278E2,1.798685E1,6.400821E1,1.1560352E2,1.3382426E2,6.8596616E0,1.112719E1,1.1201549E1,5.280666E1,5.4638313E1,6.0965206E1,6.528143E1,6.854284E1,4.8301377E0,2.0295236E0,3.1837106E0,7.9434795E0,7.653617E0,3.5479312E0,5.1105576E1,1.7010843E0,1.4162329E1,4.0475986E1,1.5746337E1,4.521887E1,1.8503143E1,4.677829E1,4.042727E1,2.8115568E1,2.037328E0,2.79281E0,1.9749513E0,1.2087592E0,6.8057075E0,1.137772E0,1.4349637E0,6.2186537E0,7.6870875E0,4.3418488E1,5.3529463E0,8.809382E0,1.3061995E1,2.741399E1,1.4654203E1,1.0921329E0,2.9586811E1,1.5632058E1,1.4717802E0,1.7031363E1,3.2008057E1,1.4770234E1,1.8557217E1,2.1870052E1,1.8244071E0,2.629116E1,1.7326734E0,1.0601366E0,3.7773688E0,2.4412847E0,3.1729412E0,4.5141463E0,8.513504E0,3.4904984E1,1.833203E0,3.5197434E0,7.1616273E0,1.6477554E0,7.7204356E0,5.341559E0,4.2665334E0,2.3147457E1,1.1667144E0,1.348749E1,2.2275347E1,7.311463E0,3.108922E0,1.2523136E1,1.1134065E1,5.897298E0,2.6633179E1,5.3748755E0,1.9690163E0,1.2801218E1,1.7236431E1,1.3207854E0,2.9763207E0,2.331484E1],"tree_param":{"num_deleted":"0","num_feature":"5","num_nodes":"89","size_leaf_vector":"1"}},{"base_weights":[-1.4257891E-1,-2.3341621E-1,-2.1634046E-2,-4.6088506E-2,-2.841853E-1,1.7371696E-1,-8.470348E-2,-1.6087313E-1,5.4928467E-2,-1.3238229E-1,-3.3836243E-1,3.2367188E-1,-3.1455022E-1,-3.6382686E-2,-1.574754E-1,-6.1924927E-2,3.945025E-1,-2.5823805E-1,3.9224166E-1,-3.4952256E-1,5.9541363E-2,-3.1617028E-1,4.5684546E-1,-1.5113947E-1,4.183373E-2,-3.8139185E-1,4.6072993E-2,1.2502298E-1,-1.5546605E-1,-3.1199334E-2,5.5739796E-1,7.912056E-2,-3.1244212E-1,-3.4522474E-2,5.665606E-1,-1.6001964E-1,-3.1703192E-1,-1.3786273E-1,2.333239E-2,3.3676118E-2,5.684055E-1,-1.02378435E-1,1.2158241E-1,-9.450725E-2,-1.7198901E-1,5.811279E-1,-5.2634027E-2,-9.741559E-2,8.412407E-2,2.2938007E-1,3.495124E-2,-1.3727742E-1,-4.2494133E-2,2.4816541E-1,-9.2889685E-3,-4.627332E-2,-1.1272883E-1,-9.861796E-2,1.4352477E-1,7.436809E-2,2.1739227E-1,2.6653603E-1,-1.20406836E-1,2.4333446E-1,-5.2156508E-2,-5.577614E-2,7.396471E-2],"categories":[],"categories_nodes":[],"categories_segments":[],"categories_sizes":[],"default_left":[1,0,0,0,1,0,0,0,0,1,0,0,0,0,0,0,0,0,0,0,0,0,0,0,0,0,0,0,0,0,0,0,0,0,0,0,1,0,0,0,0,0,0,0,0,0,0,0,0,0,0,0,0,0,0,0,0,0,0,0,0,0,0,0,0,0,0],"id":15,"left_children":[1,3,5,7,9,11,13,-1,15,17,19,21,23,25,-1,27,29,31,33,35,-1,37,39,-1,41,43,45,47,-1,-1,49,-1,51,-1,53,-1,55,-1,-1,57,59,-1,-1,61,-1,63,65,-1,-1,-1,-1,-1,-1,-1,-1,-1,-1,-1,-1,-1,-1,-1,-1,-1,-1,-1,-1],"loss_changes":[3.2805567E0,1.610218E0,1.6087162E0,1.8906407E0,1.0580683E0,2.4376857E0,2.075575E0,0E0,1.2971025E0,2.5385747E0,6.5760994E-1,2.2661722E0,5.6083643E-1,2.5724182E0,0E0,2.1740153E0,7.357688E-1,9.4178724E-1,7.3191357E-1,4.0769577E-1,0E0,3.11407E-1,9.7315407E-1,0E0,6.533393E-1,9.0548635E-1,3.905869E0,1.3731453E0,0E0,0E0,5.000105E-1,0E0,6.286967E-1,0E0,9.258231E-1,0E0,7.500582E-1,0E0,0E0,1.0353826E0,6.5016747E-1,0E0,0E0,2.8250575E0,0E0,2.1397913E0,2.5527172E0,0E0,0E0,0E0,0E0,0E0,0E0,0E0,0E0,0E0,0E0,0E0,0E0,0E0,0E0,0E0,0E0,0E0,0E0,0E0,0E0],"parents":[2147483647,0,0,1,1,2,2,3,3,4,4,5,5,6,6,8,8,9,9,10,10,11,11,12,12,13,13,15,15,16,16,17,17,18,18,19,19,21,21,22,22,24,24,25,25,26,26,27,27,30,30,32,32,34,34,36,36,39,39,40,40,43,43,45,45,46,46],"right_children":[2,4,6,8,10,12,14,-1,16,18,20,22,24,26,-1,28,30,32,34,36,-1,38,40,-1,42,44,46,48,-1,-1,50,-1,52,-1,54,-1,56,-1,-1,58,60,-1,-1,62,-1,64,66,-1,-1,-1,-1,-1,-1,-1,-1,-1,-1,-1,-1,-1,-1,-1,-1,-1,-1,-1,-1],"split_conditions":[2.348096E0,-5.40953E-2,3.1402573E1,3.6332138E1,4.8818523E1,3.4358E1,6.976855E1,-1.6087313E-1,1.5041323E0,4.6806328E1,6.354718E1,2.245429E1,7.675906E-2,3.8919468E1,-1.574754E-1,9.278124E-1,2.0307232E1,1.283842E1,5.790616E-1,1.2546486E1,5.9541363E-2,3.7777805E1,2.7698848E0,-1.5113947E-1,2.6571117E1,2.9243258E1,2.7018533E0,1.4171148E1,-1.5546605E-1,-3.1199334E-2,3.0496252E1,7.912056E-2,1.54337635E1,-3.4522474E-2,2.2213892E1,-1.6001964E-1,1.4732891E1,-1.3786273E-1,2.333239E-2,2.974436E1,3.3409138E1,-1.02378435E-1,1.2158241E-1,2.7565134E0,-1.7198901E-1,1.7596947E-2,5.0453277E0,-9.741559E-2,8.412407E-2,2.2938007E-1,3.495124E-2,-1.3727742E-1,-4.2494133E-2,2.4816541E-1,-9.2889685E-3,-4.627332E-2,-1.1272883E-1,-9.861796E-2,1.4352477E-1,7.436809E-2,2.1739227E-1,2.6653603E-1,-1.20406836E-1,2.4333446E-1,-5.2156508E-2,-5.577614E-2,7.396471E-2],"split_indices":[3,4,0,2,2,1,2,0,3,2,0,0,4,1,0,3,1,1,3,0,0,2,3,0,0,1,3,1,0,0,0,0,0,0,0,0,1,0,0,0,2,0,0,3,0,4,3,0,0,0,0,0,0,0,0,0,0,0,0,0,0,0,0,0,0,0,0],"split_type":[0,0,0,0,0,0,0,0,0,0,0,0,0,0,0,0,0,0,0,0,0,0,0,0,0,0,0,0,0,0,0,0,0,0,0,0,0,0,0,0,0,0,0,0,0,0,0,0,0,0,0,0,0,0,0,0,0,0,0,0,0,0,0,0,0,0,0],"sum_hessian":[2.9806378E2,1.6968765E2,1.2837614E2,3.658908E1,1.3309857E2,3.0902987E1,9.747316E1,5.5159755E0,3.1073107E1,3.5913464E1,9.7185104E1,2.3900002E1,7.0029836E0,8.88077E1,8.665462E0,2.3726158E1,7.3469486E0,2.9374397E1,6.539067E0,9.55477E1,1.6374036E0,3.880714E0,2.0019289E1,4.303885E0,2.6990988E0,1.6431206E1,7.2376495E1,1.7345547E1,6.38061E0,1.8985338E0,5.448415E0,2.3997495E0,2.6974648E1,1.7591914E0,4.7798753E0,1.2032793E1,8.351491E1,2.7231407E0,1.1575732E0,4.4482107E0,1.5571077E1,1.3437295E0,1.3553694E0,7.1840343E0,9.247171E0,1.0511277E1,6.1865215E1,4.174306E0,1.3171242E1,3.2070336E0,2.241381E0,1.3674371E1,1.3300277E1,3.0604205E0,1.7194546E0,2.3103611E1,6.0411293E1,2.594721E0,1.8534898E0,5.950494E0,9.620584E0,1.2581766E0,5.925858E0,7.999943E0,2.5113342E0,4.306035E1,1.8804867E1],"tree_param":{"num_deleted":"0","num_feature":"5","num_nodes":"67","size_leaf_vector":"1"}},{"base_weights":[1.9175215E-1,1.4889774E-1,3.7965864E-1,2.3965071E-1,7.9519674E-2,3.9623648E-1,-4.64042E-2,2.0328154E-1,5.304E-1,-4.7547635E-1,9.972796E-2,9.624616E-2,4.33015E-1,2.3556328E-1,-1.4705347E-1,6.055503E-1,-1.1882892E-2,-7.7747375E-2,-2.0906992E-1,3.7088394E-2,2.8014174E-1,-2.0885623E-1,4.468444E-1,4.6747348E-1,9.038231E-2,1.2604314E-1,3.430001E-1,7.1398646E-1,3.6739208E-2,-1.293494E-1,8.859035E-2,3.7792107E-1,7.5642676E-3,1.790421E-1,5.329106E-1,1.711889E-1,-3.602829E-2,5.681932E-1,4.0854207E-1,-1.9096352E-1,4.650159E-1,-1.5976235E-2,8.999334E-2,-1.13764435E-1,1.1718852E-1,2.3572412E-1,3.170506E-2,1.00967616E-1,-7.50975E-2,1.8615559E-1,3.0521423E-2,-3.1433385E-2,2.7819464E-2,8.465264E-2,-5.8083374E-2,6.9630705E-2,1.923043E-1,1.9732499E-1,4.4562764E-2,-7.241079E-2,1.4390764E-1,3.807155E-2,1.653916E-1],"categories":[],"categories_nodes":[],"categories_segments":[],"categories_sizes":[],"default_left":[0,1,1,1,0,1,0,1,0,0,0,0,0,0,0,0,0,0,0,0,0,0,1,0,0,1,0,0,0,0,0,0,0,0,0,0,0,0,0,0,0,0,0,0,0,0,0,0,0,0,0,0,0,0,0,0,0,0,0,0,0,0,0],"id":16,"left_children":[1,3,5,7,9,11,-1,13,15,17,19,21,23,25,-1,27,-1,29,-1,31,33,-1,35,37,39,41,43,45,47,-1,-1,49,51,53,55,-1,-1,57,59,-1,61,-1,-1,-1,-1,-1,-1,-1,-1,-1,-1,-1,-1,-1,-1,-1,-1,-1,-1,-1,-1,-1,-1],"loss_changes":[3.3221626E0,2.1424685E0,7.4579906E-1,1.4597378E0,2.2463408E0,7.8834534E-1,0E0,3.1013675E0,7.0337963E-1,5.6769514E-1,2.1367984E0,2.9508786E0,7.455778E-1,1.4643416E0,0E0,8.4185743E-1,0E0,6.0866606E-1,0E0,1.427922E0,1.1520178E0,0E0,5.7355475E-1,1.263218E-1,2.2941697E0,2.0439382E0,2.35291E0,4.3058968E-1,3.6893457E-1,0E0,0E0,6.9494367E-1,1.2714422E0,1.4525862E0,2.8827E-1,0E0,0E0,6.439047E-1,2.0420918E0,0E0,8.816004E-2,0E0,0E0,0E0,0E0,0E0,0E0,0E0,0E0,0E0,0E0,0E0,0E0,0E0,0E0,0E0,0E0,0E0,0E0,0E0,0E0,0E0,0E0],"parents":[2147483647,0,0,1,1,2,2,3,3,4,4,5,5,7,7,8,8,9,9,10,10,11,11,12,12,13,13,15,15,17,17,19,19,20,20,22,22,23,23,24,24,25,25,26,26,27,27,28,28,31,31,32,32,33,33,34,34,37,37,38,38,40,40],"right_children":[2,4,6,8,10,12,-1,14,16,18,20,22,24,26,-1,28,-1,30,-1,32,34,-1,36,38,40,42,44,46,48,-1,-1,50,52,54,56,-1,-1,58,60,-1,62,-1,-1,-1,-1,-1,-1,-1,-1,-1,-1,-1,-1,-1,-1,-1,-1,-1,-1,-1,-1,-1,-1],"split_conditions":[6.839635E1,2.0045979E1,1.4556767E-1,1.8441225E1,2.0750864E1,1.0292022E1,-4.64042E-2,1.8814577E1,2.5181452E1,4.1329292E1,5.10525E-2,3.4986567E-2,4.6863074E0,-1.3631613E-3,-1.4705347E-1,6.3863853E1,-1.1882892E-2,2.0209005E1,-2.0906992E-1,-1.9663416E-1,6.323743E1,-2.0885623E-1,8.078109E-2,2.7891576E-2,6.453661E1,1.4666713E1,3.652096E1,4.1386995E0,1.9134487E1,-1.293494E-1,8.859035E-2,3.6370754E0,4.32753E1,5.8520573E1,7.0446044E-2,1.711889E-1,-3.602829E-2,4.622071E1,3.6268387E-2,-1.9096352E-1,-2.8029379E-2,-1.5976235E-2,8.999334E-2,-1.13764435E-1,1.1718852E-1,2.3572412E-1,3.170506E-2,1.00967616E-1,-7.50975E-2,1.8615559E-1,3.0521423E-2,-3.1433385E-2,2.7819464E-2,8.465264E-2,-5.8083374E-2,6.9630705E-2,1.923043E-1,1.9732499E-1,4.4562764E-2,-7.241079E-2,1.4390764E-1,3.807155E-2,1.653916E-1],"split_indices":[2,0,4,0,0,0,0,1,1,2,4,4,3,4,0,2,0,0,0,4,2,0,4,4,1,0,2,3,0,0,0,3,0,2,4,0,0,0,4,0,4,0,0,0,0,0,0,0,0,0,0,0,0,0,0,0,0,0,0,0,0,0,0],"split_type":[0,0,0,0,0,0,0,0,0,0,0,0,0,0,0,0,0,0,0,0,0,0,0,0,0,0,0,0,0,0,0,0,0,0,0,0,0,0,0,0,0,0,0,0,0,0,0,0,0,0,0,0,0,0,0,0,0,0,0,0,0,0,0],"sum_hessian":[4.1857675E2,3.4230276E2,7.6274E1,1.4724208E2,1.9506067E2,7.422949E1,2.0445104E0,1.323819E2,1.4860193E1,6.0614543E0,1.889992E2,8.501605E0,6.572789E1,1.27124344E2,5.2575502E0,1.30741415E1,1.7860521E0,2.6509118E0,3.4105425E0,1.4118532E2,4.7813892E1,2.305324E0,6.196281E0,5.9390633E1,6.337259E0,6.402798E1,6.3096367E1,1.0766439E1,2.3077023E0,1.2812753E0,1.3696364E0,1.0314313E1,1.30871E2,3.5373802E1,1.244009E1,5.0804963E0,1.1157846E0,1.8732794E1,4.0657837E1,1.917496E0,4.419763E0,3.1869616E1,3.215836E1,3.4728975E0,5.962347E1,9.369437E0,1.3970023E0,1.0444391E0,1.2632632E0,4.8272867E0,5.487026E0,5.633307E1,7.453793E1,2.7896208E1,7.477596E0,4.1207533E0,8.319337E0,1.4970579E1,3.7622147E0,3.7758038E0,3.6882034E1,1.4009733E0,3.0187898E0],"tree_param":{"num_deleted":"0","num_feature":"5","num_nodes":"63","size_leaf_vector":"1"}},{"base_weights":[-1.2212016E-1,-2.8705072E-1,-7.046473E-2,1.9087173E-1,-3.1522134E-1,3.499151E-2,-1.6222195E-1,4.3813813E-1,-9.548509E-2,-2.4662693E-1,-1.611521E-1,1.666405E-1,-9.026435E-2,-2.2831678E-2,-3.0081147E-1,1.7692634E-1,1.9213216E-2,-2.9210275E-1,1.6360816E-1,4.2373815E-1,6.923002E-2,-4.21805E-1,1.9690268E-2,-5.9732404E-2,6.182546E-1,-4.0643305E-1,-1.428624E-1,-1.16929896E-1,-3.9849737E-1,5.540671E-1,-1.1410248E-1,-8.52117E-3,5.552798E-1,-2.2027884E-1,2.0400266E-1,3.7424948E-2,-4.7375757E-1,2.7951306E-1,-1.2418035E-1,6.4741373E-3,-3.9381453E-1,2.879899E-1,1.04721645E-2,-1.5630728E-1,-4.9212128E-1,1.4460087E-1,-2.0896137E-1,-1.4772119E-1,2.2687899E-2,-1.3954131E-1,2.6657889E-3,2.0492043E-1,2.9279238E-2,1.3879216E-1,-1.4348873E-1,1.9061498E-1,4.9490884E-2,1.2827083E-1,-9.6054256E-2,8.673833E-2,-3.8793392E-2,-1.6004275E-1,2.7648497E-2,-7.7313095E-2,1.0915201E-1,-8.108617E-2,1.13340035E-1,-2.594688E-2,2.6637068E-1,1.4092384E-1,-1.7539488E-1,8.3293006E-2,-1.5408708E-1,-1.5528817E-1,-7.2091413E-3,1.962951E-2,-9.280883E-2],"categories":[],"categories_nodes":[],"categories_segments":[],"categories_sizes":[],"default_left":[1,0,0,0,0,0,0,0,0,0,0,1,0,0,0,0,0,0,0,0,0,0,0,0,0,0,0,0,0,0,0,0,0,0,0,0,1,0,0,0,0,0,0,0,0,0,0,0,0,0,0,0,0,0,0,0,0,0,0,0,0,0,0,0,0,0,0,0,0,0,0,0,0,0,0,0,0],"id":17,"left_children":[1,3,5,7,9,11,13,15,-1,17,-1,19,21,23,25,-1,-1,27,29,31,33,35,37,39,41,43,45,47,49,51,-1,53,55,57,59,-1,61,63,65,67,69,-1,-1,71,73,-1,75,-1,-1,-1,-1,-1,-1,-1,-1,-1,-1,-1,-1,-1,-1,-1,-1,-1,-1,-1,-1,-1,-1,-1,-1,-1,-1,-1,-1,-1,-1],"loss_changes":[2.617858E0,1.0500708E0,2.300182E0,7.331208E-1,9.3035793E-1,1.8478703E0,2.446047E0,1.6612428E-1,0E0,1.0771756E0,0E0,1.3366387E0,2.1083071E0,1.5601029E0,1.0027714E0,0E0,0E0,8.8584566E-1,1.5163449E0,8.457968E-1,1.6349597E0,4.6774554E-1,1.6874962E0,1.3693458E0,6.826042E-1,7.2818995E-1,1.216893E0,1.5063791E0,8.378658E-1,1.6802287E-1,0E0,1.2031426E0,2.5022388E-1,1.0058081E0,8.410851E-1,0E0,5.0036144E-1,8.215542E-1,2.2400308E0,4.383415E0,1.9616356E0,0E0,0E0,1.8560857E0,3.1605148E-1,0E0,7.1273744E-1,0E0,0E0,0E0,0E0,0E0,0E0,0E0,0E0,0E0,0E0,0E0,0E0,0E0,0E0,0E0,0E0,0E0,0E0,0E0,0E0,0E0,0E0,0E0,0E0,0E0,0E0,0E0,0E0,0E0,0E0],"parents":[2147483647,0,0,1,1,2,2,3,3,4,4,5,5,6,6,7,7,9,9,11,11,12,12,13,13,14,14,17,17,18,18,19,19,20,20,21,21,22,22,23,23,24,24,25,25,26,26,27,27,28,28,29,29,31,31,32,32,33,33,34,34,36,36,37,37,38,38,39,39,40,40,43,43,44,44,46,46],"right_children":[2,4,6,8,10,12,14,16,-1,18,-1,20,22,24,26,-1,-1,28,30,32,34,36,38,40,42,44,46,48,50,52,-1,54,56,58,60,-1,62,64,66,68,70,-1,-1,72,74,-1,76,-1,-1,-1,-1,-1,-1,-1,-1,-1,-1,-1,-1,-1,-1,-1,-1,-1,-1,-1,-1,-1,-1,-1,-1,-1,-1,-1,-1,-1,-1],"split_conditions":[9.278124E-1,1.1327459E1,2.2331111E0,6.765558E1,5.727107E-2,2.4072998E-3,4.4872494E1,1.1708142E1,-9.548509E-2,4.850279E-2,-1.611521E-1,1.4666713E1,1.1959081E0,7.747042E1,6.543491E1,1.7692634E-1,1.9213216E-2,1.394517E1,6.1886883E1,1.2844931E1,4.432225E1,1.1709754E-2,1.7333006E1,6.797969E1,3.7623606E0,-4.8805717E-2,-3.744026E-2,1.2445237E1,8.887327E-1,6.379795E-1,-1.1410248E-1,3.751378E1,6.0590042E1,9.768174E-1,4.572496E1,3.7424948E-2,2.245429E1,1.0712311E-2,2.0536735E0,6.167572E1,2.3757084E1,2.879899E-1,1.04721645E-2,2.6847928E0,2.3754814E-1,1.4460087E-1,3.3625248E1,-1.4772119E-1,2.2687899E-2,-1.3954131E-1,2.6657889E-3,2.0492043E-1,2.9279238E-2,1.3879216E-1,-1.4348873E-1,1.9061498E-1,4.9490884E-2,1.2827083E-1,-9.6054256E-2,8.673833E-2,-3.8793392E-2,-1.6004275E-1,2.7648497E-2,-7.7313095E-2,1.0915201E-1,-8.108617E-2,1.13340035E-1,-2.594688E-2,2.6637068E-1,1.4092384E-1,-1.7539488E-1,8.3293006E-2,-1.5408708E-1,-1.5528817E-1,-7.2091413E-3,1.962951E-2,-9.280883E-2],"split_indices":[3,1,3,2,4,4,2,0,0,4,0,0,3,0,2,0,0,1,2,0,2,4,0,1,3,4,4,1,3,3,0,2,2,3,0,0,0,4,3,1,2,0,0,3,4,0,0,0,0,0,0,0,0,0,0,0,0,0,0,0,0,0,0,0,0,0,0,0,0,0,0,0,0,0,0,0,0],"split_type":[0,0,0,0,0,0,0,0,0,0,0,0,0,0,0,0,0,0,0,0,0,0,0,0,0,0,0,0,0,0,0,0,0,0,0,0,0,0,0,0,0,0,0,0,0,0,0,0,0,0,0,0,0,0,0,0,0,0,0,0,0,0,0,0,0,0,0,0,0,0,0,0,0,0,0,0,0],"sum_hessian":[3.086504E2,7.252579E1,2.361246E2,3.7155094E0,6.881028E1,1.10149185E2,1.2597541E2,2.5948336E0,1.1206757E0,5.417779E1,1.4632488E1,5.354296E1,5.6606224E1,6.3386955E1,6.2588455E1,1.4362499E0,1.1585838E0,4.9030563E1,5.1472287E0,1.3791835E1,3.9751125E1,1.33914585E1,4.3214767E1,6.079447E1,2.5924842E0,3.6564407E1,2.6024048E1,1.93201E1,2.9710463E1,2.985542E0,2.1616864E0,3.4360013E0,1.0355834E1,1.2425378E1,2.7325748E1,1.0407948E0,1.2350664E1,1.5065126E1,2.814964E1,5.155768E1,9.236793E0,1.2277052E0,1.364779E0,1.005061E1,2.6513798E1,1.8875929E0,2.4136456E1,6.021436E0,1.3298664E1,2.5411797E1,4.2986665E0,1.9406798E0,1.0448624E0,1.7230501E0,1.7129512E0,8.071437E0,2.2843964E0,1.2218689E0,1.1203508E1,2.1872335E1,5.453413E0,1.1223626E1,1.1270375E0,1.7649624E0,1.3300164E1,2.2160997E1,5.9886417E0,4.7454548E1,4.1031294E0,1.4072442E0,7.8295484E0,4.639294E0,5.411316E0,2.5043373E1,1.4704242E0,6.55907E0,1.7577385E1],"tree_param":{"num_deleted":"0","num_feature":"5","num_nodes":"77","size_leaf_vector":"1"}},{"base_weights":[-1.1662944E-1,-2.5448298E-1,-5.256365E-2,-7.1957305E-2,-3.844234E-1,2.0433833E-1,-8.7576784E-2,-1.3685128E-1,4.3476602E-1,-1.4793524E-1,-4.5009103E-1,3.1676716E-1,-1.5491089E-1,-1.0665313E-1,3.3662486E-1,-2.4455075E-1,1.3476968E-1,1.795618E-1,9.17901E-3,-1.3903613E-1,6.792847E-2,-4.930965E-1,-5.80336E-2,-3.6512423E-2,5.688768E-1,-1.4297166E-1,1.3949615E-1,-8.68678E-2,-1.736598E-1,-4.8068807E-2,1.7061822E-1,-1.5166657E-1,-1.1437537E-1,2.0592192E-1,-7.34775E-2,-1.2747398E-1,4.5128945E-1,-5.150231E-1,2.8479012E-2,1.7299697E-1,-1.20767064E-1,-1.454197E-1,4.1591886E-1,1.9053805E-1,7.5265044E-1,-1.18669994E-1,3.26275E-1,1.1841496E-2,-3.0801218E-2,-1.1676348E-1,3.9820354E-2,-1.4171344E-1,7.3538624E-2,2.6052544E-1,-1.0152384E-1,-1.6301465E-1,-8.688567E-2,-9.004485E-3,1.6685441E-1,-9.665292E-2,1.304339E-1,2.7316108E-1,7.172096E-2,-1.7517168E-2,-1.0228409E-1,-1.2746385E-1,1.5785566E-1],"categories":[],"categories_nodes":[],"categories_segments":[],"categories_sizes":[],"default_left":[0,0,0,0,0,0,1,0,0,0,0,0,0,1,0,0,0,0,0,0,0,0,0,0,0,0,0,1,0,0,0,0,0,0,0,0,0,0,0,0,0,0,0,0,0,1,0,0,0,0,0,0,0,0,0,0,0,0,0,0,0,0,0,0,0,0,0],"id":18,"left_children":[1,3,5,7,9,11,13,15,17,19,21,23,25,27,29,31,33,-1,-1,-1,35,37,39,41,43,-1,-1,45,-1,47,-1,-1,49,-1,51,-1,53,55,-1,-1,-1,-1,57,59,61,63,65,-1,-1,-1,-1,-1,-1,-1,-1,-1,-1,-1,-1,-1,-1,-1,-1,-1,-1,-1,-1],"loss_changes":[2.453515E0,2.0681138E0,1.7445492E0,1.3083059E0,7.31441E-1,9.911277E-1,1.4086193E0,1.0400411E0,2.8291523E-1,8.935795E-1,6.4125156E-1,1.632224E0,1.4640588E0,1.4734793E0,7.0064044E-1,7.918205E-1,1.2473634E0,0E0,0E0,0E0,1.7765326E0,5.087862E-1,1.3387215E0,1.9201137E0,5.9488845E-1,0E0,0E0,2.1108642E0,0E0,2.2023398E-2,0E0,0E0,1.272605E0,0E0,1.1919004E0,0E0,2.0077624E0,6.3430786E-2,0E0,0E0,0E0,0E0,3.1414413E-1,7.424824E-1,3.343656E-1,1.9520142E0,1.9563102E0,0E0,0E0,0E0,0E0,0E0,0E0,0E0,0E0,0E0,0E0,0E0,0E0,0E0,0E0,0E0,0E0,0E0,0E0,0E0,0E0],"parents":[2147483647,0,0,1,1,2,2,3,3,4,4,5,5,6,6,7,7,8,8,9,9,10,10,11,11,12,12,13,13,14,14,15,15,16,16,20,20,21,21,22,22,23,23,24,24,27,27,29,29,32,32,34,34,36,36,37,37,42,42,43,43,44,44,45,45,46,46],"right_children":[2,4,6,8,10,12,14,16,18,20,22,24,26,28,30,32,34,-1,-1,-1,36,38,40,42,44,-1,-1,46,-1,48,-1,-1,50,-1,52,-1,54,56,-1,-1,-1,-1,58,60,62,64,66,-1,-1,-1,-1,-1,-1,-1,-1,-1,-1,-1,-1,-1,-1,-1,-1,-1,-1,-1,-1],"split_conditions":[1.9364172E1,5.166519E1,2.4747484E1,5.10288E1,5.6490684E-1,2.435277E1,7.170968E1,1.5021678E1,1.02210306E-1,5.9078342E1,7.756231E1,3.9813965E1,2.974436E1,7.383827E1,-1.239344E-1,7.0142764E-1,1.4444362E1,1.795618E-1,9.17901E-3,-1.3903613E-1,1.4378785E1,1.8328628E-1,1.3664438E1,2.245429E1,1.5764279E0,-1.4297166E-1,1.3949615E-1,6.797969E1,-1.736598E-1,-1.8566522E-1,1.7061822E-1,-1.5166657E-1,3.9265594E1,2.0592192E-1,1.5784816E1,-1.2747398E-1,1.5256735E1,7.155001E1,2.8479012E-2,1.7299697E-1,-1.20767064E-1,-1.454197E-1,3.378716E0,2.0045979E1,2.1083357E0,4.925906E1,-9.085646E-2,1.1841496E-2,-3.0801218E-2,-1.1676348E-1,3.9820354E-2,-1.4171344E-1,7.3538624E-2,2.6052544E-1,-1.0152384E-1,-1.6301465E-1,-8.688567E-2,-9.004485E-3,1.6685441E-1,-9.665292E-2,1.304339E-1,2.7316108E-1,7.172096E-2,-1.7517168E-2,-1.0228409E-1,-1.2746385E-1,1.5785566E-1],"split_indices":[1,2,1,2,3,0,1,1,4,2,2,2,0,0,4,3,0,0,0,0,0,4,0,0,3,0,0,1,0,4,0,0,2,0,0,0,0,2,0,0,0,0,3,0,3,0,4,0,0,0,0,0,0,0,0,0,0,0,0,0,0,0,0,0,0,0,0],"split_type":[0,0,0,0,0,0,0,0,0,0,0,0,0,0,0,0,0,0,0,0,0,0,0,0,0,0,0,0,0,0,0,0,0,0,0,0,0,0,0,0,0,0,0,0,0,0,0,0,0,0,0,0,0,0,0,0,0,0,0,0,0,0,0,0,0,0,0],"sum_hessian":[2.7832254E2,8.736427E1,1.9095827E2,3.6976967E1,5.0387306E1,2.2324034E1,1.6863423E2,3.3426144E1,3.5508199E0,1.165762E1,3.8729687E1,1.7092958E1,5.231074E0,1.6209348E2,6.540763E0,2.400691E1,9.419234E0,2.1846619E0,1.3661581E0,4.269746E0,7.387874E0,3.466906E1,4.0606265E0,7.4743605E0,9.618599E0,3.5962238E0,1.63485E0,1.5671136E2,5.3821177E0,2.759682E0,3.781081E0,7.0293226E0,1.6977589E1,1.9521006E0,7.4671335E0,3.18496E0,4.202914E0,3.3542465E1,1.1265954E0,1.1916168E0,2.8690097E0,3.718791E0,3.7555695E0,3.8105488E0,5.80805E0,1.4617232E2,1.0539038E1,1.1665359E0,1.5931461E0,7.7656064E0,9.211982E0,3.1014385E0,4.365695E0,2.684995E0,1.5179193E0,2.8540909E1,5.0015545E0,1.086689E0,2.6688805E0,1.1265645E0,2.6839843E0,3.8511875E0,1.9568627E0,1.1598183E2,3.0190495E1,1.9787247E0,8.560313E0],"tree_param":{"num_deleted":"0","num_feature":"5","num_nodes":"67","size_leaf_vector":"1"}},{"base_weights":[1.5260188E-1,1.1785073E-1,3.3353695E-1,7.59053E-2,2.4082756E-1,-6.0986128E-2,3.5534146E-1,1.7725831E-1,1.3167476E-2,1.7180453E-1,3.8011047E-1,3.747748E-1,-6.519379E-2,1.6131448E-2,2.873874E-1,-4.1319475E-1,5.07951E-2,1.6176723E-1,1.2279775E-1,-7.538638E-2,4.3072277E-1,4.104289E-1,4.1206136E-2,1.3663977E-1,-3.611863E-1,-9.418916E-2,3.4980115E-1,-1.7829585E-1,-1.8495837E-1,1.953009E-1,3.0394258E-2,2.067795E-4,2.903851E-1,1.6371834E-1,2.2203305E-1,5.174783E-1,3.49713E-1,-1.8284053E-1,4.058515E-1,-3.511479E-3,1.2323869E-1,-1.5158081E-1,6.9486216E-2,-9.169911E-2,1.267501E-1,5.7092313E-2,1.5075351E-1,-1.458882E-1,3.13214E-2,1.2520699E-1,1.1209532E-6,3.3746414E-2,-1.08368374E-1,1.0362404E-1,-9.5441155E-2,-1.8390001E-1,1.222361E-1,1.8399328E-1,3.398372E-2,-7.280454E-2,1.267586E-1,2.9854303E-2,1.4754146E-1],"categories":[],"categories_nodes":[],"categories_segments":[],"categories_sizes":[],"default_left":[1,0,1,1,0,0,0,1,0,0,0,0,0,0,0,0,0,0,0,0,1,0,0,0,0,0,0,0,0,0,0,0,0,0,0,0,0,0,0,0,0,0,0,0,0,0,0,0,0,0,0,0,0,0,0,0,0,0,0,0,0,0,0],"id":19,"left_children":[1,3,5,7,9,-1,11,13,15,17,19,21,-1,23,25,27,29,-1,31,-1,33,35,37,39,41,43,45,47,-1,-1,49,51,53,-1,55,57,59,-1,61,-1,-1,-1,-1,-1,-1,-1,-1,-1,-1,-1,-1,-1,-1,-1,-1,-1,-1,-1,-1,-1,-1,-1,-1],"loss_changes":[2.472207E0,1.7181268E0,8.1914186E-1,1.6030275E0,7.533479E-1,0E0,7.6788855E-1,1.7068E0,2.5400732E0,9.91874E-1,9.835739E-1,6.9697666E-1,0E0,1.8780094E0,1.3959308E0,5.035019E-1,1.7578762E0,0E0,1.0917348E0,0E0,4.9629402E-1,1.707735E-1,1.8863792E0,1.273988E0,9.719964E-1,1.0942987E0,1.107513E0,6.9212985E-1,0E0,0E0,1.663499E0,1.3267766E0,8.616576E-1,0E0,1.9260666E0,6.084409E-1,1.7251477E0,0E0,8.343059E-2,0E0,0E0,0E0,0E0,0E0,0E0,0E0,0E0,0E0,0E0,0E0,0E0,0E0,0E0,0E0,0E0,0E0,0E0,0E0,0E0,0E0,0E0,0E0,0E0],"parents":[2147483647,0,0,1,1,2,2,3,3,4,4,6,6,7,7,8,8,9,9,10,10,11,11,13,13,14,14,15,15,16,16,18,18,20,20,21,21,22,22,23,23,24,24,25,25,26,26,27,27,30,30,31,31,32,32,34,34,35,35,36,36,38,38],"right_children":[2,4,6,8,10,-1,12,14,16,18,20,22,-1,24,26,28,30,-1,32,-1,34,36,38,40,42,44,46,48,-1,-1,50,52,54,-1,56,58,60,-1,62,-1,-1,-1,-1,-1,-1,-1,-1,-1,-1,-1,-1,-1,-1,-1,-1,-1,-1,-1,-1,-1,-1,-1,-1],"split_conditions":[6.839635E1,5.491148E-2,1.0292022E1,1.8204384E1,6.2014725E1,-6.0986128E-2,1.4556767E-1,4.528876E1,2.0076324E1,1.3563883E1,4.950089E-1,4.6863074E0,-6.519379E-2,4.278587E1,4.7487104E-1,1.87437E1,1.96853E1,1.6176723E-1,2.5802233E0,-7.538638E-2,1.9144241E1,2.7891576E-2,6.453661E1,1.5123211E1,3.4986567E-2,1.6814238E1,-1.2627566E-2,-2.1872846E-2,-1.8495837E-1,1.953009E-1,-1.9663416E-1,1.8820792E0,5.720727E1,1.6371834E-1,3.1907536E1,4.622071E1,3.6268387E-2,-1.8284053E-1,-2.8029379E-2,-3.511479E-3,1.2323869E-1,-1.5158081E-1,6.9486216E-2,-9.169911E-2,1.267501E-1,5.7092313E-2,1.5075351E-1,-1.458882E-1,3.13214E-2,1.2520699E-1,1.1209532E-6,3.3746414E-2,-1.08368374E-1,1.0362404E-1,-9.5441155E-2,-1.8390001E-1,1.222361E-1,1.8399328E-1,3.398372E-2,-7.280454E-2,1.267586E-1,2.9854303E-2,1.4754146E-1],"split_indices":[2,4,0,1,2,0,4,2,1,1,3,3,0,2,3,1,0,0,3,0,1,4,1,1,4,0,4,4,0,0,4,3,2,0,1,0,4,0,4,0,0,0,0,0,0,0,0,0,0,0,0,0,0,0,0,0,0,0,0,0,0,0,0],"split_type":[0,0,0,0,0,0,0,0,0,0,0,0,0,0,0,0,0,0,0,0,0,0,0,0,0,0,0,0,0,0,0,0,0,0,0,0,0,0,0,0,0,0,0,0,0,0,0,0,0,0,0,0,0,0,0,0,0,0,0,0,0,0,0],"sum_hessian":[3.9843265E2,3.3562283E2,6.2809807E1,2.5146828E2,8.415456E1,2.1267345E0,6.068307E1,9.544746E1,1.5602081E2,5.7763012E1,2.6391544E1,5.902555E1,1.6575193E0,3.921684E1,5.6230618E1,1.1843203E1,1.4417761E2,5.6205907E0,5.214242E1,1.6642859E0,2.4727259E1,5.311757E1,5.907982E0,3.0207111E1,9.009728E0,7.8330297E0,4.8397587E1,6.3659067E0,5.4772954E0,3.7233486E0,1.4045427E2,3.0692177E1,2.1450247E1,1.4900725E1,9.826532E0,1.6501146E1,3.6616425E1,1.8806834E0,4.0272985E0,2.0222239E1,9.984873E0,7.366863E0,1.642866E0,5.8479543E0,1.9850755E0,2.4771751E1,2.3625834E1,2.701973E0,3.6639338E0,9.300313E0,1.3115396E2,2.3942965E1,6.7492127E0,2.006789E1,1.3823562E0,1.366512E0,8.46002E0,1.2920452E1,3.5806937E0,3.7527711E0,3.286365E1,1.3551881E0,2.6721106E0],"tree_param":{"num_deleted":"0","num_feature":"5","num_nodes":"63","size_leaf_vector":"1"}},{"base_weights":[-9.787735E-2,6.453613E-2,-1.3938108E-1,-7.506921E-2,2.1486323E-1,-2.7246085E-1,-8.789687E-2,4.1005167E-1,-1.4436655E-1,3.2305682E-1,-2.2119841E-1,-1.3054481E-1,-4.0807754E-1,1.5627913E-1,-1.524746E-1,1.4573537E-1,3.1673227E-2,-2.1818273E-1,2.9913485E-1,4.409412E-1,-3.4896812E-1,9.0696104E-2,-3.826888E-1,5.8480192E-2,-3.4864852E-1,-1.949952E-1,-4.9306923E-1,2.0388284E-1,-1.2638216E-1,-3.5919826E-2,-2.6447347E-1,-4.570742E-1,-1.3223203E-1,-1.3328581E-2,1.2925328E-1,-1.7696996E-1,5.428974E-1,-3.0508153E-2,-1.2063E-1,-1.6290359E-1,2.3325182E-2,-5.7733595E-2,1.9650057E-1,-1.11518174E-1,-1.5066195E-1,2.1091218E-1,-3.714481E-1,-1.5977734E-1,3.078116E-2,1.14097536E-1,2.298116E-1,-8.5449435E-2,4.043417E-1,-4.4417176E-1,-1.456257E-1,-1.6275911E-1,-2.7907943E-2,1.80187E-1,-7.395983E-2,4.7007132E-2,-1.1931424E-1,-1.6737958E-2,1.8291321E-1,1.6885541E-1,-4.83961E-2,-9.528499E-2,1.2671076E-1,-1.15019955E-1,2.2788583E-1,-1.569947E-1,7.349933E-2,8.736898E-2,-7.474256E-2,2.0712863E-3,-1.1247773E-1,2.0232889E-1,-7.676852E-3,-2.6075875E-2,-1.510071E-1,8.828848E-2,-8.121197E-2],"categories":[],"categories_nodes":[],"categories_segments":[],"categories_sizes":[],"default_left":[0,0,0,0,0,0,0,1,0,0,0,0,0,0,0,0,0,0,0,0,0,0,0,0,0,0,0,0,0,0,1,0,0,0,0,0,0,0,0,0,0,0,0,0,0,0,0,0,0,0,0,0,0,1,0,0,0,0,0,0,0,0,0,0,0,0,0,0,0,0,0,0,0,0,0,0,0,0,0,0,0],"id":20,"left_children":[1,3,5,7,9,11,13,15,17,19,21,23,25,27,29,-1,-1,31,33,35,37,-1,39,41,43,45,47,49,-1,51,53,55,57,-1,-1,59,61,-1,-1,-1,-1,63,-1,65,-1,67,69,-1,-1,71,-1,73,75,77,79,-1,-1,-1,-1,-1,-1,-1,-1,-1,-1,-1,-1,-1,-1,-1,-1,-1,-1,-1,-1,-1,-1,-1,-1,-1,-1],"loss_changes":[1.9633012E0,1.2688597E0,1.5603337E0,1.1245707E0,1.4397163E0,1.1789799E0,2.676147E0,4.6054006E-2,9.9728733E-1,2.0268657E0,6.532892E-1,1.3708495E0,4.8825598E-1,1.0667276E0,1.7336061E0,0E0,0E0,4.5258212E-1,2.2204855E-1,1.3910992E0,1.2798935E-2,0E0,4.3353927E-1,1.3136894E0,5.030168E-1,8.5583675E-1,5.8231497E-1,1.6101339E0,0E0,1.4866432E0,1.3862705E0,