{"learner":{"attributes":{"scikit_learn":"{\"_estimator_type\": \"classifier\"}"},"feature_names":["SMA_1","SMA_2","RSI","Volatility","Daily_Return"],"feature_types":["float","float","float","float","float"],"gradient_booster":{"model":{"gbtree_model_param":{"num_parallel_tree":"1","num_trees":"300"},"iteration_indptr":[0,3,6,9,12,15,18,21,24,27,30,33,36,39,42,45,48,51,54,57,60,63,66,69,72,75,78,81,84,87,90,93,96,99,102,105,108,111,114,117,120,123,126,129,132,135,138,141,144,147,150,153,156,159,162,165,168,171,174,177,180,183,186,189,192,195,198,201,204,207,210,213,216,219,222,225,228,231,234,237,240,243,246,249,252,255,258,261,264,267,270,273,276,279,282,285,288,291,294,297,300],"tree_info":[0,1,2,0,1,2,0,1,2,0,1,2,0,1,2,0,1,2,0,1,2,0,1,2,0,1,2,0,1,2,0,1,2,0,1,2,0,1,2,0,1,2,0,1,2,0,1,2,0,1,2,0,1,2,0,1,2,0,1,2,0,1,2,0,1,2,0,1,2,0,1,2,0,1,2,0,1,2,0,1,2,0,1,2,0,1,2,0,1,2,0,1,2,0,1,2,0,1,2,0,1,2,0,1,2,0,1,2,0,1,2,0,1,2,0,1,2,0,1,2,0,1,2,0,1,2,0,1,2,0,1,2,0,1,2,0,1,2,0,1,2,0,1,2,0,1,2,0,1,2,0,1,2,0,1,2,0,1,2,0,1,2,0,1,2,0,1,2,0,1,2,0,1,2,0,1,2,0,1,2,0,1,2,0,1,2,0,1,2,0,1,2,0,1,2,0,1,2,0,1,2,0,1,2,0,1,2,0,1,2,0,1,2,0,1,2,0,1,2,0,1,2,0,1,2,0,1,2,0,1,2,0,1,2,0,1,2,0,1,2,0,1,2,0,1,2,0,1,2,0,1,2,0,1,2,0,1,2,0,1,2,0,1,2,0,1,2,0,1,2,0,1,2,0,1,2,0,1,2,0,1,2,0,1,2,0,1,2,0,1,2,0,1,2,0,1,2,0,1,2],"trees":[{"base_weights":[-4.7050044E-1,-5.7303375E-1,-2.8442913E-1,-3.105883E-1,-6.22171E-1,6.885242E-2,-3.7597916E-1,-4.087404E-1,5.9999996E-1,-6.431925E-1,-4.4357982E-1,3.1999996E-1,-5.7303375E-1,-4.1689378E-1,4.736842E-1,2.5714284E-1,-4.6949607E-1,2.8800002E-1,3.1034475E-2,-2.0000003E-1,-6.507178E-1,-5.3164566E-1,1.2413793E-1,6.936412E-2,2.9508197E-1,-1.9870132E-1,-7.663455E-9,-3.5522074E-1,-2.1381217E-1,-1.5517244E-1,3.4054056E-1,-2.2702707E-1,-6.716418E-1,-1.6363637E-1,1.2857142E-1,-6.614959E-1,-3.5294122E-1,-5.9728515E-1,7.2E-2,-1.836735E-1,3.1578943E-1,-4.2205328E-1,2.0134186E-2,2.1724138E-1,-1.1454547E-1,-2.1355934E-1,-8.181819E-2,-1.321101E-1,-2.0164226E-1,7.2E-2,-1.5652177E-1,-1.07288365E-8,-2.1405408E-1,-6.923079E-2,2.2207792E-1,1.21621616E-1,-1.3718793E-1,1.0285714E-1,-1.8679248E-1],"categories":[],"categories_nodes":[],"categories_segments":[],"categories_sizes":[],"default_left":[1,0,0,1,0,0,0,0,0,0,1,0,0,0,0,0,0,0,0,0,0,1,0,0,0,0,0,0,0,0,0,0,0,0,0,0,0,0,0,0,0,0,0,0,0,0,0,0,0,0,0,0,0,0,0,0,0,0,0],"id":0,"left_children":[1,3,5,7,9,11,13,15,17,19,21,23,25,27,29,-1,31,-1,-1,33,35,37,-1,39,-1,-1,-1,41,-1,-1,-1,43,45,-1,-1,47,49,51,-1,-1,53,55,57,-1,-1,-1,-1,-1,-1,-1,-1,-1,-1,-1,-1,-1,-1,-1,-1],"loss_changes":[8.352386E0,3.505005E0,5.218726E0,4.4657845E0,6.178055E-1,5.6465354E0,4.6356354E0,3.7266293E0,7.944828E-1,5.8023834E-1,2.3760843E0,4.0898623E0,5.0605583E-1,1.9786453E0,4.7383137E0,0E0,1.9006634E0,0E0,0E0,1.3194805E0,4.3730164E-1,1.4771433E0,0E0,3.422015E0,0E0,0E0,0E0,2.5979223E0,0E0,0E0,0E0,3.302923E0,1.6420174E-1,0E0,0E0,1.7610168E-1,1.070486E0,1.7046843E0,0E0,0E0,3.5992427E0,2.741705E0,3.647736E0,0E0,0E0,0E0,0E0,0E0,0E0,0E0,0E0,0E0,0E0,0E0,0E0,0E0,0E0,0E0,0E0],"parents":[2147483647,0,0,1,1,2,2,3,3,4,4,5,5,6,6,7,7,8,8,9,9,10,10,11,11,12,12,13,13,14,14,16,16,19,19,20,20,21,21,23,23,27,27,31,31,32,32,35,35,36,36,37,37,40,40,41,41,42,42],"right_children":[2,4,6,8,10,12,14,16,18,20,22,24,26,28,30,-1,32,-1,-1,34,36,38,-1,40,-1,-1,-1,42,-1,-1,-1,44,46,-1,-1,48,50,52,-1,-1,54,56,58,-1,-1,-1,-1,-1,-1,-1,-1,-1,-1,-1,-1,-1,-1,-1,-1],"split_conditions":[2.333467E0,-5.4320138E-2,3.0828796E1,3.213416E1,5.924538E1,3.4358E1,7.1865105E1,4.740617E-1,3.0402235E1,3.512179E1,7.862044E1,4.14192E1,4.2187724E0,6.809156E1,-1.1956767E-1,2.5714284E-1,9.13163E-1,2.8800002E-1,3.1034475E-2,1.5684142E1,1.6781974E-1,1.3130737E1,1.2413793E-1,2.026845E1,2.9508197E-1,-1.9870132E-1,-7.663455E-9,5.2857356E0,-2.1381217E-1,-1.5517244E-1,3.4054056E-1,1.2387516E1,-6.784748E-2,-1.6363637E-1,1.2857142E-1,4.3352893E-1,1.2639929E1,1.2654486E1,7.2E-2,-1.836735E-1,3.255112E0,2.3925607E0,6.737434E1,2.1724138E-1,-1.1454547E-1,-2.1355934E-1,-8.181819E-2,-1.321101E-1,-2.0164226E-1,7.2E-2,-1.5652177E-1,-1.07288365E-8,-2.1405408E-1,-6.923079E-2,2.2207792E-1,1.21621616E-1,-1.3718793E-1,1.0285714E-1,-1.8679248E-1],"split_indices":[3,4,0,1,1,1,1,3,0,2,2,2,3,2,4,0,3,0,0,0,4,0,0,1,0,0,0,3,0,0,0,0,4,0,0,3,0,0,0,0,3,3,0,0,0,0,0,0,0,0,0,0,0,0,0,0,0,0,0],"split_type":[0,0,0,0,0,0,0,0,0,0,0,0,0,0,0,0,0,0,0,0,0,0,0,0,0,0,0,0,0,0,0,0,0,0,0,0,0,0,0,0,0,0,0,0,0,0,0,0,0,0,0,0,0,0,0,0,0,0,0],"sum_hessian":[4.453333E2,2.8577777E2,1.5955554E2,4.622222E1,2.3955554E2,3.2888885E1,1.2666666E2,4.222222E1,3.9999998E0,2.1199998E2,2.7555553E1,2.3999998E1,8.888888E0,1.2133333E2,5.333333E0,1.3333333E0,4.0888885E1,1.7777777E0,2.222222E0,3.9999998E0,2.0799998E2,2.5333332E1,2.222222E0,1.8222221E1,5.7777777E0,7.5555553E0,1.3333333E0,1.0222221E2,1.911111E1,2.222222E0,3.111111E0,1.9555553E1,2.1333332E1,2.6666665E0,1.3333333E0,1.9955554E2,8.444444E0,2.3555553E1,1.7777777E0,4.444444E0,1.3777777E1,8.6666664E1,1.5555554E1,2.222222E0,1.7333332E1,1.8666666E1,2.6666665E0,1.1111111E1,1.8844443E2,1.7777777E0,6.666666E0,3.9999998E0,1.9555553E1,6.222222E0,7.5555553E0,3.111111E0,8.355555E1,1.0666666E1,4.8888884E0],"tree_param":{"num_deleted":"0","num_feature":"5","num_nodes":"59","size_leaf_vector":"1"}},{"base_weights":[9.275579E-1,7.335267E-1,1.2126472E0,1.1106383E0,5.7483983E-1,-1.463415E-1,1.2409867E0,4.6153843E-1,1.2211056E0,5.967645E-1,-1.5789478E-1,1.2857142E-1,-1.5517244E-1,4.1840875E-1,1.1253952E0,-1.643836E-1,3.7358493E-1,-7.663455E-9,1.2461538E0,5.261959E-1,8.3933514E-1,-1.6363637E-1,2.7272725E-1,7.13467E-1,4.0344828E-1,-3.4426233E-1,1.2857142E-1,9.0731704E-1,4.1876608E-1,7.8151256E-1,4.2724454E-1,9.392971E-1,1.578947E-1,-7.663455E-9,1.2857142E-1,8.5303515E-1,-4.0000004E-1,-1.8E-1,7.2E-2,3.5294116E-1,2.9508187E-2,2.791837E-1,1.2644628E-1,-5.732497E-3,1.5237516E-1,-7.663455E-9,2.9302326E-1,-1.2857145E-1,1.2E-1,1.6127166E-1,3.5033557E-1,-1.6363637E-1,-7.663455E-9],"categories":[],"categories_nodes":[],"categories_segments":[],"categories_sizes":[],"default_left":[0,0,0,0,0,0,0,0,0,0,0,0,0,0,0,0,0,0,0,0,0,0,0,0,0,0,0,0,0,0,0,0,0,0,0,0,0,0,0,0,0,0,0,0,0,0,0,0,0,0,0,0,0],"id":1,"left_children":[1,3,5,7,9,11,13,15,17,19,21,-1,-1,-1,23,25,-1,-1,27,29,31,-1,33,35,-1,37,-1,39,-1,41,43,45,47,-1,-1,49,51,-1,-1,-1,-1,-1,-1,-1,-1,-1,-1,-1,-1,-1,-1,-1,-1],"loss_changes":[2.3799988E1,1.5406052E1,7.0839844E0,5.0532455E0,3.159069E0,1.1930795E0,1.5516052E0,6.582023E0,2.0289078E0,2.7327576E0,1.2057416E0,0E0,0E0,0E0,8.571686E0,1.012672E0,0E0,0E0,2.031273E0,3.36306E0,2.5839844E0,0E0,1.5584418E-1,6.3674545E0,0E0,1.1567214E0,0E0,4.8437634E0,0E0,1.737051E0,3.8866138E0,1.2232704E0,1.0706767E0,0E0,0E0,2.8253841E0,2.9090917E-1,0E0,0E0,0E0,0E0,0E0,0E0,0E0,0E0,0E0,0E0,0E0,0E0,0E0,0E0,0E0,0E0],"parents":[2147483647,0,0,1,1,2,2,3,3,4,4,5,5,6,6,7,7,8,8,9,9,10,10,14,14,15,15,18,18,19,19,20,20,22,22,23,23,25,25,27,27,29,29,30,30,31,31,32,32,35,35,36,36],"right_children":[2,4,6,8,10,12,14,16,18,20,22,-1,-1,-1,24,26,-1,-1,28,30,32,-1,34,36,-1,38,-1,40,-1,42,44,46,48,-1,-1,50,52,-1,-1,-1,-1,-1,-1,-1,-1,-1,-1,-1,-1,-1,-1,-1,-1],"split_conditions":[5.983094E1,1.5253045E1,-6.1638765E-2,3.8419537E1,5.8836063E1,2.4580418E1,1.8004314E1,1.4710687E1,3.914135E-1,5.1052667E-2,5.939982E1,1.2857142E-1,-1.5517244E-1,4.1840875E-1,3.2772247E1,-3.1990935E-3,3.7358493E-1,-7.663455E-9,1.4037649E1,-1.1772474E-1,2.302339E-1,-1.6363637E-1,2.6571117E1,2.8511383E1,4.0344828E-1,1.4534425E1,1.2857142E-1,1.4171148E1,4.1876608E-1,4.169376E0,2.0705658E1,8.495118E-1,2.4866226E-1,-7.663455E-9,1.2857142E-1,7.815492E-2,2.8008394E1,-1.8E-1,7.2E-2,3.5294116E-1,2.9508187E-2,2.791837E-1,1.2644628E-1,-5.732497E-3,1.5237516E-1,-7.663455E-9,2.9302326E-1,-1.2857145E-1,1.2E-1,1.6127166E-1,3.5033557E-1,-1.6363637E-1,-7.663455E-9],"split_indices":[2,1,4,2,2,0,1,0,3,4,2,0,0,0,0,4,0,0,0,4,4,0,0,0,0,1,0,1,0,3,1,3,4,0,0,4,1,0,0,0,0,0,0,0,0,0,0,0,0,0,0,0,0],"split_type":[0,0,0,0,0,0,0,0,0,0,0,0,0,0,0,0,0,0,0,0,0,0,0,0,0,0,0,0,0,0,0,0,0,0,0,0,0,0,0,0,0,0,0,0,0,0,0,0,0,0,0,0,0],"sum_hessian":[4.453333E2,2.6711108E2,1.7822221E2,7.733333E1,1.8977777E2,3.5555553E0,1.7466666E2,1.1999999E1,6.533333E1,1.8444443E2,5.333333E0,1.3333333E0,2.222222E0,7.022222E1,1.04444435E2,7.1111107E0,4.8888884E0,1.3333333E0,6.3999996E1,1.4533333E2,3.9111107E1,2.6666665E0,2.6666665E0,3.7777775E1,6.6666664E1,5.7777777E0,1.3333333E0,2.1777777E1,4.222222E1,3.8666664E1,1.0666666E2,3.3777775E1,5.333333E0,1.3333333E0,1.3333333E0,3.3777775E1,3.9999998E0,3.9999998E0,1.7777777E0,1.5999999E1,5.7777777E0,2.6222221E1,1.2444444E1,1.6444443E1,9.022221E1,1.3333333E0,3.2444443E1,1.3333333E0,3.9999998E0,1.8222221E1,1.5555554E1,2.6666665E0,1.3333333E0],"tree_param":{"num_deleted":"0","num_feature":"5","num_nodes":"53","size_leaf_vector":"1"}},{"base_weights":[-4.5705757E-1,-6.6179866E-1,-3.5779822E-1,-1.463415E-1,-6.737589E-1,-2.5152698E-1,-5.594856E-1,1.2857142E-1,-1.5517244E-1,-3.2432437E-1,-2.037873E-1,-2.5104648E-2,-3.9798725E-1,-3.7777784E-1,-6.871509E-1,-7.663455E-9,-1.4400001E-1,-3.0252105E-1,2.439024E-1,-2.6709068E-1,-5.644821E-1,-5.015773E-1,6.1855633E-2,-6.206898E-2,-2.1063831E-1,2.5714284E-1,-3.6521745E-1,4.0776697E-1,-5.217392E-1,-1.7580345E-1,-2.0642205E-1,-5.9869856E-1,1.2857142E-1,-1.1111116E-1,-6.1224496E-1,4.736842E-1,-4.2857146E-1,-5.070424E-2,-1.9148938E-1,6.792452E-2,3.7358493E-1,-7.663455E-9,-1.894737E-1,2.8800002E-1,-6.842107E-2,-8.761064E-2,-2.0420171E-1,-1.7027028E-1,6.792452E-2,-3.600001E-2,-1.9257645E-1,3.1034482E-1,-2.4324335E-2,-1.7027028E-1,-7.663455E-9],"categories":[],"categories_nodes":[],"categories_segments":[],"categories_sizes":[],"default_left":[1,0,0,1,0,0,0,0,0,0,0,1,0,1,0,0,0,0,0,0,0,0,0,0,0,0,0,0,0,0,0,0,0,0,0,0,0,0,0,0,0,0,0,0,0,0,0,0,0,0,0,0,0,0,0],"id":2,"left_children":[1,3,5,7,9,11,13,-1,-1,15,-1,17,19,21,23,-1,-1,25,27,29,31,33,35,-1,-1,-1,37,39,41,43,-1,45,-1,47,49,51,53,-1,-1,-1,-1,-1,-1,-1,-1,-1,-1,-1,-1,-1,-1,-1,-1,-1,-1],"loss_changes":[8.833801E0,7.925911E-1,6.3488846E0,1.1930795E0,5.2253723E-2,6.62607E0,2.1452484E0,0E0,0E0,2.0756751E-1,0E0,6.0190673E0,2.495943E0,2.4802132E0,2.838955E-1,0E0,0E0,3.1970766E0,5.3566704E0,2.5648885E0,2.0423584E0,1.4539938E0,2.3798153E0,0E0,0E0,0E0,1.945992E0,4.932772E0,4.393592E-1,3.7082772E0,0E0,1.0888615E0,0E0,1.5151E0,3.2063484E-1,2.0542502E0,3.2432437E-1,0E0,0E0,0E0,0E0,0E0,0E0,0E0,0E0,0E0,0E0,0E0,0E0,0E0,0E0,0E0,0E0,0E0,0E0],"parents":[2147483647,0,0,1,1,2,2,3,3,4,4,5,5,6,6,9,9,11,11,12,12,13,13,14,14,17,17,18,18,19,19,20,20,21,21,22,22,26,26,27,27,28,28,29,29,31,31,33,33,34,34,35,35,36,36],"right_children":[2,4,6,8,10,12,14,-1,-1,16,-1,18,20,22,24,-1,-1,26,28,30,32,34,36,-1,-1,-1,38,40,42,44,-1,46,-1,48,50,52,54,-1,-1,-1,-1,-1,-1,-1,-1,-1,-1,-1,-1,-1,-1,-1,-1,-1,-1],"split_conditions":[9.13163E-1,3.7711984E-1,5.983094E1,1.12818575E1,3.7413857E1,2.1948326E0,2.9450047E1,1.2857142E-1,-1.5517244E-1,1.3623393E1,-2.037873E-1,1.8025488E1,4.298505E1,2.2228271E1,-6.1638765E-2,-7.663455E-9,-1.4400001E-1,-2.3357153E-1,4.564651E1,5.1052667E-2,2.8381166E-1,-8.822425E-3,9.360237E-2,-6.206898E-2,-2.1063831E-1,2.5714284E-1,1.4710687E1,3.537093E1,1.0537084E0,2.150985E1,-2.0642205E-1,2.586383E0,1.2857142E-1,1.8152037E1,6.0198822E1,2.711021E1,2.6571117E1,-5.070424E-2,-1.9148938E-1,6.792452E-2,3.7358493E-1,-7.663455E-9,-1.894737E-1,2.8800002E-1,-6.842107E-2,-8.761064E-2,-2.0420171E-1,-1.7027028E-1,6.792452E-2,-3.600001E-2,-1.9257645E-1,3.1034482E-1,-2.4324335E-2,-1.7027028E-1,-7.663455E-9],"split_indices":[3,3,2,1,2,3,0,0,0,0,0,1,2,1,4,0,0,4,0,4,4,4,4,0,0,0,0,1,3,0,0,3,0,1,2,0,0,0,0,0,0,0,0,0,0,0,0,0,0,0,0,0,0,0,0],"split_type":[0,0,0,0,0,0,0,0,0,0,0,0,0,0,0,0,0,0,0,0,0,0,0,0,0,0,0,0,0,0,0,0,0,0,0,0,0,0,0,0,0,0,0,0,0,0,0,0,0,0,0,0,0,0,0],"sum_hessian":[4.453333E2,1.4355554E2,3.0177777E2,3.5555553E0,1.3999998E2,1.991111E2,1.02666664E2,1.3333333E0,2.222222E0,3.111111E0,1.3688889E2,7.8666664E1,1.20444435E2,4.3999996E1,5.8666664E1,1.3333333E0,1.7777777E0,3.8666664E1,3.9999996E1,6.8888885E1,5.1555553E1,3.422222E1,9.777777E0,2.222222E0,5.6444443E1,1.3333333E0,3.7333332E1,3.3333332E1,6.666666E0,5.7777775E1,1.1111111E1,5.0222218E1,1.3333333E0,7.9999995E0,2.6222221E1,5.333333E0,4.444444E0,2.2666666E1,1.4666666E1,2.8444443E1,4.8888884E0,1.3333333E0,5.333333E0,1.7777777E0,5.5999996E1,1.1555555E1,3.8666664E1,3.111111E0,4.8888884E0,1.7777777E0,2.4444443E1,2.222222E0,3.111111E0,3.111111E0,1.3333333E0],"tree_param":{"num_deleted":"0","num_feature":"5","num_nodes":"55","size_leaf_vector":"1"}},{"base_weights":[-3.9596257E-1,-4.9315792E-1,-2.2913009E-1,-2.4944189E-1,-5.41416E-1,7.379675E-2,-3.168268E-1,-3.4539917E-1,5.54467E-1,-5.565979E-1,-2.878183E-1,2.8197137E-1,-5.159301E-1,-3.5583806E-1,4.1157672E-1,5.064909E-1,-4.205406E-1,2.5673515E-1,3.302276E-2,-5.877409E-1,-4.5091063E-1,1.8497808E-1,-1.7991626E-1,-3.9503878E-1,4.269737E-1,-1.8175784E-1,1.0217248E-2,-4.088467E-1,-8.2274236E-2,-1.4097074E-1,2.7812448E-1,4.830742E-3,2.281719E-1,1.1795748E-1,-4.9551383E-1,-5.9699625E-1,-2.6630357E-1,-1.8267591E-1,-5.725361E-1,-1.2259162E-1,4.5856795E-1,-1.5731473E-1,-2.7469934E-3,3.109624E-1,2.4578495E-1,-1.6121976E-1,-5.1950395E-1,3.0316535E-1,-5.1952404E-1,-1.5204252E-1,2.4388108E-1,-1.7787936E-1,-2.883894E-2,-1.6453722E-1,-2.0181224E-1,3.8075253E-2,-1.5590438E-1,-1.0655337E-1,1.2838086E-1,-4.9909037E-2,-1.9726783E-1,1.8851767E-1,1.6710059E-3,-4.245545E-2,1.8016618E-1,-1.3645694E-1,3.1167898E-2,-1.7733851E-1,-5.431751E-2,-1.4859661E-1,1.54749E-1,-2.2896642E-2,-1.8133135E-1],"categories":[],"categories_nodes":[],"categories_segments":[],"categories_sizes":[],"default_left":[1,0,0,1,1,0,0,0,0,1,1,0,0,0,0,0,0,0,0,1,0,0,0,0,0,0,0,0,0,0,0,0,0,0,0,0,0,0,0,0,0,0,0,0,0,0,0,0,0,0,0,0,0,0,0,0,0,0,0,0,0,0,0,0,0,0,0,0,0,0,0,0,0],"id":3,"left_children":[1,3,5,7,9,11,13,15,17,19,21,23,25,27,29,31,33,-1,-1,35,37,39,-1,41,43,-1,-1,45,47,-1,-1,-1,-1,49,51,53,55,57,59,-1,61,-1,-1,-1,63,65,67,69,71,-1,-1,-1,-1,-1,-1,-1,-1,-1,-1,-1,-1,-1,-1,-1,-1,-1,-1,-1,-1,-1,-1,-1,-1],"loss_changes":[6.4715157E0,2.8724785E0,4.0441318E0,3.5949306E0,6.583214E-1,4.4165263E0,3.4870653E0,2.7754722E0,5.871644E-1,3.9167023E-1,2.1871476E0,2.75637E0,4.8705316E-1,1.5922604E0,3.3619556E0,4.4856846E-1,1.5656762E0,0E0,0E0,2.896843E-1,1.5170307E0,1.2203795E0,0E0,2.5320482E-1,2.1961136E0,0E0,0E0,2.4829655E0,3.4356885E0,0E0,0E0,0E0,0E0,2.7437375E0,1.2254677E0,1.6679382E-1,6.663635E-1,1.9400495E0,1.0554628E0,0E0,3.6769247E-1,0E0,0E0,0E0,2.6155171E0,2.412265E0,1.4514179E0,2.1182518E0,3.106997E-1,0E0,0E0,0E0,0E0,0E0,0E0,0E0,0E0,0E0,0E0,0E0,0E0,0E0,0E0,0E0,0E0,0E0,0E0,0E0,0E0,0E0,0E0,0E0,0E0],"parents":[2147483647,0,0,1,1,2,2,3,3,4,4,5,5,6,6,7,7,8,8,9,9,10,10,11,11,12,12,13,13,14,14,15,15,16,16,19,19,20,20,21,21,23,23,24,24,27,27,28,28,33,33,34,34,35,35,36,36,37,37,38,38,40,40,44,44,45,45,46,46,47,47,48,48],"right_children":[2,4,6,8,10,12,14,16,18,20,22,24,26,28,30,32,34,-1,-1,36,38,40,-1,42,44,-1,-1,46,48,-1,-1,-1,-1,50,52,54,56,58,60,-1,62,-1,-1,-1,64,66,68,70,72,-1,-1,-1,-1,-1,-1,-1,-1,-1,-1,-1,-1,-1,-1,-1,-1,-1,-1,-1,-1,-1,-1,-1,-1],"split_conditions":[2.333467E0,-5.4320138E-2,3.128914E1,3.213416E1,7.704714E1,3.4358E1,7.1865105E1,5.2793443E-1,3.0402235E1,1.4911484E0,1.3623393E1,2.2109236E1,1.6374454E-1,5.2857356E0,-1.1956767E-1,1.545756E1,1.2387516E1,2.5673515E-1,3.302276E-2,1.6781974E-1,2.4006279E1,6.4770633E-1,-1.7991626E-1,3.7755104E1,2.3875353E1,-1.8175784E-1,1.0217248E-2,2.808831E0,6.453662E1,-1.4097074E-1,2.7812448E-1,4.830742E-3,2.281719E-1,-1.2305631E-1,-7.106215E-2,9.13163E-1,1.0387515E0,6.608354E1,-2.191839E-2,-1.2259162E-1,8.156196E1,-1.5731473E-1,-2.7469934E-3,3.109624E-1,-8.794093E-2,3.8211674E1,6.8364174E1,3.0985458E1,5.4670134E0,-1.5204252E-1,2.4388108E-1,-1.7787936E-1,-2.883894E-2,-1.6453722E-1,-2.0181224E-1,3.8075253E-2,-1.5590438E-1,-1.0655337E-1,1.2838086E-1,-4.9909037E-2,-1.9726783E-1,1.8851767E-1,1.6710059E-3,-4.245545E-2,1.8016618E-1,-1.3645694E-1,3.1167898E-2,-1.7733851E-1,-5.431751E-2,-1.4859661E-1,1.54749E-1,-2.2896642E-2,-1.8133135E-1],"split_indices":[3,4,0,1,2,1,1,3,0,3,0,0,4,3,4,0,0,0,0,4,0,3,0,2,0,0,0,3,1,0,0,0,0,4,4,3,3,2,4,0,2,0,0,0,4,1,1,2,3,0,0,0,0,0,0,0,0,0,0,0,0,0,0,0,0,0,0,0,0,0,0,0,0],"split_type":[0,0,0,0,0,0,0,0,0,0,0,0,0,0,0,0,0,0,0,0,0,0,0,0,0,0,0,0,0,0,0,0,0,0,0,0,0,0,0,0,0,0,0,0,0,0,0,0,0,0,0,0,0,0,0,0,0,0,0,0,0,0,0,0,0,0,0,0,0,0,0,0,0],"sum_hessian":[4.050667E2,2.5471541E2,1.5035129E2,4.31195E1,2.1159592E2,3.379011E1,1.1656118E2,3.903098E1,4.0885186E0,1.9851668E2,1.30792265E1,2.5359888E1,8.430223E0,1.11121315E2,5.439864E0,2.698392E0,3.633259E1,1.8847978E0,2.2037208E0,1.4981064E2,4.870604E1,5.3604865E0,7.7187395E0,4.169287E0,2.11906E1,7.1581893E0,1.2720343E0,9.267006E1,1.845126E1,2.0400224E0,3.3998418E0,1.2838624E0,1.4145298E0,4.370192E0,3.1962395E1,1.4478448E2,5.0261555E0,1.5975463E1,3.2730576E1,1.5354195E0,3.825067E0,2.8538036E0,1.3154835E0,3.7737858E0,1.7416815E1,2.938029E1,6.328977E1,9.969612E0,8.4816475E0,2.4439297E0,1.9262626E0,2.530533E1,6.657065E0,9.324722E1,5.1537266E1,2.1651385E0,2.861017E0,1.2782615E1,3.1928484E0,6.1772637E0,2.6553312E1,2.5004778E0,1.3245893E0,8.613983E0,8.802832E0,1.3600633E1,1.5779655E1,5.1619144E1,1.1670625E1,1.8172603E0,8.152352E0,1.6690376E0,6.81261E0],"tree_param":{"num_deleted":"0","num_feature":"5","num_nodes":"73","size_leaf_vector":"1"}},{"base_weights":[6.5178347E-1,5.2290064E-1,8.357306E-1,7.2511977E-1,3.8156974E-1,-1.4154746E-1,8.539726E-1,-1.2522459E-1,7.4134755E-1,2.522111E-1,5.345179E-1,1.04884446E-1,-1.443714E-1,2.8606296E-1,7.7837175E-1,6.16318E-1,9.004129E-1,-5.170313E-3,4.5087492E-1,8.0483687E-1,3.1449878E-1,5.068343E-1,9.1733605E-1,2.9740545E-1,7.65734E-1,2.4616374E-3,9.4564515E-1,1.7983052E-1,-6.0929096E-1,2.764347E-1,7.47189E-1,-2.7968049E-2,8.4719723E-1,6.4911056E-1,1.5285634E-1,6.1571664E-1,-3.110231E-1,5.6062114E-1,9.4524276E-1,2.3744886E-1,1.4686426E-2,2.4256402E-1,2.9174337E-2,7.2559915E-2,2.8906184E-1,-5.3486414E-2,9.391571E-2,-1.6047224E-2,-2.0753801E-1,1.110637E-1,-1.2488891E-1,-1.5452699E-2,2.4364449E-1,8.709063E-2,2.7005512E-1,8.7514654E-2,2.8743085E-1,9.318897E-2,-1.9192463E-1,2.0043735E-1,-5.070183E-2,2.687244E-2,-1.6591185E-1,-4.7577724E-2,2.2524497E-1,2.8706548E-1,1.108758E-1],"categories":[],"categories_nodes":[],"categories_segments":[],"categories_sizes":[],"default_left":[0,1,0,0,0,0,0,0,0,0,0,0,0,0,0,1,0,0,0,0,0,0,0,0,0,0,0,0,0,0,0,0,0,0,0,0,0,0,1,0,0,0,0,0,0,0,0,0,0,0,0,0,0,0,0,0,0,0,0,0,0,0,0,0,0,0,0],"id":4,"left_children":[1,3,5,7,9,11,13,-1,15,17,19,-1,-1,-1,21,23,25,27,29,31,33,35,37,39,41,-1,43,45,47,49,51,-1,53,55,57,59,61,63,65,-1,-1,-1,-1,-1,-1,-1,-1,-1,-1,-1,-1,-1,-1,-1,-1,-1,-1,-1,-1,-1,-1,-1,-1,-1,-1,-1,-1],"loss_changes":[1.1101044E1,7.9784317E0,3.665619E0,2.4919853E0,3.2707958E0,9.1926E-1,7.281952E-1,0E0,1.7605438E0,4.867554E0,4.3847485E0,0E0,0E0,0E0,3.9301376E0,3.0295277E0,1.9725304E0,4.85256E0,2.5697527E0,1.3856888E0,2.314752E0,3.9017105E0,2.2475433E-1,2.839142E0,1.2353973E0,0E0,3.549919E-1,1.6426693E0,4.2966032E-1,2.4535165E0,1.0439949E0,0E0,7.09507E-1,1.2918897E0,4.1255517E0,1.6388683E0,5.885391E-1,1.2076766E0,1.077919E-1,0E0,0E0,0E0,0E0,0E0,0E0,0E0,0E0,0E0,0E0,0E0,0E0,0E0,0E0,0E0,0E0,0E0,0E0,0E0,0E0,0E0,0E0,0E0,0E0,0E0,0E0,0E0,0E0],"parents":[2147483647,0,0,1,1,2,2,3,3,4,4,5,5,6,6,8,8,9,9,10,10,14,14,15,15,16,16,17,17,18,18,19,19,20,20,21,21,22,22,23,23,24,24,26,26,27,27,28,28,29,29,30,30,32,32,33,33,34,34,35,35,36,36,37,37,38,38],"right_children":[2,4,6,8,10,12,14,-1,16,18,20,-1,-1,-1,22,24,26,28,30,32,34,36,38,40,42,-1,44,46,48,50,52,-1,54,56,58,60,62,64,66,-1,-1,-1,-1,-1,-1,-1,-1,-1,-1,-1,-1,-1,-1,-1,-1,-1,-1,-1,-1,-1,-1,-1,-1,-1,-1,-1,-1],"split_conditions":[5.983094E1,1.8025488E1,-6.1638765E-2,-2.3357153E-1,4.5802807E1,2.4580418E1,1.8004314E1,-1.2522459E-1,5.0017573E-3,2.4798026E0,3.707017E0,1.04884446E-1,-1.443714E-1,2.8606296E-1,3.2772247E1,1.3623393E1,3.512179E1,3.537093E1,4.298505E1,4.014291E1,-1.0151276E-1,7.249733E1,9.6787655E-1,-1.2305631E-1,-5.738162E-3,2.4616374E-3,1.245102E1,1.9513433E1,4.5036964E1,4.1282825E1,2.9450047E1,-2.7968049E-2,1.753375E0,3.478175E1,7.196047E1,2.8511383E1,1.2231821E0,3.4986798E-2,7.092557E1,2.3744886E-1,1.4686426E-2,2.4256402E-1,2.9174337E-2,7.2559915E-2,2.8906184E-1,-5.3486414E-2,9.391571E-2,-1.6047224E-2,-2.0753801E-1,1.110637E-1,-1.2488891E-1,-1.5452699E-2,2.4364449E-1,8.709063E-2,2.7005512E-1,8.7514654E-2,2.8743085E-1,9.318897E-2,-1.9192463E-1,2.0043735E-1,-5.070183E-2,2.687244E-2,-1.6591185E-1,-4.7577724E-2,2.2524497E-1,2.8706548E-1,1.108758E-1],"split_indices":[2,1,4,4,0,0,1,0,4,3,3,0,0,0,0,0,2,1,2,1,4,2,3,4,4,0,1,1,2,2,0,0,3,2,0,0,3,4,0,0,0,0,0,0,0,0,0,0,0,0,0,0,0,0,0,0,0,0,0,0,0,0,0,0,0,0,0],"split_type":[0,0,0,0,0,0,0,0,0,0,0,0,0,0,0,0,0,0,0,0,0,0,0,0,0,0,0,0,0,0,0,0,0,0,0,0,0,0,0,0,0,0,0,0,0,0,0,0,0,0,0,0,0,0,0,0,0,0,0,0,0,0,0,0,0,0,0],"sum_hessian":[4.8568042E2,2.8784448E2,1.9783592E2,1.16715256E2,1.7112924E2,3.5013053E0,1.9433463E2,1.2883036E0,1.1542695E2,9.414954E1,7.697969E1,1.4195487E0,2.0817566E0,7.885949E1,1.15475136E2,6.735712E1,4.806983E1,4.1438E1,5.2711544E1,3.3348793E1,4.36309E1,4.0664196E1,7.481094E1,2.2443758E1,4.4913364E1,2.376413E0,4.569342E1,3.2260994E1,9.177009E0,3.439569E1,1.8315851E1,1.448071E0,3.1900723E1,1.32293825E1,3.0401518E1,3.610469E1,4.5595026E0,6.9581437E0,6.78528E1,6.778237E0,1.5665521E1,4.201314E1,2.9002216E0,1.4929334E0,4.4200485E1,8.655511E0,2.3605482E1,1.3992078E0,7.777801E0,3.070466E1,3.6910303E0,1.393186E0,1.6922665E1,3.334408E0,2.8566313E1,7.0356736E0,6.193709E0,2.5861664E1,4.5398545E0,3.3983673E1,2.1210198E0,1.9543856E0,2.605117E0,1.4899893E0,5.4681544E0,6.585862E1,1.9941758E0],"tree_param":{"num_deleted":"0","num_feature":"5","num_nodes":"67","size_leaf_vector":"1"}},{"base_weights":[-3.8396543E-1,-5.798995E-1,-2.947732E-1,-9.976916E-2,-5.9224176E-1,-2.0260593E-1,-4.8099473E-1,1.2714355E-1,-1.4107817E-1,-4.140008E-1,-6.096525E-1,-3.0217026E-3,-3.2867357E-1,-3.1459224E-1,-6.060155E-1,8.1739835E-2,-1.8268225E-1,-4.179042E-1,-1.889173E-1,-2.5064877E-1,2.4088411E-1,-2.2216158E-1,-4.671186E-1,-4.34154E-1,8.2654595E-2,-5.903456E-2,-6.2011236E-1,-1.0875882E-1,3.1880954E-1,-5.470018E-1,6.623983E-2,6.8916255E-3,-5.5530274E-1,3.8242954E-1,-4.6286392E-1,-5.09097E-1,-8.1713304E-2,-4.9933076E-1,1.14672825E-1,6.919842E-2,-4.806774E-1,4.895456E-1,-2.8942654E-1,-1.9123788E-1,-3.0258903E-1,1.7012846E-1,-5.0754477E-3,-1.8621762E-1,-2.1940451E-2,1.4971907E-1,-1.8672018E-1,9.367204E-2,-2.0018299E-1,6.636251E-2,3.0188674E-1,-7.7543734E-4,-1.722806E-1,1.07882194E-1,-1.754469E-1,2.6636804E-2,-1.5286303E-1,-4.76678E-2,-1.847703E-1,1.486814E-2,-1.5909421E-1,2.7008724E-1,-3.996951E-2,-1.6739878E-1,1.07150964E-1,-1.4250733E-1,3.1526394E-2],"categories":[],"categories_nodes":[],"categories_segments":[],"categories_sizes":[],"default_left":[1,0,0,1,1,0,0,0,0,0,0,1,0,1,0,0,0,0,0,0,0,0,0,0,0,0,0,0,0,0,0,0,0,0,0,0,0,0,0,0,0,0,0,0,0,0,0,0,0,0,0,0,0,0,0,0,0,0,0,0,0,0,0,0,0,0,0,0,0,0,0],"id":5,"left_children":[1,3,5,7,9,11,13,-1,-1,15,17,19,21,23,25,27,-1,29,-1,31,33,35,37,39,41,-1,43,-1,45,47,-1,49,51,53,55,57,59,61,-1,-1,63,65,67,-1,69,-1,-1,-1,-1,-1,-1,-1,-1,-1,-1,-1,-1,-1,-1,-1,-1,-1,-1,-1,-1,-1,-1,-1,-1,-1,-1],"loss_changes":[6.9485016E0,6.899719E-1,4.7423954E0,1.0471039E0,1.294136E-1,4.788536E0,1.7364025E0,0E0,0E0,1.4089694E0,1.6007233E-1,4.5720873E0,1.6164169E0,2.0220428E0,1.7687035E-1,6.265282E-1,0E0,1.2251341E0,0E0,2.950601E0,3.9764981E0,2.6922345E0,1.5538359E0,1.1099992E0,1.7335391E0,0E0,8.043671E-2,0E0,3.1762698E-1,3.5387897E-1,0E0,6.9200764E0,1.8808675E0,3.026442E0,3.492248E-1,1.6642466E0,3.4544466E0,1.8240786E0,0E0,0E0,8.294101E-1,1.4997085E0,1.2621799E0,0E0,3.6444324E-1,0E0,0E0,0E0,0E0,0E0,0E0,0E0,0E0,0E0,0E0,0E0,0E0,0E0,0E0,0E0,0E0,0E0,0E0,0E0,0E0,0E0,0E0,0E0,0E0,0E0,0E0],"parents":[2147483647,0,0,1,1,2,2,3,3,4,4,5,5,6,6,9,9,10,10,11,11,12,12,13,13,14,14,15,15,17,17,19,19,20,20,21,21,22,22,23,23,24,24,26,26,28,28,29,29,31,31,32,32,33,33,34,34,35,35,36,36,37,37,40,40,41,41,42,42,44,44],"right_children":[2,4,6,8,10,12,14,-1,-1,16,18,20,22,24,26,28,-1,30,-1,32,34,36,38,40,42,-1,44,-1,46,48,-1,50,52,54,56,58,60,62,-1,-1,64,66,68,-1,70,-1,-1,-1,-1,-1,-1,-1,-1,-1,-1,-1,-1,-1,-1,-1,-1,-1,-1,-1,-1,-1,-1,-1,-1,-1,-1],"split_conditions":[9.13163E-1,3.7711984E-1,5.983094E1,1.12818575E1,1.0025769E1,2.1262562E0,2.9450047E1,1.2714355E-1,-1.4107817E-1,2.7712513E-2,4.343194E1,1.8025488E1,4.298505E1,2.2228271E1,-6.1638765E-2,-1.9625468E-2,-1.8268225E-1,4.235472E1,-1.889173E-1,5.0017573E-3,4.564651E1,3.5114124E0,2.8381166E-1,-4.3120403E-2,2.5322344E0,-5.903456E-2,1.22682415E-1,-1.0875882E-1,-2.9587204E-4,8.8873285E-1,6.623983E-2,1.4710687E1,3.4441086E1,3.537093E1,1.0537084E0,2.3875353E1,5.2857356E0,2.586383E0,1.14672825E-1,6.919842E-2,1.3094709E1,9.360237E-2,3.2344046E0,-1.9123788E-1,4.515094E1,1.7012846E-1,-5.0754477E-3,-1.8621762E-1,-2.1940451E-2,1.4971907E-1,-1.8672018E-1,9.367204E-2,-2.0018299E-1,6.636251E-2,3.0188674E-1,-7.7543734E-4,-1.722806E-1,1.07882194E-1,-1.754469E-1,2.6636804E-2,-1.5286303E-1,-4.76678E-2,-1.847703E-1,1.486814E-2,-1.5909421E-1,2.7008724E-1,-3.996951E-2,-1.6739878E-1,1.07150964E-1,-1.4250733E-1,3.1526394E-2],"split_indices":[3,3,2,1,0,3,0,0,0,4,2,1,2,1,4,4,0,2,0,4,0,3,4,4,3,0,4,0,4,3,0,0,2,1,3,0,3,3,0,0,0,4,3,0,0,0,0,0,0,0,0,0,0,0,0,0,0,0,0,0,0,0,0,0,0,0,0,0,0,0,0],"split_type":[0,0,0,0,0,0,0,0,0,0,0,0,0,0,0,0,0,0,0,0,0,0,0,0,0,0,0,0,0,0,0,0,0,0,0,0,0,0,0,0,0,0,0,0,0,0,0,0,0,0,0,0,0,0,0,0,0,0,0,0,0,0,0,0,0,0,0,0,0,0,0],"sum_hessian":[4.0638837E2,1.2540402E2,2.8098434E2,3.370513E0,1.2203351E2,1.8935446E2,9.1629875E1,1.3370569E0,2.033456E0,1.3064562E1,1.0896895E2,7.370005E1,1.1565441E2,4.081779E1,5.0812084E1,3.8512814E0,9.21328E0,1.239343E1,9.6575516E1,3.6557323E1,3.7142723E1,6.683779E1,4.881662E1,3.1303333E1,9.514458E0,2.190173E0,4.862191E1,1.155904E0,2.6953773E0,1.0429041E1,1.9643887E0,2.034011E1,1.6217213E1,3.1303255E1,5.839468E0,2.110189E1,4.57359E1,4.7429943E1,1.3866777E0,1.7884581E0,2.9514875E1,4.3938484E0,5.1206093E0,4.514776E1,3.4741542E0,1.1533059E0,1.5420713E0,8.756761E0,1.6722803E0,1.1529661E1,8.81045E0,1.6494232E0,1.4567789E1,2.5951347E1,5.3519077E0,1.3373368E0,4.5021315E0,1.3913996E0,1.971049E1,3.326951E1,1.24663925E1,1.2700823E1,3.472912E1,2.5265727E0,2.6988302E1,2.3791218E0,2.0147269E0,3.7147017E0,1.4059075E0,2.325386E0,1.1487682E0],"tree_param":{"num_deleted":"0","num_feature":"5","num_nodes":"71","size_leaf_vector":"1"}},{"base_weights":[-3.361792E-1,-4.861722E-1,-2.3764049E-1,-3.0335948E-1,-5.7158667E-1,-1.1413613E-1,-3.435874E-1,-5.622764E-1,-1.0570089E-1,-3.4973598E-1,-1.85502E-1,-1.6315722E-1,3.3248404E-1,-3.7825465E-1,3.41689E-1,-2.5442845E-1,-1.8119475E-1,7.374643E-1,-2.7486756E-1,-4.9219424E-1,-1.2667899E-1,3.8743874E-1,-2.1896364E-1,-4.35577E-1,-6.6873886E-2,-1.2520488E-1,2.2075218E-1,-1.3387816E-1,5.092183E-2,-7.2282567E-3,3.029098E-1,-4.401555E-1,1.303518E-1,4.0412545E-2,-1.714196E-1,3.2718077E-1,-4.392104E-1,-1.3694455E-1,6.996306E-1,-9.63443E-2,-5.7923216E-1,-4.8204067E-1,-1.1054736E-1,2.5594625E-1,-4.7446173E-1,-4.4287823E-2,-1.7352441E-1,-1.4711675E-1,1.7820244E-1,-6.2272817E-2,-1.5787873E-1,2.8644755E-1,6.844497E-2,1.7097436E-2,-1.157697E-1,-1.8448898E-1,3.238111E-3,-6.122116E-2,-1.6018617E-1,1.6563646E-1,-1.0145991E-1,-1.4500405E-1,1.3408269E-1,-1.5535315E-2,-1.6878533E-1],"categories":[],"categories_nodes":[],"categories_segments":[],"categories_sizes":[],"default_left":[0,0,0,0,0,1,1,0,0,0,0,0,0,1,0,0,0,0,0,0,0,0,0,1,0,0,0,0,0,0,0,0,0,0,0,0,0,0,0,0,0,0,0,0,0,0,0,0,0,0,0,0,0,0,0,0,0,0,0,0,0,0,0,0,0],"id":6,"left_children":[1,3,5,7,9,11,13,15,17,19,-1,21,-1,23,25,27,-1,29,31,33,35,37,39,41,43,-1,-1,-1,-1,-1,-1,45,47,-1,-1,-1,49,-1,51,53,55,57,59,61,63,-1,-1,-1,-1,-1,-1,-1,-1,-1,-1,-1,-1,-1,-1,-1,-1,-1,-1,-1,-1],"loss_changes":[5.275654E0,2.0699081E0,2.86687E0,2.3909159E0,7.8762436E-1,6.415783E0,2.957407E0,1.09485626E-1,4.25118E0,5.4611874E-1,0E0,3.1853983E0,0E0,2.0019035E0,2.1793E0,4.153279E-1,0E0,1.0639584E0,1.689547E0,6.3998675E-1,3.8305328E0,2.8611407E0,4.019863E0,1.3952599E0,2.6045976E0,0E0,0E0,0E0,0E0,0E0,0E0,6.2389874E-1,2.5453336E0,0E0,0E0,0E0,4.648447E-2,0E0,6.769898E-1,3.1313508E0,4.963355E-1,1.0977402E0,2.1922624E0,1.794781E0,2.94721E-1,0E0,0E0,0E0,0E0,0E0,0E0,0E0,0E0,0E0,0E0,0E0,0E0,0E0,0E0,0E0,0E0,0E0,0E0,0E0,0E0],"parents":[2147483647,0,0,1,1,2,2,3,3,4,4,5,5,6,6,7,7,8,8,9,9,11,11,13,13,14,14,15,15,17,17,18,18,19,19,20,20,21,21,22,22,23,23,24,24,31,31,32,32,36,36,38,38,39,39,40,40,41,41,42,42,43,43,44,44],"right_children":[2,4,6,8,10,12,14,16,18,20,-1,22,-1,24,26,28,-1,30,32,34,36,38,40,42,44,-1,-1,-1,-1,-1,-1,46,48,-1,-1,-1,50,-1,52,54,56,58,60,62,64,-1,-1,-1,-1,-1,-1,-1,-1,-1,-1,-1,-1,-1,-1,-1,-1,-1,-1,-1,-1],"split_conditions":[1.9047117E1,5.168562E1,3.7411343E1,1.4171148E1,5.2793443E-1,4.4464333E1,7.1865105E1,1.2585843E1,1.2639929E1,1.4241983E1,-1.85502E-1,8.907547E-1,3.3248404E-1,5.2857356E0,-1.1956767E-1,1.245102E1,-1.8119475E-1,-1.16284385E-1,1.5284629E1,-1.8845048E-2,1.4679063E1,-1.16284385E-1,3.4358E1,6.8364174E1,6.453662E1,-1.2520488E-1,2.2075218E-1,-1.3387816E-1,5.092183E-2,-7.2282567E-3,3.029098E-1,-6.1638765E-2,3.3863605E1,4.0412545E-2,-1.714196E-1,3.2718077E-1,1.5284629E1,-1.3694455E-1,2.7712513E-2,3.128914E1,4.2187724E0,4.0865154E1,6.896415E1,-1.7560333E-1,5.4670134E0,-4.4287823E-2,-1.7352441E-1,-1.4711675E-1,1.7820244E-1,-6.2272817E-2,-1.5787873E-1,2.8644755E-1,6.844497E-2,1.7097436E-2,-1.157697E-1,-1.8448898E-1,3.238111E-3,-6.122116E-2,-1.6018617E-1,1.6563646E-1,-1.0145991E-1,-1.4500405E-1,1.3408269E-1,-1.5535315E-2,-1.6878533E-1],"split_indices":[1,2,0,1,3,1,1,1,0,1,0,3,0,3,4,1,0,4,1,4,1,4,1,1,1,0,0,0,0,0,0,4,2,0,0,0,1,0,4,0,3,1,1,4,3,0,0,0,0,0,0,0,0,0,0,0,0,0,0,0,0,0,0,0,0],"split_type":[0,0,0,0,0,0,0,0,0,0,0,0,0,0,0,0,0,0,0,0,0,0,0,0,0,0,0,0,0,0,0,0,0,0,0,0,0,0,0,0,0,0,0,0,0,0,0,0,0,0,0,0,0,0,0,0,0,0,0,0,0,0,0,0,0],"sum_hessian":[3.637595E2,1.4266492E2,2.2109457E2,4.687974E1,9.578517E1,1.0304745E2,1.1804712E2,1.9496372E1,2.7383371E1,1.8148516E1,7.763666E1,9.99075E1,3.139943E0,1.12789276E2,5.2578406E0,3.1733346E0,1.6323036E1,4.0145493E0,2.3368822E1,1.0338873E1,7.8096423E0,8.64747E0,9.126003E1,9.491706E1,1.7872221E1,1.7769734E0,3.4808674E0,2.1492438E0,1.0240908E0,1.2972045E0,2.7173448E0,1.6537148E1,6.831676E0,1.0811114E0,9.257761E0,1.0868567E0,6.7227855E0,2.2103214E0,6.437149E0,6.9032036E1,2.2228E1,8.262288E1,1.2294179E1,1.0180805E1,7.6914153E0,5.971136E0,1.056601E1,2.8963711E0,3.9353049E0,2.7608957E0,3.9618897E0,3.5114005E0,2.9257486E0,4.5657143E1,2.3374891E1,2.0918919E1,1.3090837E0,1.37782135E1,6.8844666E1,2.7791424E0,9.515037E0,1.7759454E0,8.40486E0,1.6012757E0,6.0901394E0],"tree_param":{"num_deleted":"0","num_feature":"5","num_nodes":"65","size_leaf_vector":"1"}},{"base_weights":[5.00377E-1,3.102176E-1,5.8486754E-1,7.6622605E-1,2.6782915E-1,1.0908891E-1,6.145148E-1,2.4774589E-1,6.037776E-2,-1.8188755E-1,2.870357E-1,2.2840326E-1,-1.1062388E-1,7.3189473E-1,5.116142E-1,4.5996848E-1,1.8870454E-1,-2.72579E-1,2.1496168E-1,4.9897015E-1,7.4855036E-1,2.1968646E-1,5.7061815E-1,6.3127404E-1,2.525294E-1,6.1639555E-2,3.4979576E-1,-1.9462357E-1,-8.1059314E-2,2.257705E-1,1.6692141E-2,5.981302E-1,2.3631789E-1,3.623331E-1,-3.220663E-1,5.918696E-1,-3.2636303E-1,2.2252694E-1,-3.7835572E-2,-1.8541843E-1,1.24715626E-1,1.0445518E-1,-5.338705E-2,1.1939765E-1,-1.3660729E-1,-1.2953421E-1,4.1665934E-2,-9.964331E-2,9.412455E-2,2.0078753E-1,2.7218633E-3,1.5999044E-1,-1.3500242E-1,3.894177E-2,-1.8270014E-1,-1.5226765E-1,1.8212932E-1,-1.3956064E-1,-4.07603E-3],"categories":[],"categories_nodes":[],"categories_segments":[],"categories_sizes":[],"default_left":[0,0,0,0,0,0,0,0,0,0,0,0,0,0,0,1,1,0,0,0,0,0,1,0,0,0,0,0,0,0,0,0,0,0,0,0,0,0,0,0,0,0,0,0,0,0,0,0,0,0,0,0,0,0,0,0,0,0,0],"id":7,"left_children":[1,3,5,7,9,11,13,-1,-1,-1,15,-1,17,19,21,23,25,27,-1,29,31,33,35,37,39,41,43,-1,45,-1,47,49,-1,51,53,55,57,-1,-1,-1,-1,-1,-1,-1,-1,-1,-1,-1,-1,-1,-1,-1,-1,-1,-1,-1,-1,-1,-1],"loss_changes":[7.6012115E0,2.7163296E0,4.6477814E0,2.4850273E-1,2.5215645E0,3.068263E0,3.4233856E0,0E0,0E0,0E0,2.251339E0,0E0,2.398859E0,1.8730164E-1,2.8178902E0,1.5870447E0,1.8074031E0,9.906001E-1,0E0,1.5341382E0,3.1208038E-1,2.4625478E0,2.8907585E0,2.2902021E0,3.6518471E0,3.5747452E0,1.7018962E0,0E0,8.882705E-1,0E0,6.617957E-1,1.3193083E0,0E0,3.6425583E0,9.680233E-1,2.628563E0,1.6389894E-1,0E0,0E0,0E0,0E0,0E0,0E0,0E0,0E0,0E0,0E0,0E0,0E0,0E0,0E0,0E0,0E0,0E0,0E0,0E0,0E0,0E0,0E0],"parents":[2147483647,0,0,1,1,2,2,3,3,4,4,5,5,6,6,10,10,12,12,13,13,14,14,15,15,16,16,17,17,19,19,20,20,21,21,22,22,23,23,24,24,25,25,26,26,28,28,30,30,31,31,33,33,34,34,35,35,36,36],"right_children":[2,4,6,8,10,12,14,-1,-1,-1,16,-1,18,20,22,24,26,28,-1,30,32,34,36,38,40,42,44,-1,46,-1,48,50,-1,52,54,56,58,-1,-1,-1,-1,-1,-1,-1,-1,-1,-1,-1,-1,-1,-1,-1,-1,-1,-1,-1,-1,-1,-1],"split_conditions":[-3.1333946E-2,1.3016123E1,3.7413857E1,5.702605E1,1.3520157E1,3.2250797E1,1.87437E1,2.4774589E-1,6.037776E-2,-1.8188755E-1,-1.1772474E-1,2.2840326E-1,5.4670134E0,4.5288742E1,2.8359068E1,2.90867E1,3.2772247E1,7.202389E-3,2.1496168E-1,4.2872192E1,5.349507E-1,6.608354E1,7.138377E1,3.8046005E0,2.4798026E0,1.8152037E1,7.074585E1,-1.9462357E-1,3.512179E1,2.257705E-1,1.3950405E1,5.167374E-1,2.3631789E-1,2.6974451E1,1.921704E1,1.2480598E1,5.359695E1,2.2252694E-1,-3.7835572E-2,-1.8541843E-1,1.24715626E-1,1.0445518E-1,-5.338705E-2,1.1939765E-1,-1.3660729E-1,-1.2953421E-1,4.1665934E-2,-9.964331E-2,9.412455E-2,2.0078753E-1,2.7218633E-3,1.5999044E-1,-1.3500242E-1,3.894177E-2,-1.8270014E-1,-1.5226765E-1,1.8212932E-1,-1.3956064E-1,-4.07603E-3],"split_indices":[4,1,2,2,1,2,1,0,0,0,4,0,3,2,1,1,0,4,0,2,3,2,1,3,3,1,1,0,2,0,0,3,0,1,1,0,2,0,0,0,0,0,0,0,0,0,0,0,0,0,0,0,0,0,0,0,0,0,0],"split_type":[0,0,0,0,0,0,0,0,0,0,0,0,0,0,0,0,0,0,0,0,0,0,0,0,0,0,0,0,0,0,0,0,0,0,0,0,0,0,0,0,0,0,0,0,0,0,0,0,0,0,0,0,0,0,0,0,0,0,0],"sum_hessian":[4.833974E2,1.5014459E2,3.332528E2,1.1317404E1,1.388272E2,1.9822449E1,3.1343036E2,9.819876E0,1.4975281E0,2.3275964E0,1.364996E2,4.3735714E0,1.5448877E1,1.4355867E2,1.6987169E2,4.814693E1,8.835267E1,1.348001E1,1.9688666E0,1.1646277E1,1.319124E2,2.9355543E1,1.4051614E2,2.52511E1,2.2895828E1,5.016574E1,3.8186928E1,3.7423193E0,9.737691E0,7.2654257E0,4.3808517E0,3.061826E1,1.01294136E2,2.349924E1,5.8563023E0,1.3759634E2,2.9198012E0,2.2054598E1,3.1965034E0,3.1742558E0,1.9721573E1,2.2638319E1,2.7527422E1,3.6507298E1,1.6796277E0,3.381882E0,6.355809E0,1.9604983E0,2.4203537E0,2.719655E1,3.421709E0,1.9697195E1,3.8020456E0,2.4871218E0,3.3691804E0,1.4381248E0,1.3615822E2,1.6846609E0,1.2351403E0],"tree_param":{"num_deleted":"0","num_feature":"5","num_nodes":"59","size_leaf_vector":"1"}},{"base_weights":[-3.26293E-1,-5.164737E-1,-2.42349E-1,-5.350608E-2,-5.294151E-1,-1.4757444E-1,-3.980552E-1,1.2178737E-1,-1.2633246E-1,-5.365719E-1,2.0708524E-2,1.0908528E-1,-2.5860867E-1,-4.2012677E-1,1.0473774E-1,-3.4773648E-1,-5.5555165E-1,-1.5091577E-1,2.7943325E-1,-9.730457E-2,-4.4438875E-1,-1.469014E-2,-4.4704723E-1,1.1600386E-1,-1.6686055E-1,-3.9374384E-1,-5.7541704E-1,2.7203867E-1,-1.7775291E-1,7.2056717E-1,-5.1957313E-2,2.2684002E-1,-1.3811913E-1,-3.0654603E-1,-1.7501654E-1,-1.5059051E-1,4.199081E-1,-3.1919622E-1,-5.029501E-1,-1.0185417E-1,1.0360898E-1,-1.5541142E-1,7.20027E-2,-1.3117717E-1,-1.818263E-1,2.827353E-1,-4.421828E-2,2.8135017E-1,-1.1246315E-2,-6.6894606E-2,1.5434714E-1,-1.4271122E-1,-4.1100776E-4,-1.5959221E-1,8.0438234E-2,2.7215245E-1,-3.2110635E-2,-1.272046E-1,2.0001723E-1,-4.761018E-2,-1.5801519E-1],"categories":[],"categories_nodes":[],"categories_segments":[],"categories_sizes":[],"default_left":[1,0,0,1,1,0,0,0,0,1,0,0,0,0,0,0,0,0,0,0,0,0,0,0,0,0,0,0,0,0,0,0,0,0,0,0,0,0,0,0,0,0,0,0,0,0,0,0,0,0,0,0,0,0,0,0,0,0,0,0,0],"id":8,"left_children":[1,3,5,7,9,11,13,-1,-1,15,-1,17,19,21,-1,23,25,27,29,31,33,35,37,39,-1,41,43,45,-1,47,49,-1,51,53,-1,-1,55,57,59,-1,-1,-1,-1,-1,-1,-1,-1,-1,-1,-1,-1,-1,-1,-1,-1,-1,-1,-1,-1,-1,-1],"loss_changes":[5.734173E0,6.39761E-1,3.7266417E0,8.7098277E-1,5.0115395E-1,4.617708E0,1.7375832E0,0E0,0E0,1.9100761E-1,0E0,2.2272592E0,3.3343816E0,1.0210857E0,0E0,1.2694159E0,8.115387E-2,3.9299135E0,4.4460473E0,2.250479E0,8.194256E-1,1.6712434E0,4.7026062E-1,6.075284E-1,0E0,1.1984186E0,8.71048E-2,3.2297454E0,0E0,2.176887E0,1.8733588E0,0E0,2.7527623E0,3.8045154E0,0E0,0E0,1.1728756E0,3.340372E0,4.0462494E-1,0E0,0E0,0E0,0E0,0E0,0E0,0E0,0E0,0E0,0E0,0E0,0E0,0E0,0E0,0E0,0E0,0E0,0E0,0E0,0E0,0E0,0E0],"parents":[2147483647,0,0,1,1,2,2,3,3,4,4,5,5,6,6,9,9,11,11,12,12,13,13,15,15,16,16,17,17,18,18,19,19,20,20,21,21,22,22,23,23,25,25,26,26,27,27,29,29,30,30,32,32,33,33,36,36,37,37,38,38],"right_children":[2,4,6,8,10,12,14,-1,-1,16,-1,18,20,22,-1,24,26,28,30,32,34,36,38,40,-1,42,44,46,-1,48,50,-1,52,54,-1,-1,56,58,60,-1,-1,-1,-1,-1,-1,-1,-1,-1,-1,-1,-1,-1,-1,-1,-1,-1,-1,-1,-1,-1,-1],"split_conditions":[9.367737E-1,3.7711984E-1,3.4986798E-2,1.12818575E1,2.1124298E1,1.753375E0,2.8381166E-1,1.2178737E-1,-1.2633246E-1,1.0025769E1,2.0708524E-2,4.379321E1,4.656686E1,3.560167E1,1.0473774E-1,2.7712513E-2,4.343194E1,1.4710687E1,-3.1333946E-2,2.150985E1,4.271983E1,3.4341133E1,2.3790943E1,1.2240601E1,-1.6686055E-1,4.235472E1,1.2402933E1,3.639579E1,-1.7775291E-1,2.6788006E1,1.5348321E0,2.2684002E-1,3.2048717E1,3.4820488E1,-1.7501654E-1,-1.5059051E-1,6.843471E-2,2.7531961E1,4.0047623E-2,-1.0185417E-1,1.0360898E-1,-1.5541142E-1,7.20027E-2,-1.3117717E-1,-1.818263E-1,2.827353E-1,-4.421828E-2,2.8135017E-1,-1.1246315E-2,-6.6894606E-2,1.5434714E-1,-1.4271122E-1,-4.1100776E-4,-1.5959221E-1,8.0438234E-2,2.7215245E-1,-3.2110635E-2,-1.272046E-1,2.0001723E-1,-4.761018E-2,-1.5801519E-1],"split_indices":[3,3,4,1,0,3,4,0,0,0,0,2,2,2,0,4,2,0,4,0,1,2,1,1,0,2,1,2,0,0,3,0,2,1,0,0,4,0,4,0,0,0,0,0,0,0,0,0,0,0,0,0,0,0,0,0,0,0,0,0,0],"split_type":[0,0,0,0,0,0,0,0,0,0,0,0,0,0,0,0,0,0,0,0,0,0,0,0,0,0,0,0,0,0,0,0,0,0,0,0,0,0,0,0,0,0,0,0,0,0,0,0,0,0,0,0,0,0,0,0,0,0,0,0,0],"sum_hessian":[3.6602222E2,1.1050748E2,2.5551474E2,3.1446471E0,1.0736283E2,1.6004625E2,9.546848E1,1.3513107E0,1.7933365E0,1.0619621E2,1.1666187E0,4.8335197E1,1.1171105E2,9.315444E1,2.3140464E0,1.1463502E1,9.473271E1,1.9178003E1,2.9157194E1,6.061001E1,5.1101048E1,5.896449E0,8.725799E1,3.6926262E0,7.7708755E0,1.2635399E1,8.209731E1,9.9918585E0,9.186146E0,1.2003817E1,1.7153378E1,1.9663934E0,5.8643616E1,2.7266687E1,2.3834358E1,2.706671E0,3.1897779E0,2.858753E1,5.867046E1,1.07579E0,2.6168363E0,1.0716268E1,1.9191315E0,1.7685804E1,6.441151E1,3.365521E0,6.626338E0,9.145469E0,2.8583477E0,1.364113E1,3.5122473E0,1.619219E1,4.2451424E1,1.9637686E1,7.629002E0,1.2823788E0,1.9073992E0,2.6355453E1,2.2320757E0,4.2848663E0,5.4385593E1],"tree_param":{"num_deleted":"0","num_feature":"5","num_nodes":"61","size_leaf_vector":"1"}},{"base_weights":[-2.8539917E-1,-3.8055247E-1,-1.3995834E-1,-1.5194248E-1,-4.3164068E-1,1.0149981E-1,-2.1395718E-1,-2.4939068E-1,5.298298E-1,-4.5035252E-1,-1.3669015E-1,2.485566E-1,-4.1300008E-1,-1.5953122E-1,-1.6807069E-1,5.112178E-3,-5.2658224E-1,2.0348476E-2,1.979378E-1,-5.4508954E-1,-4.0446982E-1,2.864835E-1,-1.5009682E-1,-3.5211164E-1,3.7361875E-1,-1.5475759E-1,1.7689973E-2,-4.3380892E-1,-6.586047E-2,-2.8078744E-1,3.674358E-1,-1.7183854E-1,-1.7537437E-1,-1.7557658E-1,-3.3158883E-1,4.68495E-1,-4.562281E-1,-9.586691E-2,5.049544E-1,-1.4594601E-1,5.330422E-3,-4.3864727E-2,5.7866335E-1,1.03999875E-1,-5.0123507E-1,-1.2094863E-1,6.198722E-1,1.0798402E-1,-1.3739786E-1,-1.375116E-1,2.4157487E-1,-1.05502024E-1,2.2715341E-2,1.1759825E-1,-1.5670805E-1,2.2694091E-1,-1.0833388E-1,3.2730583E-2,-1.4411415E-1,1.810849E-1,3.2928728E-2,-1.3427834E-1,1.6782403E-1,2.608338E-1,-3.0975E-3,-5.605791E-2,-1.8584727E-1,-2.8848525E-3,-1.17934614E-1,2.0932645E-1,6.637304E-2],"categories":[],"categories_nodes":[],"categories_segments":[],"categories_sizes":[],"default_left":[1,0,0,1,1,0,0,0,0,0,1,0,0,0,0,0,0,0,0,0,0,0,0,0,0,0,0,0,0,0,0,0,0,0,0,0,0,0,0,0,0,0,0,0,0,0,0,0,0,0,0,0,0,0,0,0,0,0,0,0,0,0,0,0,0,0,0,0,0,0,0],"id":9,"left_children":[1,3,5,7,9,11,13,15,17,19,21,23,25,27,-1,29,31,-1,-1,33,35,37,-1,39,41,-1,-1,43,45,47,49,-1,51,-1,53,55,57,-1,59,-1,-1,61,63,-1,65,67,69,-1,-1,-1,-1,-1,-1,-1,-1,-1,-1,-1,-1,-1,-1,-1,-1,-1,-1,-1,-1,-1,-1,-1,-1],"loss_changes":[4.468403E0,2.234398E0,2.3588164E0,2.6244147E0,8.237858E-1,2.4754546E0,1.8035674E0,2.3661098E0,2.561469E-1,4.333248E-1,1.8368593E0,2.010639E0,3.8708127E-1,2.237333E0,0E0,2.0150023E0,1.5997314E-1,0E0,0E0,2.021265E-1,4.967415E0,9.189963E-1,0E0,2.4847889E-1,1.839196E0,0E0,0E0,1.34589E0,2.6030068E0,1.4005072E0,3.468757E0,0E0,1.730246E-1,0E0,1.5330602E0,1.7978907E0,1.4154549E0,0E0,1.1285114E-1,0E0,0E0,2.1766088E0,2.4547071E0,0E0,6.616478E-1,1.8985915E0,5.1933527E-3,0E0,0E0,0E0,0E0,0E0,0E0,0E0,0E0,0E0,0E0,0E0,0E0,0E0,0E0,0E0,0E0,0E0,0E0,0E0,0E0,0E0,0E0,0E0,0E0],"parents":[2147483647,0,0,1,1,2,2,3,3,4,4,5,5,6,6,7,7,8,8,9,9,10,10,11,11,12,12,13,13,15,15,16,16,19,19,20,20,21,21,23,23,24,24,27,27,28,28,29,29,30,30,32,32,34,34,35,35,36,36,38,38,41,41,42,42,44,44,45,45,46,46],"right_children":[2,4,6,8,10,12,14,16,18,20,22,24,26,28,-1,30,32,-1,-1,34,36,38,-1,40,42,-1,-1,44,46,48,50,-1,52,-1,54,56,58,-1,60,-1,-1,62,64,-1,66,68,70,-1,-1,-1,-1,-1,-1,-1,-1,-1,-1,-1,-1,-1,-1,-1,-1,-1,-1,-1,-1,-1,-1,-1,-1],"split_conditions":[2.333467E0,-5.4320138E-2,3.0828796E1,3.213416E1,7.704714E1,3.4358E1,6.809156E1,9.13163E-1,1.6113514E0,1.4287486E1,1.3623393E1,2.2109236E1,1.6374454E-1,-9.2333905E-2,-1.6807069E-1,1.4988956E1,-6.784748E-2,2.0348476E-2,1.979378E-1,1.4573467E1,1.2654486E1,6.4770633E-1,-1.5009682E-1,9.449999E-2,2.9327283E0,-1.5475759E-1,1.7689973E-2,2.4798026E0,7.138377E1,1.2279655E1,-1.16284385E-1,-1.7183854E-1,1.3613143E0,-1.7557658E-1,1.2585843E1,1.0387515E0,1.4679063E1,-9.586691E-2,8.156196E1,-1.4594601E-1,5.330422E-3,2.8807655E1,3.0503801E1,1.03999875E-1,3.3581676E1,6.5616516E1,5.359695E1,1.0798402E-1,-1.3739786E-1,-1.375116E-1,2.4157487E-1,-1.05502024E-1,2.2715341E-2,1.1759825E-1,-1.5670805E-1,2.2694091E-1,-1.0833388E-1,3.2730583E-2,-1.4411415E-1,1.810849E-1,3.2928728E-2,-1.3427834E-1,1.6782403E-1,2.608338E-1,-3.0975E-3,-5.605791E-2,-1.8584727E-1,-2.8848525E-3,-1.17934614E-1,2.0932645E-1,6.637304E-2],"split_indices":[3,4,0,1,2,1,2,3,3,1,0,0,4,4,0,1,4,0,0,0,0,3,0,4,3,0,0,3,1,0,4,0,3,0,1,3,1,0,2,0,0,1,1,0,2,0,2,0,0,0,0,0,0,0,0,0,0,0,0,0,0,0,0,0,0,0,0,0,0,0,0],"split_type":[0,0,0,0,0,0,0,0,0,0,0,0,0,0,0,0,0,0,0,0,0,0,0,0,0,0,0,0,0,0,0,0,0,0,0,0,0,0,0,0,0,0,0,0,0,0,0,0,0,0,0,0,0,0,0,0,0,0,0,0,0,0,0,0,0,0,0,0,0,0,0],"sum_hessian":[3.257293E2,1.9592844E2,1.2980086E2,3.6513165E1,1.5941528E2,3.036107E1,9.94398E1,3.250177E1,4.011394E0,1.4940976E2,1.0005514E1,2.4014133E1,6.346936E0,8.719562E1,1.224418E1,1.745607E1,1.5045699E1,1.2148086E0,2.7965856E0,4.520073E1,1.0420904E2,4.7222295E0,5.2832847E0,3.825401E0,2.0188732E1,5.134866E0,1.2120702E0,2.1273468E1,6.592215E1,9.882835E0,7.573236E0,1.2738592E1,2.3071063E0,3.6578087E1,8.62264E0,5.3820896E0,9.882694E1,1.12865E0,3.5935793E0,2.5747528E0,1.2506483E0,6.908556E0,1.3280176E1,1.3623612E0,1.9911106E1,6.178249E1,4.1396585E0,1.9176852E0,7.96515E0,2.6076703E0,4.9655657E0,1.1200866E0,1.1870198E0,1.5789604E0,7.043679E0,4.0606956E0,1.3213942E0,3.9050505E0,9.49219E1,2.453619E0,1.1399604E0,4.293377E0,2.6151788E0,8.572018E0,4.7081594E0,6.1477737E0,1.3763333E1,4.4581375E1,1.7201113E1,2.8353171E0,1.3043414E0],"tree_param":{"num_deleted":"0","num_feature":"5","num_nodes":"71","size_leaf_vector":"1"}},{"base_weights":[3.9666393E-1,3.0752674E-1,5.48576E-1,4.476915E-1,2.0182085E-1,-2.831568E-1,5.6333673E-1,-1.2990405E-1,4.604357E-1,-2.0224023E-1,2.2559653E-1,-3.8728293E-3,-1.2893079E-1,6.4737064E-1,4.9718758E-1,3.600751E-1,5.607914E-1,1.7177701E-1,3.9602482E-1,4.3212155E-1,2.0711376E-1,2.196201E-1,6.3038546E-1,4.0616408E-1,-1.1392311E-1,2.931741E-1,6.293852E-1,2.0606148E-1,-3.7174165E-1,-1.05764754E-1,4.4597158E-1,3.6514666E-2,2.0047472E-1,-1.4013635E-1,3.959915E-1,3.166478E-1,6.597446E-1,1.3064274E-1,-6.374286E-2,-1.7800058E-1,1.4901486E-1,1.653349E-1,1.8230453E-2,3.9203458E-2,2.0501088E-1,4.661663E-2,1.3647525E-1,-1.9543788E-1,9.2084244E-2,1.470121E-1,-6.379953E-2,1.6644774E-1,-1.7844084E-1,1.1198671E-1,-9.504389E-2,1.6399425E-1,-8.8192485E-2,1.5133753E-1,-8.240871E-2,6.8687946E-2,2.018834E-1],"categories":[],"categories_nodes":[],"categories_segments":[],"categories_sizes":[],"default_left":[0,0,0,0,1,0,0,0,0,0,0,0,0,0,0,1,1,0,0,0,0,0,0,0,0,0,0,0,0,0,0,0,0,0,0,0,0,0,0,0,0,0,0,0,0,0,0,0,0,0,0,0,0,0,0,0,0,0,0,0,0],"id":10,"left_children":[1,3,5,7,9,11,13,-1,15,-1,17,-1,-1,19,21,23,25,27,29,31,-1,33,35,37,39,41,43,45,47,-1,49,51,-1,53,55,57,59,-1,-1,-1,-1,-1,-1,-1,-1,-1,-1,-1,-1,-1,-1,-1,-1,-1,-1,-1,-1,-1,-1,-1,-1],"loss_changes":[6.0987167E0,4.2651405E0,2.2451286E0,1.6086788E0,3.680171E0,1.3819027E-1,6.078491E-1,0E0,1.0495567E0,0E0,1.4516239E0,0E0,0E0,3.5300255E-1,3.480877E0,1.4645376E0,9.230614E-1,2.455833E0,1.6152611E0,1.3198185E0,0E0,2.1670642E0,3.9548874E-1,1.1694098E0,2.207561E0,8.166665E-1,1.1802025E0,1.4519672E0,1.7059144E0,0E0,1.1781163E0,2.4361336E0,0E0,1.1783448E0,2.5091307E0,9.7572243E-1,1.8186569E-1,0E0,0E0,0E0,0E0,0E0,0E0,0E0,0E0,0E0,0E0,0E0,0E0,0E0,0E0,0E0,0E0,0E0,0E0,0E0,0E0,0E0,0E0,0E0,0E0],"parents":[2147483647,0,0,1,1,2,2,3,3,4,4,5,5,6,6,8,8,10,10,13,13,14,14,15,15,16,16,17,17,18,18,19,19,21,21,22,22,23,23,24,24,25,25,26,26,27,27,28,28,30,30,31,31,33,33,34,34,35,35,36,36],"right_children":[2,4,6,8,10,12,14,-1,16,-1,18,-1,-1,20,22,24,26,28,30,32,-1,34,36,38,40,42,44,46,48,-1,50,52,-1,54,56,58,60,-1,-1,-1,-1,-1,-1,-1,-1,-1,-1,-1,-1,-1,-1,-1,-1,-1,-1,-1,-1,-1,-1,-1,-1],"split_conditions":[6.0756844E1,1.989203E1,-6.1638765E-2,-2.3357153E-1,2.0750864E1,2.9620766E1,1.8152037E1,-1.2990405E-1,4.742848E1,-2.0224023E-1,6.0322002E1,-3.8728293E-3,-1.2893079E-1,5.2793443E-1,3.0536407E1,1.5415236E1,1.2492316E1,6.536767E1,-1.6250956E-1,6.809156E1,2.0711376E-1,3.4986798E-2,9.6787655E-1,4.7082726E1,1.8432487E1,1.2355051E1,4.3352893E-1,4.812016E1,4.7642865E0,-1.05764754E-1,7.8704056E1,6.3511517E1,2.0047472E-1,6.1886883E1,7.249733E1,8.517215E-1,6.167474E1,1.3064274E-1,-6.374286E-2,-1.7800058E-1,1.4901486E-1,1.653349E-1,1.8230453E-2,3.9203458E-2,2.0501088E-1,4.661663E-2,1.3647525E-1,-1.9543788E-1,9.2084244E-2,1.470121E-1,-6.379953E-2,1.6644774E-1,-1.7844084E-1,1.1198671E-1,-9.504389E-2,1.6399425E-1,-8.8192485E-2,1.5133753E-1,-8.240871E-2,6.8687946E-2,2.018834E-1],"split_indices":[2,0,4,4,0,0,1,0,2,0,0,0,0,3,0,1,1,1,4,2,0,4,3,2,0,1,3,0,3,0,0,2,0,2,2,3,2,0,0,0,0,0,0,0,0,0,0,0,0,0,0,0,0,0,0,0,0,0,0,0,0],"split_type":[0,0,0,0,0,0,0,0,0,0,0,0,0,0,0,0,0,0,0,0,0,0,0,0,0,0,0,0,0,0,0,0,0,0,0,0,0,0,0,0,0,0,0,0,0,0,0,0,0,0,0,0,0,0,0,0,0,0,0,0,0],"sum_hessian":[4.6184723E2,2.9296753E2,1.688797E2,1.245631E2,1.6840443E2,2.6277738E0,1.6625192E2,1.3063824E0,1.23256714E2,3.727307E0,1.6467712E2,1.3068813E0,1.3208923E0,6.9356705E1,9.689522E1,6.3920776E1,5.933594E1,1.266806E2,3.799652E1,1.3389963E1,5.596674E1,3.22789E1,6.461632E1,5.8386684E1,5.534092E0,1.3181738E1,4.61542E1,1.1974793E2,6.932672E0,1.9976938E0,3.599883E1,5.436432E0,7.9535313E0,1.0686463E1,2.1592438E1,6.5377746E0,5.8078545E1,5.6028103E1,2.3585823E0,3.1160347E0,2.4180574E0,5.597663E0,7.584075E0,4.842248E0,4.1311954E1,1.008392E2,1.8908733E1,4.9377337E0,1.9949385E0,3.398116E1,2.0176694E0,3.0519474E0,2.3844843E0,2.450994E0,8.23547E0,1.789314E1,3.6992962E0,5.0733933E0,1.464381E0,2.2721477E0,5.5806396E1],"tree_param":{"num_deleted":"0","num_feature":"5","num_nodes":"61","size_leaf_vector":"1"}},{"base_weights":[-2.7361503E-1,-4.7087413E-1,-1.9670402E-1,-2.4817728E-2,-4.8543164E-1,-1.2411491E-1,-3.6516067E-1,1.138749E-1,-1.1541814E-1,-3.822793E-1,-5.357146E-1,4.0990114E-2,-2.3419224E-1,-1.978315E-1,-5.093729E-1,9.111579E-2,-4.3143243E-1,4.163609E-3,-1.6531637E-1,-1.7336378E-1,2.2535886E-1,-1.727414E-1,-4.6648544E-1,-3.1947777E-1,1.5913428E-1,-3.8153224E-2,-5.2696437E-1,2.1818269E-2,-4.5625374E-1,3.326702E-2,-4.5282188E-1,6.9252044E-1,7.319568E-2,1.9790886E-1,-2.0181653E-1,-1.7862971E-1,-2.8453618E-2,-1.906677E-2,-4.3075734E-1,4.2498133E-1,-2.6077917E-1,-5.4939824E-1,-1.8723826E-1,-1.4528713E-1,1.8316986E-2,1.0720328E-1,-1.5983716E-1,6.678922E-2,-1.7171519E-1,-4.8083328E-2,2.8034207E-1,9.516428E-2,-6.976625E-2,-6.8311885E-2,1.8848556E-1,2.6378742E-1,-1.4542462E-1,-1.400376E-1,7.69705E-2,9.189499E-3,-1.408773E-1,2.5184348E-1,-1.9521663E-2,-1.288668E-1,3.7276063E-2,-1.7310596E-1,-9.6272E-2,5.122283E-2,-1.1510049E-1],"categories":[],"categories_nodes":[],"categories_segments":[],"categories_sizes":[],"default_left":[1,0,0,1,0,0,0,0,0,1,0,1,0,1,0,0,0,0,0,0,0,0,0,0,0,0,0,0,0,0,0,0,0,0,0,0,0,0,0,0,0,0,0,0,0,0,0,0,0,0,0,0,0,0,0,0,0,0,0,0,0,0,0,0,0,0,0,0,0],"id":11,"left_children":[1,3,5,7,9,11,13,-1,-1,15,17,19,21,23,25,-1,27,-1,-1,29,31,33,35,37,39,-1,41,-1,43,45,47,49,51,-1,53,-1,55,57,59,61,63,65,67,-1,-1,-1,-1,-1,-1,-1,-1,-1,-1,-1,-1,-1,-1,-1,-1,-1,-1,-1,-1,-1,-1,-1,-1,-1,-1],"loss_changes":[4.9169064E0,5.847664E-1,2.8806925E0,7.222095E-1,2.5658226E-1,3.0763621E0,1.6256571E0,0E0,0E0,1.2316933E0,4.9080658E-1,2.7402856E0,1.3667378E0,1.5599278E0,1.8706799E-1,0E0,4.1952085E-1,0E0,0E0,1.8727268E0,2.5922465E0,2.1121962E0,1.147893E0,8.6939096E-1,1.171385E0,0E0,1.7005634E-1,0E0,4.583211E-1,3.7541356E0,1.2373481E0,2.0102472E0,2.2496104E0,0E0,1.8575077E0,0E0,2.8039038E0,1.124594E0,3.5678673E-1,1.3135388E0,3.3298504E-1,2.357769E-2,3.2816583E-1,0E0,0E0,0E0,0E0,0E0,0E0,0E0,0E0,0E0,0E0,0E0,0E0,0E0,0E0,0E0,0E0,0E0,0E0,0E0,0E0,0E0,0E0,0E0,0E0,0E0,0E0],"parents":[2147483647,0,0,1,1,2,2,3,3,4,4,5,5,6,6,9,9,10,10,11,11,12,12,13,13,14,14,16,16,19,19,20,20,21,21,22,22,23,23,24,24,26,26,28,28,29,29,30,30,31,31,32,32,34,34,36,36,37,37,38,38,39,39,40,40,41,41,42,42],"right_children":[2,4,6,8,10,12,14,-1,-1,16,18,20,22,24,26,-1,28,-1,-1,30,32,34,36,38,40,-1,42,-1,44,46,48,50,52,-1,54,-1,56,58,60,62,64,66,68,-1,-1,-1,-1,-1,-1,-1,-1,-1,-1,-1,-1,-1,-1,-1,-1,-1,-1,-1,-1,-1,-1,-1,-1,-1,-1],"split_conditions":[9.13163E-1,3.7711984E-1,5.983094E1,1.12818575E1,-4.2202827E-3,2.1262562E0,2.9450047E1,1.138749E-1,-1.1541814E-1,1.0025769E1,4.343194E1,1.8025488E1,5.1052667E-2,2.2228271E1,-6.1638765E-2,9.111579E-2,1.135796E1,4.163609E-3,-1.6531637E-1,5.0017573E-3,1.9513433E1,2.150985E1,6.536767E1,-8.822425E-3,9.360237E-2,-3.8153224E-2,1.22682415E-1,2.1818269E-2,-6.7617646E-3,1.4710687E1,3.4441086E1,1.4192061E1,5.3385277E1,1.9790886E-1,4.5678917E-2,-1.7862971E-1,5.0428497E1,1.8152037E1,6.0198822E1,2.711021E1,2.6571117E1,4.560196E0,2.3925607E0,-1.4528713E-1,1.8316986E-2,1.0720328E-1,-1.5983716E-1,6.678922E-2,-1.7171519E-1,-4.8083328E-2,2.8034207E-1,9.516428E-2,-6.976625E-2,-6.8311885E-2,1.8848556E-1,2.6378742E-1,-1.4542462E-1,-1.400376E-1,7.69705E-2,9.189499E-3,-1.408773E-1,2.5184348E-1,-1.9521663E-2,-1.288668E-1,3.7276063E-2,-1.7310596E-1,-9.6272E-2,5.122283E-2,-1.1510049E-1],"split_indices":[3,3,2,1,4,3,0,0,0,0,2,1,4,1,4,0,1,0,0,4,1,0,1,4,4,0,4,0,4,0,2,0,2,0,4,0,0,1,2,0,0,3,3,0,0,0,0,0,0,0,0,0,0,0,0,0,0,0,0,0,0,0,0,0,0,0,0,0,0],"split_type":[0,0,0,0,0,0,0,0,0,0,0,0,0,0,0,0,0,0,0,0,0,0,0,0,0,0,0,0,0,0,0,0,0,0,0,0,0,0,0,0,0,0,0,0,0,0,0,0,0,0,0,0,0,0,0,0,0,0,0,0,0,0,0,0,0,0,0,0,0],"sum_hessian":[3.2919574E2,9.0910034E1,2.3828572E2,2.9586608E0,8.795138E1,1.6774153E2,7.054419E1,1.3674767E0,1.5911841E0,3.1642126E1,5.630925E1,6.735035E1,1.0039118E2,3.3752747E1,3.6791443E1,1.7693536E0,2.9872772E1,1.531578E0,5.477767E1,3.11703E1,3.6180046E1,8.0768364E1,1.9622822E1,2.5252316E1,8.500429E0,1.981019E0,3.4810425E1,1.3111522E0,2.856162E1,1.8426638E1,1.2743663E1,8.016656E0,2.8163391E1,1.9938529E0,7.8774506E1,1.4882428E1,4.740393E0,7.1422887E0,1.8110027E1,5.1976995E0,3.3027298E0,3.2075157E1,2.7352662E0,2.7153795E1,1.4078243E0,1.1952404E1,6.474234E0,1.7868729E0,1.095679E1,1.8463827E0,6.1702733E0,1.5642018E1,1.2521372E1,7.709569E1,1.6788206E0,1.2756385E0,3.4647548E0,2.4572935E0,4.684995E0,1.4223275E0,1.66877E1,2.4296336E0,2.768066E0,2.2158084E0,1.0869216E0,2.7255041E1,4.820118E0,1.0154481E0,1.719818E0],"tree_param":{"num_deleted":"0","num_feature":"5","num_nodes":"69","size_leaf_vector":"1"}},{"base_weights":[-2.4039975E-1,-3.7090585E-1,-1.3838452E-1,-2.831328E-1,-1.7255542E-1,-7.976435E-2,-3.0283967E-1,-4.9154577E-1,-1.1743597E-1,-2.2855777E-1,-1.4090641E-2,1.05424E-2,-4.6852762E-1,-5.120073E-1,-1.1398996E-1,2.6556575E-1,-3.183002E-1,6.210035E-2,-4.011641E-1,-4.9397737E-2,1.7059661E-1,-1.4576639E-1,2.4648985E-1,-4.9296004E-1,1.7961645E-2,-1.6735066E-1,-2.9934648E-1,4.8650403E-2,-9.532792E-2,-1.39368E-1,4.3165067E-1,5.781363E-2,-4.5906195E-1,-2.2521344E-1,6.7564875E-1,2.5335716E-2,-4.5200664E-1,1.305658E-1,-1.4330906E-1,5.581779E-1,-1.32987E-1,-3.209677E-1,-1.6669156E-1,2.3353051E-2,-1.4418626E-1,2.441094E-1,7.734804E-2,2.962133E-1,-7.335699E-2,-1.5725367E-1,7.085229E-2,-1.6693738E-1,9.222594E-2,2.4929179E-1,2.4646753E-2,-5.564404E-2,-1.7660232E-1,-3.58854E-2,1.148826E-1,-1.2558046E-1,-1.748571E-2,2.454895E-1,1.9088509E-2,-1.5547597E-1,1.8304445E-1],"categories":[],"categories_nodes":[],"categories_segments":[],"categories_sizes":[],"default_left":[1,0,0,0,0,0,0,0,0,0,0,0,0,0,0,0,0,0,0,0,0,0,0,0,0,0,0,0,0,0,0,0,0,0,0,0,0,0,0,0,0,0,0,0,0,0,0,0,0,0,0,0,0,0,0,0,0,0,0,0,0,0,0,0,0],"id":12,"left_children":[1,3,5,7,-1,9,11,13,15,17,19,21,23,25,27,29,31,33,35,37,-1,-1,39,41,-1,-1,43,-1,-1,-1,45,47,49,51,53,-1,55,57,59,61,-1,63,-1,-1,-1,-1,-1,-1,-1,-1,-1,-1,-1,-1,-1,-1,-1,-1,-1,-1,-1,-1,-1,-1,-1],"loss_changes":[3.8520908E0,2.132883E0,1.5776188E0,3.1030016E0,0E0,1.2070011E0,2.2534559E0,2.5238132E-1,4.1082373E0,1.9242693E0,1.8179016E0,1.988591E0,3.955078E-1,2.0208931E-1,2.4028364E-1,2.4485629E0,1.8670325E0,2.7913842E0,6.279471E-1,1.4204485E0,0E0,0E0,2.7152092E0,1.1493111E-1,0E0,0E0,6.440431E-1,0E0,0E0,0E0,8.2760406E-1,3.1517649E0,1.2740846E0,2.1024165E0,3.9494824E-1,0E0,6.841874E-1,1.8745611E0,1.2624029E0,1.0219021E0,0E0,2.0859146E0,0E0,0E0,0E0,0E0,0E0,0E0,0E0,0E0,0E0,0E0,0E0,0E0,0E0,0E0,0E0,0E0,0E0,0E0,0E0,0E0,0E0,0E0,0E0],"parents":[2147483647,0,0,1,1,2,2,3,3,5,5,6,6,7,7,8,8,9,9,10,10,11,11,12,12,13,13,14,14,15,15,16,16,17,17,18,18,19,19,22,22,23,23,26,26,30,30,31,31,32,32,33,33,34,34,36,36,37,37,38,38,39,39,41,41],"right_children":[2,4,6,8,-1,10,12,14,16,18,20,22,24,26,28,30,32,34,36,38,-1,-1,40,42,-1,-1,44,-1,-1,-1,46,48,50,52,54,-1,56,58,60,62,-1,64,-1,-1,-1,-1,-1,-1,-1,-1,-1,-1,-1,-1,-1,-1,-1,-1,-1,-1,-1,-1,-1,-1,-1],"split_conditions":[1.4911484E0,1.0387515E0,6.0756844E1,1.4171148E1,-1.7255542E-1,-9.2333905E-2,3.3046543E1,7.761398E1,1.4284219E1,3.0508274E1,7.138377E1,1.9047117E1,6.2052455E0,1.4573467E1,3.360945E-2,-1.2305631E-1,4.9443212E-1,2.90867E1,2.4798026E0,-2.8029377E-2,1.7059661E-1,-1.4576639E-1,3.4358E1,3.962791E1,1.7961645E-2,-1.6735066E-1,1.2585843E1,4.8650403E-2,-9.532792E-2,-1.39368E-1,1.472494E1,1.4679063E1,8.114574E1,3.1216123E0,2.808831E0,2.5335716E-2,3.3581676E1,4.3682907E1,2.238573E0,7.038151E1,-1.32987E-1,4.5061493E1,-1.6669156E-1,2.3353051E-2,-1.4418626E-1,2.441094E-1,7.734804E-2,2.962133E-1,-7.335699E-2,-1.5725367E-1,7.085229E-2,-1.6693738E-1,9.222594E-2,2.4929179E-1,2.4646753E-2,-5.564404E-2,-1.7660232E-1,-3.58854E-2,1.148826E-1,-1.2558046E-1,-1.748571E-2,2.454895E-1,1.9088509E-2,-1.5547597E-1,1.8304445E-1],"split_indices":[3,3,2,1,0,4,0,2,0,0,1,1,3,0,4,4,3,1,3,4,0,0,1,1,0,0,1,0,0,0,1,1,2,3,3,0,2,2,3,2,0,0,0,0,0,0,0,0,0,0,0,0,0,0,0,0,0,0,0,0,0,0,0,0,0],"split_type":[0,0,0,0,0,0,0,0,0,0,0,0,0,0,0,0,0,0,0,0,0,0,0,0,0,0,0,0,0,0,0,0,0,0,0,0,0,0,0,0,0,0,0,0,0,0,0,0,0,0,0,0,0,0,0,0,0,0,0,0,0,0,0,0,0],"sum_hessian":[2.9219006E2,1.2703759E2,1.6515248E2,9.052673E1,3.6510853E1,1.22848175E2,4.2304306E1,3.9224163E1,5.130257E1,3.685885E1,8.598933E1,1.495493E1,2.7349379E1,3.6869904E1,2.354262E0,1.7538528E1,3.376404E1,1.3971667E1,2.2887182E1,8.1940025E1,4.0493045E0,4.476702E0,1.0478228E1,2.6204777E1,1.1446007E0,2.8997782E1,7.87212E0,1.086266E0,1.2679961E0,2.9171824E0,1.4621346E1,9.355508E0,2.4408535E1,9.946726E0,4.024942E0,2.1064653E0,2.0780716E1,2.796329E1,5.3976734E1,7.3484855E0,3.1297424E0,8.633888E0,1.7570889E1,2.740451E0,5.1316686E0,3.4210532E0,1.1200294E1,1.7399734E0,7.615535E0,2.2543148E1,1.8653858E0,6.1051836E0,3.841542E0,2.8729253E0,1.1520165E0,7.842873E0,1.2937843E1,1.4306803E1,1.36564865E1,1.1811043E1,4.216569E1,4.386608E0,2.961877E0,7.490254E0,1.1436343E0],"tree_param":{"num_deleted":"0","num_feature":"5","num_nodes":"65","size_leaf_vector":"1"}},{"base_weights":[3.20918E-1,2.4173453E-1,4.6658993E-1,3.6639315E-1,1.5282732E-1,-2.6668867E-1,4.8108155E-1,-1.1992198E-1,3.7798768E-1,-1.823613E-1,1.7261921E-1,-1.2358196E-1,-2.694223E-3,5.591801E-1,4.0586117E-1,2.876493E-1,4.7220093E-1,1.359489E-1,3.3879527E-1,3.578545E-1,5.943844E-1,2.471677E-2,5.4626536E-1,3.2768884E-1,-1.1582722E-1,1.559114E-1,5.2165306E-1,2.1915242E-1,1.4460528E-2,4.5486602E-1,-4.003445E-2,-6.0047116E-3,1.7839667E-1,1.9079284E-1,3.6711717E-1,-3.2173455E-1,2.0511515E-1,2.4567531E-1,5.7676977E-1,6.3627526E-2,1.4472505E-1,-1.6292387E-1,1.2172608E-1,1.6511737E-1,-4.0749386E-2,8.196974E-2,1.8406646E-1,3.851566E-2,1.9952957E-1,-3.599851E-2,7.900994E-2,-4.5490626E-4,1.742122E-1,7.680023E-2,-1.02108225E-1,1.4714274E-1,-1.6077912E-1,-1.0707514E-1,1.512975E-1,-1.4495619E-1,8.076318E-2,1.9697335E-1,-1.8491434E-2,-8.2529314E-2,1.2838036E-1,5.434242E-2,1.7706512E-1],"categories":[],"categories_nodes":[],"categories_segments":[],"categories_sizes":[],"default_left":[0,0,0,0,1,0,0,0,0,0,0,0,0,0,0,1,0,0,0,0,0,0,0,0,0,0,0,0,0,0,0,0,0,0,0,0,0,0,0,0,0,0,0,0,0,0,0,0,0,0,0,0,0,0,0,0,0,0,0,0,0,0,0,0,0,0,0],"id":13,"left_children":[1,3,5,7,9,11,13,-1,15,-1,17,-1,-1,19,21,23,25,27,29,31,33,35,37,39,41,43,45,47,49,51,53,55,-1,-1,57,59,61,63,65,-1,-1,-1,-1,-1,-1,-1,-1,-1,-1,-1,-1,-1,-1,-1,-1,-1,-1,-1,-1,-1,-1,-1,-1,-1,-1,-1,-1],"loss_changes":[4.8804893E0,3.0751972E0,1.7367897E0,1.1894903E0,2.6135526E0,1.3018975E-1,6.471405E-1,0E0,8.486366E-1,0E0,9.4829607E-1,0E0,0E0,2.859192E-1,4.23763E0,1.0332212E0,7.798948E-1,1.3649642E0,1.2858377E0,1.1222888E0,3.182392E-1,1.4680341E0,3.901806E-1,9.047904E-1,1.6244228E0,1.0957129E0,9.097233E-1,3.1633422E0,1.9086596E0,1.2728953E0,7.6997495E-1,1.8700428E0,0E0,0E0,1.311999E0,9.000906E-1,1.8905458E0,7.903199E-1,1.6930962E-1,0E0,0E0,0E0,0E0,0E0,0E0,0E0,0E0,0E0,0E0,0E0,0E0,0E0,0E0,0E0,0E0,0E0,0E0,0E0,0E0,0E0,0E0,0E0,0E0,0E0,0E0,0E0,0E0],"parents":[2147483647,0,0,1,1,2,2,3,3,4,4,5,5,6,6,8,8,10,10,13,13,14,14,15,15,16,16,17,17,18,18,19,19,20,20,21,21,22,22,23,23,24,24,25,25,26,26,27,27,28,28,29,29,30,30,31,31,34,34,35,35,36,36,37,37,38,38],"right_children":[2,4,6,8,10,12,14,-1,16,-1,18,-1,-1,20,22,24,26,28,30,32,34,36,38,40,42,44,46,48,50,52,54,56,-1,-1,58,60,62,64,66,-1,-1,-1,-1,-1,-1,-1,-1,-1,-1,-1,-1,-1,-1,-1,-1,-1,-1,-1,-1,-1,-1,-1,-1,-1,-1,-1,-1],"split_conditions":[6.0756844E1,1.989203E1,-6.1638765E-2,-2.3357153E-1,2.0750864E1,6.443926E1,1.87437E1,-1.1992198E-1,4.742848E1,-1.823613E-1,6.64623E1,-1.2358196E-1,-2.694223E-3,5.2793443E-1,3.0536407E1,1.5415236E1,-5.4320138E-2,3.5114124E0,7.138377E1,6.809156E1,1.2352517E0,3.4986798E-2,9.6787655E-1,1.4710687E1,1.8432487E1,1.2929883E1,1.3803593E1,4.812016E1,4.298505E1,3.255112E0,-1.1956767E-1,6.3511517E1,1.7839667E-1,1.9079284E-1,1.2421914E0,6.953099E1,6.6478004E1,3.4986798E-2,6.167474E1,6.3627526E-2,1.4472505E-1,-1.6292387E-1,1.2172608E-1,1.6511737E-1,-4.0749386E-2,8.196974E-2,1.8406646E-1,3.851566E-2,1.9952957E-1,-3.599851E-2,7.900994E-2,-4.5490626E-4,1.742122E-1,7.680023E-2,-1.02108225E-1,1.4714274E-1,-1.6077912E-1,-1.0707514E-1,1.512975E-1,-1.4495619E-1,8.076318E-2,1.9697335E-1,-1.8491434E-2,-8.2529314E-2,1.2838036E-1,5.434242E-2,1.7706512E-1],"split_indices":[2,0,4,4,0,2,1,0,2,0,0,0,0,3,0,1,4,3,1,2,3,4,3,0,0,1,0,0,2,3,4,2,0,0,3,2,2,4,2,0,0,0,0,0,0,0,0,0,0,0,0,0,0,0,0,0,0,0,0,0,0,0,0,0,0,0,0],"split_type":[0,0,0,0,0,0,0,0,0,0,0,0,0,0,0,0,0,0,0,0,0,0,0,0,0,0,0,0,0,0,0,0,0,0,0,0,0,0,0,0,0,0,0,0,0,0,0,0,0,0,0,0,0,0,0,0,0,0,0,0,0,0,0,0,0,0,0],"sum_hessian":[4.3188834E2,2.8152057E2,1.5036778E2,1.158974E2,1.6562317E2,2.57683E0,1.4779095E2,1.2287477E0,1.14668655E2,3.446447E0,1.6217673E2,1.265234E0,1.3115959E0,6.935174E1,7.843922E1,6.0607258E1,5.4061398E1,1.3434804E2,2.782868E1,1.1983851E1,5.736788E1,2.1432932E1,5.7006287E1,5.5306664E1,5.3005953E0,7.8711686E0,4.6190228E1,7.926088E1,5.508716E1,2.1148283E1,6.6803975E0,5.1086874E0,6.875164E0,4.697307E1,1.0394815E1,7.0705748E0,1.4362357E1,6.086249E0,5.0920036E1,3.3013245E1,2.2293419E1,2.8911197E0,2.4094758E0,2.969456E0,4.901713E0,1.3546269E1,3.264396E1,6.692667E1,1.2334212E1,3.610282E1,1.8984337E1,4.784506E0,1.6363777E1,3.4385595E0,3.241838E0,2.6760113E0,2.432676E0,1.4009309E0,8.993885E0,5.6965594E0,1.374015E0,4.7915688E0,9.570788E0,1.4457891E0,4.6404595E0,2.1495392E0,4.8770496E1],"tree_param":{"num_deleted":"0","num_feature":"5","num_nodes":"67","size_leaf_vector":"1"}},{"base_weights":[-2.302673E-1,-4.321018E-1,-1.6239983E-1,-2.6771662E-1,-5.074283E-1,-9.740459E-2,-3.2567906E-1,3.326892E-2,-3.9118636E-1,-2.2076517E-1,-5.3993416E-1,3.4699667E-2,-1.9866905E-1,-1.7696555E-1,-4.7051468E-1,3.8072878E-1,-1.3214321E-1,6.0655337E-2,-4.3786323E-1,-1.4371645E-1,1.306547E-1,-2.5420856E-1,-1.6805868E-1,-1.401992E-1,1.721352E-1,-8.719484E-2,-3.6681688E-1,-1.5931655E-1,-4.6859384E-2,-4.931143E-1,-1.460833E-1,-2.2124853E-2,6.7691785E-1,1.9126482E-3,-4.77611E-1,-1.2898538E-1,5.7503983E-2,1.5371104E-2,-4.571682E-1,2.6356605E-1,-3.834351E-1,-3.8895905E-1,3.4238316E-2,-4.013632E-1,8.291705E-2,1.0552286E-1,-4.0143925E-1,-3.59498E-2,-5.155318E-1,-1.0788574E-1,5.1084068E-2,2.3998853E-3,3.137697E-1,-1.5993914E-1,-3.5573404E-2,9.747641E-2,-1.3433258E-1,-1.6047189E-1,1.0052653E-2,4.1697863E-2,2.399355E-1,5.0552385E-3,-1.488652E-1,7.142477E-2,-1.3753809E-1,5.465776E-2,-1.1831847E-1,-4.4946168E-2,-1.6035923E-1,-1.1068935E-2,2.1840362E-1,-1.5101907E-1,3.703188E-2,-1.6453531E-1,-7.952113E-2],"categories":[],"categories_nodes":[],"categories_segments":[],"categories_sizes":[],"default_left":[1,1,0,0,0,0,0,1,0,0,0,1,0,0,0,0,0,0,0,0,0,0,0,0,0,0,0,0,0,0,0,0,0,0,1,0,0,0,0,0,0,0,0,0,0,0,0,0,0,0,0,0,0,0,0,0,0,0,0,0,0,0,0,0,0,0,0,0,0,0,0,0,0,0,0],"id":14,"left_children":[1,3,5,7,9,11,13,15,17,19,21,23,25,27,29,31,-1,-1,33,-1,-1,35,-1,37,39,41,43,-1,45,47,49,-1,51,-1,53,-1,-1,55,57,59,61,63,65,67,-1,69,71,-1,73,-1,-1,-1,-1,-1,-1,-1,-1,-1,-1,-1,-1,-1,-1,-1,-1,-1,-1,-1,-1,-1,-1,-1,-1,-1,-1],"loss_changes":[4.001074E0,7.8279877E-1,2.345726E0,9.5804846E-1,3.4446526E-1,2.1695907E0,1.281425E0,1.5370524E0,5.901394E-1,1.3544253E0,1.1231613E-1,1.730848E0,1.6861882E0,1.4891263E0,1.5888691E-1,7.6813596E-1,0E0,0E0,3.0509353E-1,0E0,0E0,4.541823E-1,0E0,1.5748312E0,2.1435013E0,2.0812705E0,9.1600513E-1,0E0,1.4001718E0,1.810894E-1,2.9578674E-1,0E0,8.131677E-1,0E0,2.500198E-1,0E0,0E0,3.3417652E0,4.1843438E-1,2.234736E0,2.8326923E-1,8.183749E-1,2.6821017E0,1.085361E0,0E0,1.6552869E0,4.775083E-1,0E0,7.786369E-2,0E0,0E0,0E0,0E0,0E0,0E0,0E0,0E0,0E0,0E0,0E0,0E0,0E0,0E0,0E0,0E0,0E0,0E0,0E0,0E0,0E0,0E0,0E0,0E0,0E0,0E0],"parents":[2147483647,0,0,1,1,2,2,3,3,4,4,5,5,6,6,7,7,8,8,9,9,10,10,11,11,12,12,13,13,14,14,15,15,18,18,21,21,23,23,24,24,25,25,26,26,28,28,29,29,30,30,32,32,34,34,37,37,38,38,39,39,40,40,41,41,42,42,43,43,45,45,46,46,48,48],"right_children":[2,4,6,8,10,12,14,16,18,20,22,24,26,28,30,32,-1,-1,34,-1,-1,36,-1,38,40,42,44,-1,46,48,50,-1,52,-1,54,-1,-1,56,58,60,62,64,66,68,-1,70,72,-1,74,-1,-1,-1,-1,-1,-1,-1,-1,-1,-1,-1,-1,-1,-1,-1,-1,-1,-1,-1,-1,-1,-1,-1,-1,-1,-1],"split_conditions":[8.8873285E-1,1.2387516E1,5.983094E1,-4.2202827E-3,4.343194E1,2.1948326E0,2.9450047E1,6.8277866E-1,5.2557526E1,4.2191925E1,-7.287494E-2,1.8025488E1,4.298505E1,1.1752387E0,1.22682415E-1,1.2388552E1,-1.3214321E-1,6.0655337E-2,3.6190423E-1,-1.4371645E-1,1.306547E-1,5.2057648E1,-1.6805868E-1,1.4710687E1,4.564651E1,3.5114124E0,2.8381166E-1,-1.5931655E-1,9.360237E-2,-6.1638765E-2,4.479946E1,-2.2124853E-2,-2.3255879E-2,1.9126482E-3,7.5299904E1,-1.2898538E-1,5.7503983E-2,5.0017573E-3,5.83154E-2,3.537093E1,1.0537084E0,2.0192072E1,5.2857356E0,2.7079966E0,8.291705E-2,3.4820488E1,7.150583E1,-3.59498E-2,4.560196E0,-1.0788574E-1,5.1084068E-2,2.3998853E-3,3.137697E-1,-1.5993914E-1,-3.5573404E-2,9.747641E-2,-1.3433258E-1,-1.6047189E-1,1.0052653E-2,4.1697863E-2,2.399355E-1,5.0552385E-3,-1.488652E-1,7.142477E-2,-1.3753809E-1,5.465776E-2,-1.1831847E-1,-4.4946168E-2,-1.6035923E-1,-1.1068935E-2,2.1840362E-1,-1.5101907E-1,3.703188E-2,-1.6453531E-1,-7.952113E-2],"split_indices":[3,0,2,4,2,3,0,3,2,2,4,1,2,3,4,1,0,0,3,0,0,2,0,0,0,3,4,0,4,4,0,0,4,0,2,0,0,4,4,1,3,1,3,3,0,1,2,0,3,0,0,0,0,0,0,0,0,0,0,0,0,0,0,0,0,0,0,0,0,0,0,0,0,0,0],"split_type":[0,0,0,0,0,0,0,0,0,0,0,0,0,0,0,0,0,0,0,0,0,0,0,0,0,0,0,0,0,0,0,0,0,0,0,0,0,0,0,0,0,0,0,0,0,0,0,0,0,0,0,0,0,0,0,0,0,0,0,0,0,0,0,0,0,0,0,0,0,0,0,0,0,0,0],"sum_hessian":[2.9621475E2,7.318861E1,2.2302614E2,2.44297E1,4.8758904E1,1.6066719E2,6.2358944E1,7.3188634E0,1.7110838E1,5.7594E0,4.2999504E1,7.00027E1,9.06645E1,3.1863825E1,3.049512E1,4.3354545E0,2.983409E0,1.0048825E0,1.6105955E1,4.326632E0,1.432768E0,3.744277E0,3.9255226E1,3.0794224E1,3.920848E1,5.543333E1,3.5231163E1,7.733919E0,2.4129906E1,2.8023119E1,2.4719994E0,2.0069528E0,2.3285017E0,1.3916674E0,1.4714288E1,2.7113624E0,1.0329146E0,2.1294338E1,9.499885E0,3.411906E1,5.08942E0,1.5274004E1,4.0159325E1,3.37922E1,1.4389646E0,1.736823E1,6.7616735E0,1.9470797E0,2.6076038E1,1.3942173E0,1.0777822E0,1.191015E0,1.1374868E0,1.2323694E1,2.3905942E0,1.2942493E1,8.351846E0,8.122843E0,1.3770425E0,2.8708723E1,5.410337E0,1.3057281E0,3.783692E0,1.2820184E0,1.3991986E1,3.0281725E1,9.877602E0,1.2432769E1,2.135943E1,1.489999E1,2.4682417E0,5.6961284E0,1.0655447E0,2.199533E1,4.080708E0],"tree_param":{"num_deleted":"0","num_feature":"5","num_nodes":"75","size_leaf_vector":"1"}},{"base_weights":[-2.0183238E-1,-3.304771E-1,-1.0923296E-1,-2.3836173E-1,-1.6621605E-1,1.1200021E-1,-1.4646128E-1,-4.5798585E-1,-7.9709895E-2,-1.8748607E-1,5.4265696E-1,-1.6067132E-1,-1.15533516E-1,-4.8225868E-1,-6.101744E-2,2.333733E-1,-2.68386E-1,5.330162E-1,-4.0278846E-1,-9.579039E-2,7.034663E-1,1.1172192E-1,-1.6756216E-1,-1.6084604E-1,-2.5224587E-1,5.9289444E-2,-8.735171E-2,-1.3130999E-1,3.7172967E-1,8.5729025E-2,-4.18438E-1,2.1459915E-1,3.163141E-2,-1.6527383E-1,9.54091E-2,7.7720994E-1,6.795627E-2,-2.908863E-1,2.67659E-1,-9.49612E-2,-3.9593822E-1,2.898209E-2,-1.3484895E-1,2.1199164E-1,6.173199E-2,1.3713038E-1,-1.3735208E-1,-1.475498E-1,6.847959E-2,8.882264E-2,2.7990153E-1,-1.599207E-1,2.763998E-2,1.9826993E-1,-1.3062337E-2,-4.2495977E-2,1.5108702E-1,9.7771555E-2,-1.3636255E-1],"categories":[],"categories_nodes":[],"categories_segments":[],"categories_sizes":[],"default_left":[1,0,0,0,0,0,0,0,0,0,0,0,0,0,0,0,0,0,0,0,0,0,0,0,0,0,0,0,0,0,0,0,0,0,0,0,0,0,0,0,0,0,0,0,0,0,0,0,0,0,0,0,0,0,0,0,0,0,0],"id":15,"left_children":[1,3,5,7,-1,9,11,13,15,17,19,-1,21,23,25,27,29,31,33,-1,35,37,39,-1,41,-1,-1,-1,43,45,47,-1,-1,-1,-1,49,-1,51,53,55,57,-1,-1,-1,-1,-1,-1,-1,-1,-1,-1,-1,-1,-1,-1,-1,-1,-1,-1],"loss_changes":[3.1141224E0,2.1372452E0,1.2951465E0,2.7437372E0,0E0,3.0591595E0,1.542656E0,2.909994E-1,2.8707168E0,2.4280179E0,1.5638905E0,0E0,1.4941852E0,2.514472E-1,2.3976707E-1,1.8720465E0,1.6366861E0,2.1402419E-1,1.4089279E0,0E0,1.2132692E-1,1.5750132E0,1.6526113E0,0E0,5.808418E-1,0E0,0E0,0E0,7.3299026E-1,2.186852E0,1.1247089E0,0E0,0E0,0E0,0E0,2.4183846E-1,0E0,7.111399E-1,2.1960802E0,2.2699966E0,1.1750078E0,0E0,0E0,0E0,0E0,0E0,0E0,0E0,0E0,0E0,0E0,0E0,0E0,0E0,0E0,0E0,0E0,0E0,0E0],"parents":[2147483647,0,0,1,1,2,2,3,3,5,5,6,6,7,7,8,8,9,9,10,10,12,12,13,13,14,14,15,15,16,16,17,17,18,18,20,20,21,21,22,22,24,24,28,28,29,29,30,30,35,35,37,37,38,38,39,39,40,40],"right_children":[2,4,6,8,-1,10,12,14,16,18,20,-1,22,24,26,28,30,32,34,-1,36,38,40,-1,42,-1,-1,-1,44,46,48,-1,-1,-1,-1,50,-1,52,54,56,58,-1,-1,-1,-1,-1,-1,-1,-1,-1,-1,-1,-1,-1,-1,-1,-1,-1,-1],"split_conditions":[1.4911484E0,1.0387515E0,2.4006279E1,1.4171148E1,-1.6621605E-1,2.2109236E1,2.711021E1,7.761398E1,1.4284219E1,1.5519203E0,1.8448996E1,-1.6067132E-1,3.128914E1,1.4573467E1,7.431319E-1,-1.2305631E-1,4.9443212E-1,3.512179E1,2.1354678E-1,-9.579039E-2,2.0457409E1,2.8807655E1,6.0756844E1,-1.6084604E-1,1.2585843E1,5.9289444E-2,-8.735171E-2,-1.3130999E-1,1.2387516E1,1.6615635E1,8.114574E1,2.1459915E-1,3.163141E-2,-1.6527383E-1,9.54091E-2,-2.602811E-1,6.795627E-2,2.808831E0,3.1887932E0,5.8836063E1,-6.1638765E-2,2.898209E-2,-1.3484895E-1,2.1199164E-1,6.173199E-2,1.3713038E-1,-1.3735208E-1,-1.475498E-1,6.847959E-2,8.882264E-2,2.7990153E-1,-1.599207E-1,2.763998E-2,1.9826993E-1,-1.3062337E-2,-4.2495977E-2,1.5108702E-1,9.7771555E-2,-1.3636255E-1],"split_indices":[3,3,0,1,0,0,0,2,0,3,1,0,0,0,3,4,3,2,4,0,1,1,2,0,1,0,0,0,0,0,2,0,0,0,0,4,0,3,3,2,4,0,0,0,0,0,0,0,0,0,0,0,0,0,0,0,0,0,0],"split_type":[0,0,0,0,0,0,0,0,0,0,0,0,0,0,0,0,0,0,0,0,0,0,0,0,0,0,0,0,0,0,0,0,0,0,0,0,0,0,0,0,0,0,0,0,0,0,0,0,0,0,0,0,0,0,0,0,0,0,0],"sum_hessian":[2.6344836E2,1.0918839E2,1.5425998E2,7.879169E1,3.0396708E1,2.193003E1,1.3232996E2,3.2254524E1,4.653716E1,1.326793E1,8.662101E0,8.542159E0,1.2378779E2,3.0193476E1,2.0610504E0,1.7410246E1,2.9126913E1,2.71307E0,1.055486E1,1.2069746E0,7.4551263E0,2.284705E1,1.0094074E2,2.3383474E1,6.8100014E0,1.0369892E0,1.0240612E0,2.6061254E0,1.4804121E1,8.796438E0,2.0330473E1,1.4302473E0,1.2828225E0,8.9511595E0,1.6037008E0,5.911546E0,1.54358E0,6.136929E0,1.6710121E1,7.766635E1,2.327439E1,2.6440418E0,4.1659594E0,3.8256896E0,1.0978432E1,5.320495E0,3.4759433E0,1.8473398E1,1.8570759E0,2.155436E0,3.7561102E0,3.5196843E0,2.6172447E0,6.8855915E0,9.82453E0,7.275455E1,4.9117994E0,1.4051706E0,2.1869219E1],"tree_param":{"num_deleted":"0","num_feature":"5","num_nodes":"59","size_leaf_vector":"1"}},{"base_weights":[2.6379365E-1,1.9338775E-1,4.0536082E-1,3.0325273E-1,1.19408235E-1,-2.4950208E-1,4.1988432E-1,1.427134E-1,3.6287072E-1,-1.7151912E-1,1.3708857E-1,3.5692248E-3,-1.1979038E-1,5.1931727E-1,3.5721686E-1,3.653979E-1,-5.7076037E-2,-1.6786996E-1,3.998784E-1,1.036672E-1,2.92974E-1,3.0396536E-1,1.7163083E-1,2.054168E-1,5.1953053E-1,-1.1089415E-1,4.548373E-1,1.566653E-1,-2.5256845E-1,1.6280003E-1,-1.6709732E-1,2.4887092E-1,4.864997E-1,1.4849405E-1,-1.0715817E-1,3.9029583E-1,-2.9079624E-2,-2.849742E-2,1.6236956E-1,3.1206292E-1,-1.0490459E-1,3.810274E-2,1.6112867E-1,9.210284E-2,1.8804233E-1,-1.0619392E-1,3.448471E-2,-5.480358E-2,1.1381899E-1,9.920806E-2,-7.1630046E-2,3.6681853E-2,1.5655668E-1,3.3659786E-2,1.6004595E-1,9.662105E-2,-9.335719E-2,-1.6752328E-3,1.5163721E-1,7.381606E-2,-1.1158829E-1,1.320005E-1,-1.4016964E-1,1.2700743E-2,1.3492529E-1,-1.7140473E-1,3.5135247E-2],"categories":[],"categories_nodes":[],"categories_segments":[],"categories_sizes":[],"default_left":[0,0,0,0,1,0,0,0,0,0,0,0,0,0,1,0,0,0,0,0,0,0,0,1,0,0,0,0,0,0,0,1,0,0,0,0,0,0,0,0,0,0,0,0,0,0,0,0,0,0,0,0,0,0,0,0,0,0,0,0,0,0,0,0,0,0,0],"id":16,"left_children":[1,3,5,7,9,11,13,15,17,-1,19,-1,-1,21,23,25,27,29,31,33,35,37,-1,39,41,-1,43,-1,45,47,-1,49,51,53,55,57,59,61,-1,63,65,-1,-1,-1,-1,-1,-1,-1,-1,-1,-1,-1,-1,-1,-1,-1,-1,-1,-1,-1,-1,-1,-1,-1,-1,-1,-1],"loss_changes":[3.9071388E0,2.149868E0,1.3592606E0,9.7789097E-1,2.0626154E0,1.4137463E-1,6.2088776E-1,1.3903154E0,1.5952597E0,0E0,7.9872346E-1,0E0,0E0,3.6976814E-1,1.9281254E0,1.1339898E0,2.0672512E0,8.3383685E-1,8.3413315E-1,1.2689784E0,8.7477064E-1,9.264164E-1,0E0,1.4997813E0,2.0244598E-1,0E0,1.5193748E-1,0E0,5.420367E-1,3.608556E-1,0E0,1.2227603E0,5.203018E-1,1.4738564E0,2.1871471E0,9.704342E-1,7.824034E-1,1.3894335E0,0E0,1.2155306E0,1.3185763E0,0E0,0E0,0E0,0E0,0E0,0E0,0E0,0E0,0E0,0E0,0E0,0E0,0E0,0E0,0E0,0E0,0E0,0E0,0E0,0E0,0E0,0E0,0E0,0E0,0E0,0E0],"parents":[2147483647,0,0,1,1,2,2,3,3,4,4,5,5,6,6,7,7,8,8,10,10,13,13,14,14,15,15,16,16,17,17,18,18,19,19,20,20,21,21,23,23,24,24,26,26,28,28,29,29,31,31,32,32,33,33,34,34,35,35,36,36,37,37,39,39,40,40],"right_children":[2,4,6,8,10,12,14,16,18,-1,20,-1,-1,22,24,26,28,30,32,34,36,38,-1,40,42,-1,44,-1,46,48,-1,50,52,54,56,58,60,62,-1,64,66,-1,-1,-1,-1,-1,-1,-1,-1,-1,-1,-1,-1,-1,-1,-1,-1,-1,-1,-1,-1,-1,-1,-1,-1,-1,-1],"split_conditions":[6.0756844E1,1.989203E1,-6.1638765E-2,-5.856203E-2,2.0750864E1,2.9620766E1,1.8004314E1,-1.16284385E-1,3.512179E1,-1.7151912E-1,6.64623E1,3.5692248E-3,-1.1979038E-1,5.2793443E-1,3.2772247E1,-2.3357153E-1,1.3016123E1,3.3863605E1,1.3950405E1,5.6134224E1,7.138377E1,6.809156E1,1.7163083E-1,1.9309532E1,6.167474E1,-1.1089415E-1,4.0078087E1,1.566653E-1,1.5872218E1,1.3520157E1,-1.6709732E-1,1.4287486E1,4.3352893E-1,4.844381E1,-1.0151276E-1,3.255112E0,4.7642865E0,6.3511517E1,1.6236956E-1,3.4986798E-2,2.476114E1,3.810274E-2,1.6112867E-1,9.210284E-2,1.8804233E-1,-1.0619392E-1,3.448471E-2,-5.480358E-2,1.1381899E-1,9.920806E-2,-7.1630046E-2,3.6681853E-2,1.5655668E-1,3.3659786E-2,1.6004595E-1,9.662105E-2,-9.335719E-2,-1.6752328E-3,1.5163721E-1,7.381606E-2,-1.1158829E-1,1.320005E-1,-1.4016964E-1,1.2700743E-2,1.3492529E-1,-1.7140473E-1,3.5135247E-2],"split_indices":[2,0,4,4,0,0,1,4,2,0,0,0,0,3,0,4,1,2,0,1,1,2,0,1,2,0,2,0,0,1,0,1,3,0,4,3,3,2,0,4,1,0,0,0,0,0,0,0,0,0,0,0,0,0,0,0,0,0,0,0,0,0,0,0,0,0,0],"split_type":[0,0,0,0,0,0,0,0,0,0,0,0,0,0,0,0,0,0,0,0,0,0,0,0,0,0,0,0,0,0,0,0,0,0,0,0,0,0,0,0,0,0,0,0,0,0,0,0,0,0,0,0,0,0,0,0,0,0,0,0,0,0,0,0,0,0,0],"sum_hessian":[3.9886597E2,2.6796463E2,1.3090135E2,1.06582565E2,1.6138205E2,2.489096E0,1.2841226E2,2.978129E1,7.680128E1,3.2437603E0,1.5813829E2,1.2421398E0,1.2469561E0,4.682665E1,8.158561E1,1.3691682E1,1.6089607E1,4.775665E0,7.202561E1,1.3159067E2,2.654762E1,1.054876E1,3.627789E1,4.3328854E1,3.8256752E1,1.1454043E0,1.2546277E1,3.6379993E0,1.2451609E1,2.8961642E0,1.8795009E0,2.766687E1,4.435874E1,1.0876097E2,2.2829699E1,2.0224157E1,6.323464E0,4.759518E0,5.7892423E0,3.224263E1,1.1086226E1,1.991179E0,3.626557E1,8.244473E0,4.3018036E0,9.787673E0,2.6639354E0,1.1763858E0,1.7197784E0,2.3967173E1,3.6996965E0,4.3194356E0,4.0039307E1,1.0057116E2,8.18981E0,7.169183E0,1.5660516E1,4.771867E0,1.5452291E1,3.665004E0,2.65846E0,2.3002877E0,2.4592304E0,1.1338429E1,2.09042E1,3.067774E0,8.018453E0],"tree_param":{"num_deleted":"0","num_feature":"5","num_nodes":"67","size_leaf_vector":"1"}},{"base_weights":[-1.9358552E-1,-3.923829E-1,-1.3304335E-1,-2.1878149E-1,-4.774055E-1,-7.5120546E-2,-2.9078633E-1,6.819472E-2,-3.493255E-1,-1.8036076E-1,-5.154039E-1,-4.7731984E-2,-1.5197265E-1,-1.5058151E-1,-4.3793005E-1,3.72514E-1,-1.22587785E-1,5.85584E-2,-4.0109307E-1,-1.3522923E-1,1.2054385E-1,-2.2866213E-1,-1.6174765E-1,-6.5591015E-2,1.7589289E-1,-1.5651582E-1,-1.38024725E-2,-5.231124E-1,-3.9417654E-2,-1.4398676E-2,6.207598E-1,-4.482258E-1,-2.3735892E-4,5.24581E-2,-1.2344264E-1,1.4471145E-1,-1.3350776E-1,-1.4708808E-1,9.550154E-2,-1.691542E-1,8.027465E-6,2.2386572E-1,-1.3493179E-1,3.3937898E-3,2.762471E-1,-1.5467006E-1,-6.236883E-3,-2.8219866E-3,1.5704215E-1,1.8429878E-1,-4.40622E-2,1.1611181E-1,-3.8184933E-2],"categories":[],"categories_nodes":[],"categories_segments":[],"categories_sizes":[],"default_left":[1,1,0,0,0,0,0,1,0,0,0,0,0,0,0,0,0,0,1,0,0,0,0,0,0,0,0,0,0,0,0,1,0,0,0,1,0,0,0,0,0,0,0,0,0,0,0,0,0,0,0,0,0],"id":17,"left_children":[1,3,5,7,9,11,13,15,17,19,21,23,-1,25,27,29,-1,-1,31,-1,-1,33,-1,35,-1,-1,37,39,41,-1,43,45,-1,-1,-1,47,49,-1,51,-1,-1,-1,-1,-1,-1,-1,-1,-1,-1,-1,-1,-1,-1],"loss_changes":[3.1874542E0,8.154659E-1,1.8772426E0,8.6056423E-1,3.6969852E-1,1.7882177E0,1.0785141E0,1.2869583E0,5.156368E-1,1.1551028E0,1.20583534E-1,1.6839923E0,0E0,1.5122235E0,8.804321E-1,5.8270705E-1,0E0,0E0,2.731359E-1,0E0,0E0,4.0210837E-1,0E0,2.0509474E0,0E0,0E0,1.2394109E0,4.6430779E-1,2.1913087E0,0E0,6.117641E-1,3.625157E-1,0E0,0E0,0E0,2.0598383E0,1.1701493E0,0E0,1.3133546E0,0E0,0E0,0E0,0E0,0E0,0E0,0E0,0E0,0E0,0E0,0E0,0E0,0E0,0E0],"parents":[2147483647,0,0,1,1,2,2,3,3,4,4,5,5,6,6,7,7,8,8,9,9,10,10,11,11,13,13,14,14,15,15,18,18,21,21,23,23,26,26,27,27,28,28,30,30,31,31,35,35,36,36,38,38],"right_children":[2,4,6,8,10,12,14,16,18,20,22,24,-1,26,28,30,-1,-1,32,-1,-1,34,-1,36,-1,-1,38,40,42,-1,44,46,-1,-1,-1,48,50,-1,52,-1,-1,-1,-1,-1,-1,-1,-1,-1,-1,-1,-1,-1,-1],"split_conditions":[8.8873285E-1,1.2387516E1,5.1052667E-2,-4.2202827E-3,4.343194E1,6.941997E1,2.3216074E0,6.8277866E-1,5.2557526E1,4.2191925E1,-7.287494E-2,4.6300888E-2,-1.5197265E-1,1.1752387E0,6.536767E1,1.2388552E1,-1.22587785E-1,5.85584E-2,9.1499835E-2,-1.3522923E-1,1.2054385E-1,1.3465216E1,-1.6174765E-1,1.4363946E0,1.7589289E-1,-1.5651582E-1,6.725269E-2,7.807858E1,5.0428497E1,-1.4398676E-2,-2.3255879E-2,7.5299904E1,-2.3735892E-4,5.24581E-2,-1.2344264E-1,1.8606203E1,2.4009502E1,-1.4708808E-1,9.360237E-2,-1.691542E-1,8.027465E-6,2.2386572E-1,-1.3493179E-1,3.3937898E-3,2.762471E-1,-1.5467006E-1,-6.236883E-3,-2.8219866E-3,1.5704215E-1,1.8429878E-1,-4.40622E-2,1.1611181E-1,-3.8184933E-2],"split_indices":[3,0,4,4,2,2,3,3,2,2,4,4,0,3,1,1,0,0,4,0,0,1,0,3,0,0,4,2,0,0,4,2,0,0,0,1,2,0,4,0,0,0,0,0,0,0,0,0,0,0,0,0,0],"split_type":[0,0,0,0,0,0,0,0,0,0,0,0,0,0,0,0,0,0,0,0,0,0,0,0,0,0,0,0,0,0,0,0,0,0,0,0,0,0,0,0,0,0,0,0,0,0,0,0,0,0,0,0,0],"sum_hessian":[2.681723E2,6.1324593E1,2.068477E2,2.1335142E1,3.9989452E1,1.5237297E2,5.4474728E1,6.8200874E0,1.4515054E1,5.187077E0,3.4802372E1,1.443221E2,8.050872E0,2.8931206E1,2.5543522E1,4.2966247E0,2.5234625E0,1.0196112E0,1.3495443E1,3.6960754E0,1.4910015E0,3.4755442E0,3.132683E1,1.4124034E2,3.0817611E0,7.0331225E0,2.1898083E1,2.0787512E1,4.7560105E0,1.8943686E0,2.402256E0,1.1966725E1,1.5287173E0,1.0972021E0,2.3783422E0,3.420249E1,1.0703784E2,3.4356017E0,1.8462482E1,1.9213604E1,1.5739075E0,1.351003E0,3.4050076E0,1.1349028E0,1.267353E0,1.0159886E1,1.806839E0,2.500368E1,9.198812E0,1.0900233E0,1.0594782E2,7.6778736E0,1.0784608E1],"tree_param":{"num_deleted":"0","num_feature":"5","num_nodes":"53","size_leaf_vector":"1"}},{"base_weights":[-1.6926637E-1,-4.390562E-1,-1.2906258E-1,-4.6562412E-1,-3.72289E-3,4.8942468E-1,-1.4396618E-1,-1.566509E-1,-2.4766046E-1,1.8210068E-1,3.7234414E-3,-2.8162867E-1,-8.501454E-2,1.1737238E-1,-1.330698E-1,-1.2520336E-1,-1.6040565E-1,1.2809913E-1,-1.2061592E-1,-1.0425175E-1,1.8491167E-1,-2.0221947E-1,3.2046247E-1,-1.4313602E-1,4.7481853E-1,-1.5490529E-1,-9.065338E-2,3.229715E-2,-1.0170128E-1,2.3689784E-1,-6.524232E-2,1.6044453E-1,-1.083935E-1,-8.964407E-2,1.8252483E-1,2.857319E-2,-4.0616356E-2],"categories":[],"categories_nodes":[],"categories_segments":[],"categories_sizes":[],"default_left":[0,0,0,0,0,1,1,0,0,0,0,0,0,0,0,0,0,0,0,0,0,0,1,0,0,0,0,0,0,0,0,0,0,0,0,0,0],"id":18,"left_children":[1,3,5,7,-1,9,11,-1,13,-1,-1,15,17,19,-1,21,-1,23,25,-1,-1,27,29,31,33,-1,35,-1,-1,-1,-1,-1,-1,-1,-1,-1,-1],"loss_changes":[2.5503316E0,3.4283924E-1,2.0116742E0,2.2717857E-1,0E0,2.8313804E-1,1.6511965E0,0E0,6.14177E-1,0E0,0E0,2.3658237E0,1.1228431E0,1.0344492E0,0E0,1.4132377E0,0E0,2.0783427E0,1.4422106E0,0E0,0E0,1.4823169E0,1.7304453E0,2.0809946E0,1.1755292E0,0E0,9.9379605E-1,0E0,0E0,0E0,0E0,0E0,0E0,0E0,0E0,0E0,0E0],"parents":[2147483647,0,0,1,1,2,2,3,3,5,5,6,6,8,8,11,11,12,12,13,13,15,15,17,17,18,18,21,21,22,22,23,23,24,24,26,26],"right_children":[2,4,6,8,-1,10,12,-1,14,-1,-1,16,18,20,-1,22,-1,24,26,-1,-1,28,30,32,34,-1,36,-1,-1,-1,-1,-1,-1,-1,-1,-1,-1],"split_conditions":[1.4171148E1,7.761398E1,1.2387516E1,1.4573467E1,-3.72289E-3,1.4430308E1,1.4911484E0,-1.566509E-1,1.2585843E1,1.8210068E-1,3.7234414E-3,1.0387515E0,2.4006279E1,-4.973819E-2,-1.330698E-1,8.054323E-2,-1.6040565E-1,2.2109236E1,2.711021E1,-1.0425175E-1,1.8491167E-1,-5.4320138E-2,1.2654486E1,1.5519203E0,1.8448996E1,-1.5490529E-1,3.128914E1,3.229715E-2,-1.0170128E-1,2.3689784E-1,-6.524232E-2,1.6044453E-1,-1.083935E-1,-8.964407E-2,1.8252483E-1,2.857319E-2,-4.0616356E-2],"split_indices":[1,2,0,0,0,1,3,0,1,0,0,3,0,4,0,4,0,0,0,0,0,4,0,3,1,0,0,0,0,0,0,0,0,0,0,0,0],"split_type":[0,0,0,0,0,0,0,0,0,0,0,0,0,0,0,0,0,0,0,0,0,0,0,0,0,0,0,0,0,0,0,0,0,0,0,0,0],"sum_hessian":[2.3935216E2,2.9755491E1,2.0959666E2,2.792519E1,1.8303016E0,4.1826034E0,2.0541406E2,2.1064758E1,6.8604307E0,3.1368933E0,1.0457098E0,6.04576E1,1.4495645E2,2.5359814E0,4.3244495E0,3.8286083E1,2.2171516E1,2.0377346E1,1.2457911E2,1.4700495E0,1.065932E0,3.311047E1,5.1756124E0,1.1762686E1,8.614661E0,7.625879E0,1.1695323E2,1.0204903E1,2.2905567E1,2.514492E0,2.6611204E0,2.5104618E0,9.252224E0,1.086474E0,7.5281873E0,2.246581E1,9.448742E1],"tree_param":{"num_deleted":"0","num_feature":"5","num_nodes":"37","size_leaf_vector":"1"}},{"base_weights":[2.1498066E-1,1.4864568E-1,3.468125E-1,2.693107E-1,9.5124446E-2,-1.6431813E-1,3.6108443E-1,-1.3751206E-1,2.8842738E-1,2.8334093E-1,6.085556E-2,5.6877483E-2,-1.2402661E-1,4.6187997E-1,3.032217E-1,1.8058778E-1,4.8340023E-1,5.4318726E-1,1.6994658E-1,-1.8910573E-1,7.371797E-2,1.5467879E-1,4.9120256E-1,1.7260878E-1,4.5727456E-1,-2.120575E-1,2.4826215E-1,1.964582E-1,1.6161928E-1,1.9185324E-1,1.081647E-2,-1.0763772E-1,4.1920406E-1,5.0194323E-1,5.398667E-2,-8.7763846E-2,1.282165E-1,2.472286E-1,1.612771E-1,2.9767442E-1,2.7701776E-3,4.7591648E-1,1.3981004E-3,-1.2804484E-1,7.567591E-2,9.85532E-2,-2.7304627E-2,1.4362334E-1,-9.929338E-2,-1.0558063E-1,1.4310187E-1,-7.343708E-2,1.6576189E-1,1.9076E-1,-5.666566E-3,1.6843259E-3,6.0423747E-2,-2.39556E-2,1.4329308E-1,-7.855237E-2,1.04068935E-1,-1.0253407E-1,3.003461E-2,1.1100696E-1,1.6842851E-1],"categories":[],"categories_nodes":[],"categories_segments":[],"categories_sizes":[],"default_left":[0,1,0,0,0,0,0,0,0,0,0,0,0,0,1,0,0,0,0,0,0,0,0,1,0,0,1,0,0,0,0,0,0,0,0,0,0,0,0,0,0,0,0,0,0,0,0,0,0,0,0,0,0,0,0,0,0,0,0,0,0,0,0,0,0],"id":19,"left_children":[1,3,5,7,9,11,13,-1,15,17,19,-1,-1,21,23,25,27,29,31,-1,33,35,37,39,41,43,45,47,-1,-1,-1,49,51,53,55,-1,-1,57,-1,59,61,63,-1,-1,-1,-1,-1,-1,-1,-1,-1,-1,-1,-1,-1,-1,-1,-1,-1,-1,-1,-1,-1,-1,-1],"loss_changes":[3.1948566E0,1.5805988E0,9.603605E-1,1.1876855E0,1.104005E0,4.3476227E-1,5.625849E-1,0E0,1.4800873E0,6.885791E-1,1.3652588E0,0E0,0E0,3.025856E-1,1.5196648E0,1.3704686E0,3.0618334E-1,3.4801412E-1,1.4224131E0,0E0,1.2109206E0,7.496597E-1,2.9606724E-1,9.4654894E-1,3.0024195E-1,8.8848096E-1,1.1942115E0,1.0174173E0,0E0,0E0,0E0,1.626643E0,1.0818992E0,4.5377076E-1,1.0057219E0,0E0,0E0,6.340418E-1,0E0,7.9798794E-1,7.024844E-1,1.03924274E-1,0E0,0E0,0E0,0E0,0E0,0E0,0E0,0E0,0E0,0E0,0E0,0E0,0E0,0E0,0E0,0E0,0E0,0E0,0E0,0E0,0E0,0E0,0E0],"parents":[2147483647,0,0,1,1,2,2,3,3,4,4,5,5,6,6,8,8,9,9,10,10,13,13,14,14,15,15,16,16,17,17,18,18,20,20,21,21,22,22,23,23,24,24,25,25,26,26,27,27,31,31,32,32,33,33,34,34,37,37,39,39,40,40,41,41],"right_children":[2,4,6,8,10,12,14,-1,16,18,20,-1,-1,22,24,26,28,30,32,-1,34,36,38,40,42,44,46,48,-1,-1,-1,50,52,54,56,-1,-1,58,-1,60,62,64,-1,-1,-1,-1,-1,-1,-1,-1,-1,-1,-1,-1,-1,-1,-1,-1,-1,-1,-1,-1,-1,-1,-1],"split_conditions":[5.983094E1,1.5253045E1,-6.1638765E-2,3.8730037E-1,3.2851818E1,2.4580418E1,1.8004314E1,-1.3751206E-1,1.4710687E1,2.756513E0,1.5347442E1,5.6877483E-2,-1.2402661E-1,-1.2627325E-2,3.2772247E1,3.7413857E1,1.3465216E1,3.0985458E1,4.1053165E1,-1.8910573E-1,-2.1702567E-1,1.245102E1,4.9443212E-1,6.712008E1,7.092557E1,1.4988956E1,1.4171148E1,4.2748493E1,1.6161928E-1,1.9185324E-1,1.081647E-2,3.154247E1,2.4009502E1,3.6357028E0,5.1052667E-2,-8.7763846E-2,1.282165E-1,6.809156E1,1.612771E-1,1.809029E1,3.4986798E-2,6.8203156E1,1.3981004E-3,-1.2804484E-1,7.567591E-2,9.85532E-2,-2.7304627E-2,1.4362334E-1,-9.929338E-2,-1.0558063E-1,1.4310187E-1,-7.343708E-2,1.6576189E-1,1.9076E-1,-5.666566E-3,1.6843259E-3,6.0423747E-2,-2.39556E-2,1.4329308E-1,-7.855237E-2,1.04068935E-1,-1.0253407E-1,3.003461E-2,1.1100696E-1,1.6842851E-1],"split_indices":[2,1,4,3,2,0,1,0,0,3,1,0,0,4,0,2,1,2,1,0,4,1,3,2,0,1,1,2,0,0,0,2,2,3,4,0,0,2,0,1,4,2,0,0,0,0,0,0,0,0,0,0,0,0,0,0,0,0,0,0,0,0,0,0,0],"split_type":[0,0,0,0,0,0,0,0,0,0,0,0,0,0,0,0,0,0,0,0,0,0,0,0,0,0,0,0,0,0,0,0,0,0,0,0,0,0,0,0,0,0,0,0,0,0,0,0,0,0,0,0,0,0,0,0,0,0,0,0,0,0,0,0,0],"sum_hessian":[3.702277E2,2.4771185E2,1.2251584E2,7.4874176E1,1.7283766E2,3.04242E0,1.1947342E2,1.3284514E0,7.354573E1,2.550227E1,1.473354E2,1.3555098E0,1.6869099E0,4.102554E1,7.844788E1,4.8594368E1,2.495136E1,6.596336E0,1.8905935E1,1.8145884E0,1.4552081E2,4.121484E0,3.6904053E1,4.3601234E1,3.4846645E1,6.830493E0,4.1763874E1,4.7691946E0,2.0182167E1,5.3240623E0,1.2722733E0,9.213516E0,9.692418E0,5.333335E0,1.4018747E2,1.5336552E0,2.5878286E0,6.906944E0,2.999711E1,2.4676949E1,1.8924288E1,3.3418736E1,1.4279093E0,4.7255335E0,2.1049592E0,3.380079E1,7.963085E0,3.166687E0,1.6025076E0,6.7789273E0,2.4345891E0,1.4810548E0,8.211364E0,4.066765E0,1.26657E0,1.0633554E2,3.3851936E1,3.1247356E0,3.7822082E0,1.6460788E0,2.303087E1,3.6156802E0,1.5308607E1,1.7310059E1,1.6108679E1],"tree_param":{"num_deleted":"0","num_feature":"5","num_nodes":"65","size_leaf_vector":"1"}},{"base_weights":[-1.5810095E-1,-3.5507655E-1,-1.04327135E-1,-1.7263713E-1,-4.506864E-1,-4.4920642E-2,-2.3977664E-1,-2.6945323E-1,2.3815127E-1,-1.5125959E-1,-4.9439305E-1,3.362865E-2,-2.0354138E-1,-2.777017E-1,1.2530923E-1,7.847767E-2,-3.7337387E-1,1.6798112E-1,-9.240058E-2,-1.2810557E-1,1.07156724E-1,-1.9833063E-1,-1.5691571E-1,-4.8449717E-2,3.946339E-1,4.86103E-2,-4.1743246E-1,-2.1578074E-1,-4.6744472E-1,1.5909442E-1,-1.5869343E-1,-2.2598583E-1,1.59787E-1,1.4977389E-2,-4.2163548E-1,5.362681E-2,-1.1616557E-1,3.9007794E-2,-3.1209958E-1,6.595732E-1,-1.1352271E-1,-2.2227135E-1,2.9718986E-1,-4.5231575E-1,4.711083E-2,1.3710347E-1,-2.6193774E-1,-1.5970805E-1,2.9492704E-2,-1.2806687E-1,8.777465E-2,-1.0644022E-1,1.2039815E-2,-1.4785273E-1,-1.7557517E-2,-6.920657E-3,1.9845499E-1,4.497596E-2,-1.4499407E-1,6.3068494E-3,2.215813E-1,-1.3904996E-1,9.000603E-2,1.3995002E-1,-1.3183571E-1,2.4132839E-1,-2.123285E-2,3.7342217E-2,-1.4628206E-1,1.321026E-1,-1.0911748E-1,-3.9510697E-2,-1.2813757E-1],"categories":[],"categories_nodes":[],"categories_segments":[],"categories_sizes":[],"default_left":[1,1,0,1,0,0,0,0,0,0,0,1,0,0,0,0,0,0,0,0,0,0,0,1,0,0,0,0,0,0,0,1,0,0,1,0,0,0,0,0,0,0,0,0,0,0,0,0,0,0,0,0,0,0,0,0,0,0,0,0,0,0,0,0,0,0,0,0,0,0,0,0,0],"id":20,"left_children":[1,3,5,7,9,11,13,15,17,19,21,23,25,27,29,31,33,-1,-1,-1,-1,35,-1,37,39,41,43,45,47,-1,49,51,-1,-1,53,-1,-1,55,57,59,61,63,65,67,-1,69,71,-1,-1,-1,-1,-1,-1,-1,-1,-1,-1,-1,-1,-1,-1,-1,-1,-1,-1,-1,-1,-1,-1,-1,-1,-1,-1],"loss_changes":[2.584056E0,8.4059954E-1,1.5647943E0,8.4867966E-1,3.6920738E-1,1.7180403E0,8.5815215E-1,6.2345624E-1,9.269569E-1,9.604337E-1,1.4371586E-1,2.766246E0,2.481147E0,5.3570366E-1,8.0707765E-1,7.5718737E-1,2.830925E-1,0E0,0E0,0E0,0E0,3.672831E-1,0E0,1.7744735E0,2.4017873E0,1.5364481E0,5.6783056E-1,7.315266E-1,5.104382E-1,0E0,6.651889E-1,1.3282342E-1,0E0,0E0,2.7160382E-1,0E0,0E0,2.2673798E0,1.5871999E0,5.651984E-1,1.1197904E0,1.853723E0,2.262165E0,5.416908E-1,0E0,1.0100794E0,7.6363087E-1,0E0,0E0,0E0,0E0,0E0,0E0,0E0,0E0,0E0,0E0,0E0,0E0,0E0,0E0,0E0,0E0,0E0,0E0,0E0,0E0,0E0,0E0,0E0,0E0,0E0,0E0],"parents":[2147483647,0,0,1,1,2,2,3,3,4,4,5,5,6,6,7,7,8,8,9,9,10,10,11,11,12,12,13,13,14,14,15,15,16,16,21,21,23,23,24,24,25,25,26,26,27,27,28,28,30,30,31,31,34,34,37,37,38,38,39,39,40,40,41,41,42,42,43,43,45,45,46,46],"right_children":[2,4,6,8,10,12,14,16,18,20,22,24,26,28,30,32,34,-1,-1,-1,-1,36,-1,38,40,42,44,46,48,-1,50,52,-1,-1,54,-1,-1,56,58,60,62,64,66,68,-1,70,72,-1,-1,-1,-1,-1,-1,-1,-1,-1,-1,-1,-1,-1,-1,-1,-1,-1,-1,-1,-1,-1,-1,-1,-1,-1,-1],"split_conditions":[8.8873285E-1,1.2387516E1,4.0047623E-2,1.2150559E1,4.343194E1,4.5802807E1,2.302339E-1,-1.2627325E-2,6.50033E-1,4.2191925E1,-7.287494E-2,3.537093E1,4.1996365E1,1.2969851E-1,1.6615635E1,-2.3255879E-2,3.6190423E-1,1.6798112E-1,-9.240058E-2,-1.2810557E-1,1.07156724E-1,1.3465216E1,-1.5691571E-1,2.7674118E1,4.3389896E1,6.1088158E1,3.4986798E-2,3.8419537E1,7.038151E1,1.5909442E-1,3.7411343E1,5.544308E1,1.59787E-1,1.4977389E-2,7.5299904E1,5.362681E-2,-1.1616557E-1,3.1769924E1,-1.1237675E-1,3.7103153E1,4.6171562E1,4.1246704E1,4.339778E0,-1.6677439E-1,4.711083E-2,4.2187724E0,2.3216074E0,-1.5970805E-1,2.9492704E-2,-1.2806687E-1,8.777465E-2,-1.0644022E-1,1.2039815E-2,-1.4785273E-1,-1.7557517E-2,-6.920657E-3,1.9845499E-1,4.497596E-2,-1.4499407E-1,6.3068494E-3,2.215813E-1,-1.3904996E-1,9.000603E-2,1.3995002E-1,-1.3183571E-1,2.4132839E-1,-2.123285E-2,3.7342217E-2,-1.4628206E-1,1.321026E-1,-1.0911748E-1,-3.9510697E-2,-1.2813757E-1],"split_indices":[3,0,4,0,2,0,4,4,3,2,4,1,2,4,0,4,3,0,0,0,0,1,0,1,1,1,4,2,2,0,0,2,0,0,2,0,0,0,4,2,1,1,3,4,0,3,3,0,0,0,0,0,0,0,0,0,0,0,0,0,0,0,0,0,0,0,0,0,0,0,0,0,0],"split_type":[0,0,0,0,0,0,0,0,0,0,0,0,0,0,0,0,0,0,0,0,0,0,0,0,0,0,0,0,0,0,0,0,0,0,0,0,0,0,0,0,0,0,0,0,0,0,0,0,0,0,0,0,0,0,0,0,0,0,0,0,0,0,0,0,0,0,0,0,0,0,0,0,0],"sum_hessian":[2.4645732E2,5.1651756E1,1.9480557E2,1.872569E1,3.2926067E1,1.363401E2,5.8465458E1,1.5432549E1,3.2931406E0,4.7621546E0,2.8163912E1,9.17121E1,4.4628014E1,5.318043E1,5.285024E0,3.6056156E0,1.1826934E1,2.0563374E0,1.2368033E0,3.191427E0,1.5707276E0,3.1847184E0,2.4979195E1,7.542844E1,1.6283663E1,2.0836744E1,2.3791267E1,4.170696E1,1.1473474E1,1.8209491E0,3.4640753E0,2.4592829E0,1.1463329E0,1.2068962E0,1.0620037E1,1.0807673E0,2.1039512E0,5.727974E1,1.8148697E1,1.0507408E1,5.7762547E0,1.0021725E1,1.0815021E1,2.2629763E1,1.1615041E0,4.5963216E0,3.7110638E1,1.0345448E1,1.1280262E0,2.2066727E0,1.2574025E0,1.4325924E0,1.0266905E0,8.580164E0,2.0398736E0,5.2961365E1,4.318372E0,4.940681E0,1.3208016E1,1.29667E0,9.210738E0,3.063144E0,2.713111E0,2.127274E0,7.8944507E0,4.048311E0,6.7667093E0,1.159073E0,2.147069E1,2.9381318E0,1.6581895E0,2.17556E1,1.5355039E1],"tree_param":{"num_deleted":"0","num_feature":"5","num_nodes":"73","size_leaf_vector":"1"}},{"base_weights":[-1.3942581E-1,-4.1170603E-1,-1.03255E-1,-4.4344118E-1,1.04153E-2,4.299552E-1,-1.164419E-1,-1.5226859E-1,-2.1606945E-1,1.651584E-1,-2.8947676E-3,-2.4737948E-1,-6.4054176E-2,1.1037913E-1,-1.2580734E-1,-9.3435995E-2,-1.5616587E-1,-3.7515152E-2,-3.1855378E-1,-9.814723E-2,1.5919624E-1,-1.6766346E-1,3.0749238E-1,-1.928508E-1,1.7092736E-2,-1.4710411E-1,9.688374E-2,3.0293794E-2,-8.981223E-2,2.0853941E-1,-5.4998957E-2,1.5082862E-2,-1.0189505E-1,-1.0357029E-2,9.1163576E-2,-1.2145001E-1,1.484628E-1],"categories":[],"categories_nodes":[],"categories_segments":[],"categories_sizes":[],"default_left":[0,0,0,0,0,1,1,0,0,0,0,0,0,0,0,0,0,0,0,0,0,0,1,0,0,0,0,0,0,0,0,0,0,0,0,0,0],"id":21,"left_children":[1,3,5,7,-1,9,11,-1,13,-1,-1,15,17,19,-1,21,-1,23,25,-1,-1,27,29,31,33,-1,35,-1,-1,-1,-1,-1,-1,-1,-1,-1,-1],"loss_changes":[2.1420856E0,3.79169E-1,1.4362404E0,2.4089527E-1,0E0,2.6879478E-1,1.3092096E0,0E0,5.128623E-1,0E0,0E0,2.2580512E0,9.290304E-1,8.1530523E-1,0E0,1.1318545E0,0E0,1.0830904E0,9.7692335E-1,0E0,0E0,1.1369038E0,1.273503E0,1.2017294E0,1.418293E0,0E0,1.1278061E0,0E0,0E0,0E0,0E0,0E0,0E0,0E0,0E0,0E0,0E0],"parents":[2147483647,0,0,1,1,2,2,3,3,5,5,6,6,8,8,11,11,12,12,13,13,15,15,17,17,18,18,21,21,22,22,23,23,24,24,26,26],"right_children":[2,4,6,8,-1,10,12,-1,14,-1,-1,16,18,20,-1,22,-1,24,26,-1,-1,28,30,32,34,-1,36,-1,-1,-1,-1,-1,-1,-1,-1,-1,-1],"split_conditions":[1.4171148E1,7.761398E1,1.2387516E1,1.4573467E1,1.04153E-2,1.4430308E1,1.4911484E0,-1.5226859E-1,1.2585843E1,1.651584E-1,-2.8947676E-3,1.0387515E0,6.861344E1,-4.973819E-2,-1.2580734E-1,8.054323E-2,-1.5616587E-1,-9.2333905E-2,1.1325902E-1,-9.814723E-2,1.5919624E-1,-5.4320138E-2,1.2654486E1,3.0508274E1,4.7418213E0,-1.4710411E-1,2.5597234E0,3.0293794E-2,-8.981223E-2,2.0853941E-1,-5.4998957E-2,1.5082862E-2,-1.0189505E-1,-1.0357029E-2,9.1163576E-2,-1.2145001E-1,1.484628E-1],"split_indices":[1,2,0,0,0,1,3,0,1,0,0,3,2,4,0,4,0,4,4,0,0,4,0,0,3,0,3,0,0,0,0,0,0,0,0,0,0],"split_type":[0,0,0,0,0,0,0,0,0,0,0,0,0,0,0,0,0,0,0,0,0,0,0,0,0,0,0,0,0,0,0,0,0,0,0,0,0],"sum_hessian":[2.2081808E2,2.4676956E1,1.9614113E2,2.3045397E1,1.6315582E0,3.970966E0,1.9217017E2,1.7014782E1,6.0306144E0,2.9182389E0,1.0527272E0,5.3851627E1,1.3831853E2,2.4896562E0,3.5409582E0,3.5300507E1,1.8551123E1,1.262959E2,1.202263E1,1.3283312E0,1.161325E0,3.0276886E1,5.023619E0,3.2192036E1,9.410387E1,8.377869E0,3.6447616E0,1.0037428E1,2.0239458E1,2.5742683E0,2.4493508E0,1.2367189E1,1.9824846E1,8.0495735E1,1.3608129E1,1.6046802E0,2.0400813E0],"tree_param":{"num_deleted":"0","num_feature":"5","num_nodes":"37","size_leaf_vector":"1"}},{"base_weights":[1.7411831E-1,1.3742505E-1,3.740798E-1,1.4661679E-1,-4.9568725E-1,4.3771362E-1,1.553517E-1,2.4630655E-1,9.714521E-2,-1.8858726E-1,-2.9387916E-2,4.8935208E-1,2.3690777E-1,2.3347149E-2,1.3546269E-1,-1.5028754E-1,2.629578E-1,6.138869E-2,2.6233917E-1,2.3019968E-1,1.5122284E-1,-3.4501135E-1,1.627577E-1,3.3716598E-1,-2.756209E-1,2.371799E-2,3.0207676E-1,-9.836722E-2,9.7967796E-2,3.9086303E-1,-3.4016248E-2,1.03479035E-1,-8.007677E-3,-1.682326E-1,7.1773794E-3,-1.9797496E-2,1.4078963E-1,2.3999654E-2,-3.9788368E-1,-5.939407E-2,7.2133355E-2,5.657104E-2,1.2209273E-1,1.611612E-1,-4.7059935E-2,1.7938128E-2,7.465014E-2,8.237372E-2,1.8155718E-1,5.6987315E-2,-1.1008619E-1,-1.7027847E-1,8.124069E-3],"categories":[],"categories_nodes":[],"categories_segments":[],"categories_sizes":[],"default_left":[0,0,1,0,0,0,1,0,0,0,0,0,0,0,0,0,0,0,0,0,0,0,0,0,0,0,0,0,0,0,0,0,0,0,0,0,0,0,1,0,0,0,0,0,0,0,0,0,0,0,0,0,0],"id":22,"left_children":[1,3,5,7,9,11,13,15,17,-1,-1,19,21,23,-1,-1,25,27,29,31,-1,33,-1,35,37,39,41,43,45,47,49,-1,-1,-1,-1,-1,-1,-1,51,-1,-1,-1,-1,-1,-1,-1,-1,-1,-1,-1,-1,-1,-1],"loss_changes":[2.4955826E0,1.7887588E0,6.7305136E-1,1.4134078E0,1.7361403E-1,3.060274E-1,5.1920176E-1,1.3263702E0,1.1441727E0,0E0,0E0,3.894806E-3,2.0122905E0,1.0711718E0,0E0,0E0,8.7792444E-1,9.6090823E-1,1.3329573E0,1.132565E-1,0E0,3.43376E-1,0E0,3.259135E-1,2.8791565E-1,7.383356E-1,8.9004517E-1,1.2304449E0,7.508459E-1,4.3812037E-1,9.198332E-1,0E0,0E0,0E0,0E0,0E0,0E0,0E0,3.435493E-1,0E0,0E0,0E0,0E0,0E0,0E0,0E0,0E0,0E0,0E0,0E0,0E0,0E0,0E0],"parents":[2147483647,0,0,1,1,2,2,3,3,4,4,5,5,6,6,7,7,8,8,11,11,12,12,13,13,16,16,17,17,18,18,19,19,21,21,23,23,24,24,25,25,26,26,27,27,28,28,29,29,30,30,38,38],"right_children":[2,4,6,8,10,12,14,16,18,-1,-1,20,22,24,-1,-1,26,28,30,32,-1,34,-1,36,38,40,42,44,46,48,50,-1,-1,-1,-1,-1,-1,-1,52,-1,-1,-1,-1,-1,-1,-1,-1,-1,-1,-1,-1,-1,-1],"split_conditions":[6.8203156E1,6.783472E1,8.082899E-2,1.6279232E1,3.962791E1,6.8364174E1,3.514837E1,3.8730037E-1,7.815492E-2,-1.8858726E-1,-2.9387916E-2,6.861344E1,3.4986798E-2,1.921704E1,1.3546269E-1,-1.5028754E-1,3.7413857E1,1.753375E0,3.8562703E0,2.3155045E-2,1.5122284E-1,8.156196E1,1.627577E-1,8.413907E-2,9.13163E-1,1.4710687E1,1.3566943E1,4.173927E1,5.658422E1,2.756513E0,4.636142E1,1.03479035E-1,-8.007677E-3,-1.682326E-1,7.1773794E-3,-1.9797496E-2,1.4078963E-1,2.3999654E-2,2.9849676E1,-5.939407E-2,7.2133355E-2,5.657104E-2,1.2209273E-1,1.611612E-1,-4.7059935E-2,1.7938128E-2,7.465014E-2,8.237372E-2,1.8155718E-1,5.6987315E-2,-1.1008619E-1,-1.7027847E-1,8.124069E-3],"split_indices":[2,2,4,0,1,1,1,3,4,0,0,2,4,1,0,0,2,3,3,4,0,2,0,4,3,0,0,2,2,3,2,0,0,0,0,0,0,0,0,0,0,0,0,0,0,0,0,0,0,0,0,0,0],"split_type":[0,0,0,0,0,0,0,0,0,0,0,0,0,0,0,0,0,0,0,0,0,0,0,0,0,0,0,0,0,0,0,0,0,0,0,0,0,0,0,0,0,0,0,0,0,0,0,0,0,0,0,0,0],"sum_hessian":[3.461321E2,2.9389005E2,5.224206E1,2.9044174E2,3.4483087E0,3.96931E1,1.2548959E1,9.50097E1,1.9543204E2,2.149363E0,1.2989457E0,3.0430716E1,9.262386E0,9.426593E0,3.122366E0,1.436969E0,9.357273E1,1.6178502E2,3.364703E1,2.5302944E0,2.7900421E1,3.1450605E0,6.117326E0,4.5367355E0,4.889857E0,1.3375917E1,8.019681E1,2.9827398E1,1.3195761E2,2.3246538E1,1.0400492E1,1.512218E0,1.0180764E0,1.6563821E0,1.4886785E0,1.2434232E0,3.2933123E0,1.3394744E0,3.5503826E0,6.654876E0,6.7210417E0,3.986176E1,4.0335052E1,1.8242745E0,2.8003124E1,1.0642495E2,2.5532663E1,1.6548971E1,6.6975665E0,6.4744487E0,3.9260435E0,2.2973108E0,1.2530718E0],"tree_param":{"num_deleted":"0","num_feature":"5","num_nodes":"53","size_leaf_vector":"1"}},{"base_weights":[-1.2879808E-1,-3.0910146E-1,-7.863273E-2,-3.4819257E-1,-2.0738455E-2,7.177523E-2,-1.24201134E-1,-1.2571764E-1,-4.1769102E-1,4.057366E-1,-1.23872295E-1,2.9443678E-1,-8.6592995E-2,-6.421822E-2,-2.4180411E-1,-2.943042E-1,3.2747146E-1,-1.8174915E-1,-4.7997496E-1,1.5858546E-1,2.374246E-2,-2.6770962E-2,5.7432777E-1,-3.548654E-1,2.4573997E-1,-3.8362075E-2,-1.521369E-1,-3.6000393E-2,-3.808146E-1,3.4188867E-2,-1.3622543E-1,1.6081582E-1,1.4054943E-3,9.047625E-2,-3.6319116E-1,-1.6156077E-1,-1.5393943E-1,3.3262992E-1,-2.8073287E-1,2.2237447E-1,2.2575516E-1,-1.8719037E-1,-1.4891803E-1,4.4200915E-1,-2.7695874E-2,-6.468006E-2,3.739036E-1,-3.4978175E-1,2.0768347E-1,-4.582652E-1,1.1660482E-3,9.334208E-2,-9.3809254E-2,-8.9183515E-3,-1.4265762E-1,-1.0737697E-1,5.5261496E-2,1.6129023E-1,-1.5177913E-2,5.9348203E-2,-1.5667611E-1,-4.8428617E-4,1.1209882E-1,3.3813645E-4,-1.3742092E-1,5.6754813E-2,1.736381E-1,-6.821007E-2,8.990585E-2,-5.456917E-3,-1.5687463E-1,2.8082997E-1,-1.1392646E-1,5.4909345E-3,-1.5948796E-1,-5.8859654E-2,9.646496E-2,-1.6188297E-1,-7.232471E-2,-1.1485119E-1,9.741226E-2],"categories":[],"categories_nodes":[],"categories_segments":[],"categories_sizes":[],"default_left":[1,0,0,0,0,0,0,0,0,0,0,0,0,0,0,0,0,0,0,0,0,0,0,0,0,0,0,0,0,0,0,0,0,0,0,0,0,0,0,0,0,0,0,0,0,0,0,0,0,0,0,0,0,0,0,0,0,0,0,0,0,0,0,0,0,0,0,0,0,0,0,0,0,0,0,0,0,0,0,0,0],"id":23,"left_children":[1,3,5,7,9,11,13,15,17,19,-1,21,23,25,27,29,31,33,35,-1,-1,37,39,41,43,45,-1,47,49,51,-1,-1,-1,-1,53,55,-1,57,59,-1,61,63,-1,65,67,69,71,73,75,77,79,-1,-1,-1,-1,-1,-1,-1,-1,-1,-1,-1,-1,-1,-1,-1,-1,-1,-1,-1,-1,-1,-1,-1,-1,-1,-1,-1,-1,-1,-1],"loss_changes":[2.0484097E0,5.51198E-1,1.2468421E0,6.2101936E-1,1.334469E0,1.5287721E0,9.6490836E-1,9.9787533E-1,3.942132E-1,1.1254543E-1,0E0,1.6287838E0,2.3771634E0,1.0501801E0,1.3189993E0,4.94565E-1,2.44755E-1,8.50726E-1,1.84309E-1,0E0,0E0,9.4330055E-1,3.9322233E-1,2.540561E-1,6.5965575E-1,9.934467E-1,0E0,1.5930785E0,8.2000685E-1,4.7356504E-1,0E0,0E0,0E0,0E0,2.3304218E-1,3.2709262E-1,0E0,3.6605582E-1,7.966397E-1,0E0,1.5387404E-1,4.2380217E-1,0E0,1.354059E-1,4.5916507E-1,1.7975566E0,2.6892738E0,6.164639E-1,6.066664E-1,2.7681398E-1,8.283823E-1,0E0,0E0,0E0,0E0,0E0,0E0,0E0,0E0,0E0,0E0,0E0,0E0,0E0,0E0,0E0,0E0,0E0,0E0,0E0,0E0,0E0,0E0,0E0,0E0,0E0,0E0,0E0,0E0,0E0,0E0],"parents":[2147483647,0,0,1,1,2,2,3,3,4,4,5,5,6,6,7,7,8,8,9,9,11,11,12,12,13,13,14,14,15,15,16,16,17,17,18,18,21,21,22,22,23,23,24,24,25,25,27,27,28,28,29,29,34,34,35,35,37,37,38,38,40,40,41,41,43,43,44,44,45,45,46,46,47,47,48,48,49,49,50,50],"right_children":[2,4,6,8,10,12,14,16,18,20,-1,22,24,26,28,30,32,34,36,-1,-1,38,40,42,44,46,-1,48,50,52,-1,-1,-1,-1,54,56,-1,58,60,-1,62,64,-1,66,68,70,72,74,76,78,80,-1,-1,-1,-1,-1,-1,-1,-1,-1,-1,-1,-1,-1,-1,-1,-1,-1,-1,-1,-1,-1,-1,-1,-1,-1,-1,-1,-1,-1,-1],"split_conditions":[9.367737E-1,1.8432487E1,1.4363946E0,1.245102E1,2.7712513E-2,-3.1333946E-2,5.5131516E1,1.2355051E1,4.343194E1,7.561696E1,-1.23872295E-1,4.379321E1,1.190234E0,7.1865105E1,2.9450047E1,1.1334613E1,5.349507E-1,6.214823E-1,-7.287494E-2,1.5858546E-1,2.374246E-2,1.4028037E1,5.3098705E1,3.4986798E-2,6.1232826E1,7.196047E1,-1.521369E-1,2.4006279E1,1.05215095E-1,6.783472E1,-1.3622543E-1,1.6081582E-1,1.4054943E-3,9.047625E-2,3.7413857E1,6.6921055E-1,-1.5393943E-1,1.4573467E1,1.2480598E1,2.2237447E-1,1.8152037E1,1.8822536E1,-1.4891803E-1,1.4995338E1,6.69278E1,5.2857356E0,4.09971E1,1.6910939E0,1.8237808E0,5.4423843E1,4.515094E1,9.334208E-2,-9.3809254E-2,-8.9183515E-3,-1.4265762E-1,-1.0737697E-1,5.5261496E-2,1.6129023E-1,-1.5177913E-2,5.9348203E-2,-1.5667611E-1,-4.8428617E-4,1.1209882E-1,3.3813645E-4,-1.3742092E-1,5.6754813E-2,1.736381E-1,-6.821007E-2,8.990585E-2,-5.456917E-3,-1.5687463E-1,2.8082997E-1,-1.1392646E-1,5.4909345E-3,-1.5948796E-1,-5.8859654E-2,9.646496E-2,-1.6188297E-1,-7.232471E-2,-1.1485119E-1,9.741226E-2],"split_indices":[3,0,3,1,4,4,2,1,2,2,0,2,3,1,0,1,3,3,4,0,0,1,2,4,2,0,0,0,4,2,0,0,0,0,2,3,0,0,0,0,1,1,0,0,2,3,2,3,3,0,0,0,0,0,0,0,0,0,0,0,0,0,0,0,0,0,0,0,0,0,0,0,0,0,0,0,0,0,0,0,0],"split_type":[0,0,0,0,0,0,0,0,0,0,0,0,0,0,0,0,0,0,0,0,0,0,0,0,0,0,0,0,0,0,0,0,0,0,0,0,0,0,0,0,0,0,0,0,0,0,0,0,0,0,0,0,0,0,0,0,0,0,0,0,0,0,0,0,0,0,0,0,0,0,0,0,0,0,0,0,0,0,0,0,0],"sum_hessian":[2.2815633E2,4.85385E1,1.7961783E2,4.2561314E1,5.9771876E0,4.1630993E1,1.3798683E2,1.0799481E1,3.1761833E1,2.8467817E0,3.1304061E0,1.6946072E1,2.4684923E1,9.240308E1,4.5583748E1,8.126874E0,2.6726077E0,7.4516845E0,2.4310148E1,1.6190426E0,1.227739E0,8.311733E0,8.634337E0,1.3621391E1,1.1063531E1,8.833295E1,4.0701356E0,1.888446E1,2.6699287E1,2.916619E0,5.2102547E0,1.2221582E0,1.4504495E0,1.8531026E0,5.598582E0,2.846525E0,2.1463623E1,3.3132033E0,4.9985304E0,5.0767283E0,3.557609E0,7.297881E0,6.3235106E0,6.0816736E0,4.9818573E0,8.382489E1,4.5080557E0,8.064611E0,1.0819849E1,2.20323E1,4.666987E0,1.6790928E0,1.2375264E0,1.7294272E0,3.8691545E0,1.7930692E0,1.0534557E0,1.8960099E0,1.4171935E0,1.7372249E0,3.2613053E0,1.7919846E0,1.7656245E0,4.89245E0,2.4054313E0,2.9718003E0,3.1098733E0,3.2842722E0,1.6975852E0,7.70477E1,6.7771907E0,2.4433496E0,2.0647063E0,2.964105E0,5.100507E0,2.220546E0,8.599303E0,1.4948743E1,7.083557E0,2.0502841E0,2.6167026E0],"tree_param":{"num_deleted":"0","num_feature":"5","num_nodes":"81","size_leaf_vector":"1"}},{"base_weights":[-1.1200595E-1,-3.8308495E-1,-7.985115E-2,-4.2014742E-1,2.1449063E-2,3.9136878E-1,-9.161993E-2,-1.4848745E-1,-1.7366943E-1,1.5289247E-1,-3.94712E-3,-2.1335499E-1,-4.640905E-2,1.3926727E-1,-1.18598066E-1,-6.459071E-2,